3698 30
</s> 0.0028759 -0.0056374 -0.004038 -0.00488 0.0036569 -0.0036446 0.0023564 -0.0036093 0.0051529 -0.00051403 0.00093681 -0.00014086 -0.0012862 -0.00099641 -0.0025132 -0.012589 -0.00035585 0.0016611 0.0038889 -0.010029 0.011738 0.0016583 -0.0085703 -0.0066734 0.0027305 -0.01117 0.00054507 -0.011574 -0.0082284 0.011376 
视 -0.088004 0.033015 -0.0074611 0.098933 -0.082302 0.055433 -0.067964 0.055875 0.040718 -0.032338 -0.027336 0.092087 0.026638 -0.014996 -0.0035426 -0.040314 -0.059746 0.080216 -0.072924 -0.01496 -0.11845 0.092256 0.052684 0.0022589 -0.023938 -0.072011 -0.0036413 0.040292 -0.0092634 0.032356 
频 -0.21987 0.115 -0.018142 0.23608 -0.23454 0.13093 -0.20414 0.14756 0.075368 -0.061909 -0.083898 0.21418 0.086593 -0.0472 -0.010644 -0.1467 -0.12217 0.2238 -0.20187 -0.039204 -0.32381 0.21469 0.15807 -0.021797 -0.059034 -0.20764 -0.018055 0.10396 -0.050272 0.079048 
影 0.065076 -0.0025194 0.012537 -0.064949 0.041422 -0.035646 0.072545 -0.00075796 -0.0073651 0.0011961 0.011938 -0.048682 0.00074291 0.0057367 0.0055423 0.063431 0.016361 -0.047921 0.033496 0.0098734 0.088895 -0.056815 -0.0426 0.0043124 0.01215 0.043507 -0.00073932 -0.01891 0.01521 -0.03586 
电 0.010506 0.0053975 0.011904 0.012275 -0.021342 -0.0069504 -0.03176 -0.015712 0.0041202 -0.028371 0.0019256 0.01829 0.022202 0.0057129 -0.0055068 -0.017179 -0.020826 0.011187 0.0041613 0.00078599 -0.013105 0.015864 -0.0068936 0.019139 0.0015456 0.012638 0.0029681 -0.0046445 -0.016382 -0.0034065 
的 -0.090018 0.049 -0.029503 0.1006 -0.10075 0.085086 -0.11326 0.066038 0.06162 -0.036169 -0.021765 0.11363 0.034507 -0.0097255 -0.011719 -0.081955 -0.086671 0.080562 -0.084645 -0.032473 -0.14117 0.099454 0.061042 -0.015036 -0.037901 -0.085206 -0.022703 0.060424 -0.0056587 0.058027 
人 -0.038306 0.010744 0.0027675 0.040823 -0.038376 0.031632 -0.046132 0.018189 0.014198 0.00020506 -0.029554 0.049607 0.014902 -0.02302 -0.0027535 -0.00064575 -0.02948 0.053918 -0.049749 0.0085842 -0.053241 0.023103 0.015742 -0.017678 0.0016353 -0.028384 -0.002253 0.026172 -0.019388 0.027712 
女 -0.11734 0.045317 -0.0092551 0.087379 -0.117 0.070106 -0.10439 0.060653 0.013783 -0.042439 -0.010474 0.087642 0.039302 -0.040812 -0.017776 -0.067617 -0.054433 0.061101 -0.099797 0.0055363 -0.14671 0.098829 0.060287 -0.0061078 -0.023011 -0.078293 -0.019638 0.06932 -0.021085 0.045227 
笑 0.10737 -0.037077 0.017522 -0.11335 0.10981 -0.073213 0.14193 -0.049097 -0.028259 0.052437 0.048412 -0.10751 -0.034767 0.035851 0.0045634 0.0933 0.077206 -0.12996 0.10144 0.021711 0.18799 -0.098808 -0.051738 0.0044073 0.0018433 0.10311 0.010516 -0.068049 0.048866 -0.075417 
小 -0.055694 0.029966 0.0019774 0.048929 -0.05482 0.057638 -0.051364 0.013752 0.034861 -0.021697 -0.01808 0.067198 0.026093 -0.028167 0.0040824 -0.049007 -0.037439 0.078613 -0.044028 -0.017697 -0.078037 0.073785 0.036407 -0.0068518 0.0033268 -0.065501 -0.016308 0.033577 -0.0033128 0.032435 
搞 -0.15079 0.083743 -0.055288 0.12694 -0.13464 0.090683 -0.14791 0.076013 0.052725 -0.027296 -0.052198 0.1551 0.023915 -0.043433 -0.0054556 -0.086073 -0.12351 0.12317 -0.1007 -0.025478 -0.17903 0.15541 0.09836 -0.001457 -0.027986 -0.097827 0.0097008 0.058797 -0.061322 0.061368 
美 -0.033658 0.03299 -0.020804 0.049263 -0.040057 0.032039 -0.04407 0.013448 0.0085751 -0.014674 -0.0035477 0.028009 0.025494 -0.019355 0.0017418 -0.031109 -0.033928 0.042732 -0.02535 0.015972 -0.061153 0.036184 0.024437 -0.015725 -0.0061995 -0.02985 -0.0056289 0.014418 -0.015315 0.0069868 
院 0.37782 -0.15298 0.078707 -0.42839 0.36994 -0.2656 0.36124 -0.24258 -0.14914 0.1464 0.17395 -0.38325 -0.14253 0.11725 0.032826 0.25583 0.28741 -0.33077 0.36495 0.039678 0.57207 -0.41082 -0.20744 0.032073 0.106 0.34553 0.055099 -0.17827 0.09084 -0.2056 
大 -0.044191 0.018989 -0.0013221 0.055321 -0.081158 0.044722 -0.05212 0.033816 0.011365 -0.00165 -0.016214 0.069556 0.01241 -0.00040277 0.008661 -0.039064 -0.049596 0.040929 -0.047619 -0.0042943 -0.099548 0.057181 0.039354 -0.0045255 -0.007627 -0.061435 -0.012147 0.027776 -0.02595 0.052179 
国 0.02581 -0.030156 0.0081461 -0.055533 0.029008 -0.0025839 0.026153 0.005232 -0.011906 0.017841 0.0037567 -0.030819 -0.011229 -0.00779 -0.0089513 0.028184 0.0059226 -0.007921 0.038658 -0.009087 0.022638 -0.039144 -0.014527 0.026476 0.026916 0.0143 -0.0016249 0.0082461 -0.0090441 -0.015664 
学 0.081938 -0.034144 0.011372 -0.072089 0.079692 -0.037694 0.063063 -0.038104 -0.040729 0.056752 0.033425 -0.07116 -0.035513 0.029689 0.018914 0.043141 0.035098 -0.085392 0.05893 0.024011 0.11046 -0.091225 -0.072162 -0.00075251 0.01201 0.077072 -0.0018811 -0.055858 0.02868 -0.054638 
情 -0.023259 0.0082955 0.0051815 0.022605 -0.015411 0.012356 -0.025116 0.005759 0.016654 0.015775 0.019824 0.025227 0.011658 -0.014911 0.0016263 -0.0087898 -0.010036 0.017835 -0.0085208 0.004121 -0.022488 0.0080906 0.013164 -0.005528 0.010402 -0.01051 -0.019332 -0.0047722 -0.007322 0.012734 
爱 -0.089818 0.052412 -0.036061 0.090809 -0.1115 0.074431 -0.11016 0.028164 0.056237 -0.054538 -0.058304 0.09778 0.054889 -0.037745 0.0013098 -0.034899 -0.062237 0.061664 -0.10782 -0.035129 -0.15536 0.11599 0.038831 -0.0059903 -0.0055963 -0.056371 -0.036641 0.026597 -0.051971 0.072232 
生 -0.030509 0.0081423 0.0049333 0.041017 -0.021067 0.019394 -0.031094 0.0002952 0.010179 -0.0038948 -0.019578 0.043022 0.0054431 -0.0015906 -0.010617 -0.008352 -0.023711 0.02825 -0.032488 -0.0014052 -0.056155 0.026731 0.039455 -0.0028082 0.0075781 -0.027342 -0.0063556 0.0096986 -0.0098852 0.013732 
子 0.0035418 0.026011 0.0097772 -0.0045447 0.0034991 0.010686 -0.0018962 -0.0064941 0.00024772 -0.0072322 0.008692 0.0087293 0.0031047 0.0080698 0.011677 0.011208 -0.029988 0.014916 -0.018069 0.0032522 -0.01343 -0.0003074 -0.010925 0.0079155 -0.011991 -0.0035704 -0.0067285 0.0035822 -0.0059423 -0.0070233 
看 0.064383 -0.019549 0.037189 -0.071989 0.028774 -0.016226 0.055348 -0.031547 -0.012028 0.016023 0.018638 -0.022231 -0.048348 -0.018287 -0.013834 0.054944 0.023772 -0.045815 0.0398 0.022581 0.086851 -0.012308 -0.018788 -0.014283 0.013893 0.053614 -0.012633 -0.022779 0.011947 0.010347 
教 -0.12508 0.021783 -0.024994 0.13955 -0.099188 0.089633 -0.11098 0.072748 0.026387 -0.029536 -0.042139 0.10892 0.04709 -0.055716 0.0025894 -0.068581 -0.058745 0.10458 -0.087343 -0.031405 -0.15144 0.13135 0.077474 -0.0031919 -0.010123 -0.088286 -0.012472 0.053545 -0.0023081 0.045694 
演 0.039978 -0.022092 0.0073083 -0.082543 0.04061 -0.025239 0.050078 -0.028087 -0.02094 0.038565 0.030091 -0.055826 -0.03465 0.0092135 0.0081936 0.043615 0.040607 -0.05967 0.042213 0.00719 0.078481 -0.053355 -0.043118 -0.010374 0.025985 0.046067 0.01937 -0.030511 0.02725 -0.04102 
一 0.037088 -0.016263 0.013825 -0.021665 0.012382 -0.036586 0.03997 -0.023103 -0.0026478 -0.0070286 0.01335 -0.037411 -0.0096544 0.012279 0.017227 0.029578 0.027922 -0.022121 0.027759 0.0011399 0.040299 -0.034226 -0.020602 -0.00011553 0.027791 0.022434 0.0072269 -0.023164 -0.002672 -0.016437 
色 -0.03493 0.013777 -0.027046 0.053349 -0.060712 0.0017598 -0.048237 0.038167 -0.0031031 -0.01554 -0.021818 0.062769 0.032678 -0.0045661 -0.021481 0.00084912 -0.013132 0.004622 -0.017031 -0.0045172 -0.047615 0.047836 0.011768 0.022122 0.0011065 -0.031958 0.012568 0.025751 -0.0070338 0.040837 
男 -0.030657 0.003972 -0.0099854 0.028292 -0.028085 0.01382 -0.0090509 0.016635 0.010083 -0.0047015 -0.0058231 0.014074 0.016192 -0.013952 0.00074113 -0.022832 -0.025129 0.0070303 -0.027602 -0.0073121 -0.021649 0.02302 0.0045176 0.0023398 0.014392 -0.018168 0.0024668 0.016913 -0.020179 -0.0057756 
性 -0.045903 0.011959 0.0023214 0.06039 -0.045717 0.046379 -0.031762 0.042686 0.009 -0.015374 -0.0034145 0.04261 0.0057872 -0.017883 -0.019577 -0.038851 -0.031733 0.041205 -0.03572 -0.022927 -0.062687 0.041917 0.019575 -0.004012 0.013718 -0.044818 -0.013592 0.025912 -0.014344 0.026088 
片 -0.021909 -0.0016386 0.0018272 0.03079 -0.020346 0.005509 -0.021216 0.013044 0.0165 -0.022504 -0.011713 0.018052 0.023666 -0.027544 0.010187 -0.029083 0.0077479 0.00056722 -0.0090208 0.0024218 -0.01706 0.054051 0.014891 0.0058687 -0.011087 -0.0094328 0.0267 0.0016488 -0.0040827 0.030936 
三 -0.063689 0.013011 0.0038894 0.063565 -0.045421 0.021812 -0.059847 0.045556 0.024092 -0.020287 -0.026577 0.054637 0.01386 -0.0022823 -0.012192 -0.01674 -0.046563 0.036596 -0.05276 -0.021327 -0.064232 0.061575 0.029651 0.014879 -0.01732 -0.043594 -0.0054625 0.0099375 -0.014404 0.032238 
中 0.028609 -0.012343 0.011285 -0.032001 0.03205 -0.019114 0.028269 -0.023673 0.0031815 0.017687 0.015854 -0.020005 -0.0027856 0.0063845 0.0077923 0.023594 0.0011695 -0.025548 0.017129 0.0020519 0.039888 -0.025486 -0.023979 -0.006475 0.0097838 0.015778 -0.00046108 -0.013338 0.018096 -0.018697 
上 0.050861 -0.012982 0.019448 -0.05499 0.057663 -0.020814 0.058619 -0.03099 -0.028639 0.0081638 0.02635 -0.051428 -0.00399 0.0065952 0.0062954 0.031951 0.041202 -0.04957 0.04508 -0.00039796 0.068469 -0.045878 -0.046646 -0.016334 0.00029726 0.040249 -0.0019495 -0.045155 0.025311 -0.024086 
新 0.031548 -0.015267 0.014834 -0.028145 0.021814 -0.025032 0.0095859 0.00053669 0.0046479 0.01792 0.016099 -0.028015 0.010176 0.018914 0.012467 0.028594 0.019705 -0.021083 0.042814 0.0047456 0.04875 -0.022414 -0.0222 -0.0091657 -0.0068012 0.018401 -0.0040364 -0.0029056 0.0043983 -0.0039403 
e -0.051568 0.0082691 -0.0023385 0.035995 -0.034313 0.02199 -0.038031 0.026519 -0.0011887 -0.021588 -0.0030714 0.042523 0.021502 -0.017039 -0.0076633 -0.009887 -0.033351 0.035394 -0.012309 -0.019885 -0.041356 0.038761 0.022181 -0.024334 -0.028774 -0.0263 -0.02671 0.023574 -0.022148 0.022094 
节 0.17954 -0.052491 0.064996 -0.19252 0.16889 -0.12326 0.1671 -0.11892 -0.084656 0.050832 0.097743 -0.19152 -0.063711 0.074945 0.040376 0.10302 0.13782 -0.1892 0.16178 0.013353 0.28379 -0.20733 -0.11785 0.0077299 0.026883 0.15382 0.018367 -0.10499 0.083848 -0.089248 
a 0.040859 -0.0070842 0.0045913 -0.051166 0.0075307 -0.036495 0.043207 -0.023119 -0.013258 0.024885 0.025435 -0.026524 -0.021305 0.0014231 0.017861 0.0077318 0.020703 -0.0075273 0.00048521 -0.01878 0.0090965 -0.030868 -0.040762 -0.014756 0.0053645 0.023261 0.0027881 -0.013293 -0.007712 -0.014744 
舞 -0.049634 0.019182 0.0032306 0.046063 -0.052656 0.040568 -0.03123 0.034854 0.01685 -0.001894 -0.024313 0.068836 0.028137 -0.0071391 -0.011842 -0.028842 -0.029254 0.058854 -0.046871 0.0039143 -0.071767 0.06172 0.034854 -0.013059 -0.016512 -0.036547 0.0008958 0.040504 -0.0078035 0.024602 
车 -0.25785 0.12372 -0.064421 0.25472 -0.2111 0.14548 -0.25596 0.15477 0.065121 -0.095176 -0.11356 0.25813 0.1161 -0.10422 -0.050705 -0.18467 -0.1533 0.22167 -0.24124 -0.02232 -0.33937 0.27882 0.13748 0.02298 -0.063794 -0.19492 -0.00064296 0.12253 -0.097361 0.10214 
福 -0.21388 0.08501 -0.015714 0.20097 -0.16626 0.12575 -0.18577 0.092138 0.06936 -0.060301 -0.063372 0.2108 0.074828 -0.037752 -0.036893 -0.099464 -0.14583 0.19402 -0.20423 -0.015089 -0.27024 0.22757 0.11111 -0.037986 -0.034855 -0.16307 -0.026144 0.083586 -0.055727 0.097214 
日 -0.054644 0.033746 -0.0052217 0.065042 -0.037782 0.036843 -0.056009 0.036013 0.025704 -0.014036 -0.019647 0.077951 0.017802 -0.041942 -0.00035711 -0.032047 -0.038578 0.047482 -0.070949 -0.013682 -0.081759 0.067034 0.044486 0.002239 -0.0019118 -0.049983 -8.177e-05 0.021369 -0.01744 0.035476 
歌 0.044113 -0.032558 0.02232 -0.065662 0.042319 -0.042285 0.049627 -0.038493 -0.013308 -0.0072682 0.043261 -0.048515 -0.035248 0.028495 0.013859 0.030911 0.056352 -0.040521 0.047052 -0.021084 0.081736 -0.055409 -0.031727 0.010783 0.016283 0.044189 -0.013165 -0.035156 0.0099587 -0.049935 
天 0.03602 -0.023063 -0.00096129 -0.023756 0.039959 -0.0071784 0.0020293 -0.014534 -0.0092426 0.010506 0.0046903 -0.0060352 -0.0047595 0.0018035 0.0077582 0.017804 0.016214 -0.010437 0.02089 -0.01071 0.039792 -0.019285 -0.013771 0.0066633 0.019034 0.0063234 0.014965 -0.016475 0.021966 -0.0027766 
i 0.075333 -0.016177 0.022926 -0.076907 0.061568 -0.02678 0.081562 -0.045897 -0.042993 0.0153 0.041632 -0.077666 0.0042163 0.025589 0.030056 0.014837 0.047078 -0.039132 0.080113 0.013458 0.10327 -0.10306 -0.030699 0.0082701 0.0077008 0.047981 0.005619 -0.04686 0.018781 -0.041364 
动 -0.040355 0.043077 0.0065335 0.051512 -0.077492 0.058188 -0.079344 0.031193 0.033731 -0.036338 -0.0054478 0.072899 0.038713 -0.031994 -0.0092123 -0.059135 -0.025301 0.078369 -0.043187 0.016833 -0.071902 0.058941 0.040827 -0.016347 0.0070366 -0.041262 -0.0044735 0.017 -0.03139 0.028142 
黄 -0.058092 0.020216 -0.026149 0.048918 -0.08793 0.030836 -0.067159 0.030787 0.020299 -0.0317 -0.013864 0.05756 0.039216 -0.0040952 -0.021524 -0.045817 -0.041502 0.062653 -0.046309 -0.016678 -0.081835 0.079589 0.020192 0.0093958 -0.025789 -0.051895 -0.011354 0.0535 -0.035284 0.031439 
老 -0.008401 -0.012681 0.0067129 -0.013254 0.02307 -0.00055265 0.019968 -0.018325 0.0048106 0.012788 0.028952 -0.01218 0.0044925 -0.014803 -0.0097327 0.023476 0.0054242 -0.014419 0.018816 -0.0038979 0.017873 -0.020962 -0.020449 -0.011545 0.010499 0.021084 -0.011308 -0.015704 0.0021671 -0.0080316 
啪 -0.17131 0.084201 -0.049881 0.18319 -0.18344 0.083833 -0.14819 0.105 0.047223 -0.055647 -0.086288 0.1403 0.072433 -0.046757 -0.016963 -0.096925 -0.12736 0.15055 -0.11995 -0.037421 -0.23917 0.15868 0.11678 -0.019325 -0.040076 -0.1299 -0.0053129 0.04573 -0.053494 0.073986 
韩 0.094734 -0.015656 -0.0095601 -0.058424 0.064916 -0.026829 0.099272 -0.073009 -0.037879 0.043917 0.0076919 -0.057469 -0.011413 0.0015279 -0.002088 0.050442 0.044638 -0.076362 0.10014 -0.00035557 0.11788 -0.10554 -0.040483 0.027484 0.035377 0.032598 0.017847 -0.047817 0.028923 -0.023981 
o 0.0613 -0.031933 0.003918 -0.088755 0.070241 -0.061344 0.078175 -0.046331 -0.049418 0.035006 0.00017946 -0.051742 -0.041525 0.0042569 0.011061 0.070896 0.049529 -0.085535 0.087233 0.020058 0.091223 -0.072978 -0.056531 -0.014976 0.016339 0.062534 0.0088597 -0.029082 0.02578 -0.062593 
手 -0.0011484 -0.0035616 0.011018 -0.02397 0.012911 -0.019357 0.011392 -0.024145 -0.0064737 0.0065715 0.0014332 -0.0079126 -0.011039 -0.011446 -0.0022472 0.020198 0.0080241 -0.0037448 0.009007 0.0093565 0.0089412 -0.020023 -0.013806 0.0099048 0.0077384 0.0088099 0.013232 -0.012778 0.007012 -0.0021872 
乐 0.032374 -0.015525 0.0092608 -0.043958 0.058172 -0.025512 0.047273 -0.030265 -0.031535 0.027164 0.022342 -0.051742 -0.011109 0.026539 -0.0013447 0.023415 0.031611 -0.046913 0.039267 0.001635 0.083615 -0.031401 -0.036732 0.013813 0.0046208 0.020452 0.0084489 -0.031938 0.012735 -0.025002 
微 0.070916 -0.019994 0.020485 -0.089337 0.072118 -0.039061 0.054993 -0.041276 -0.040049 0.025101 0.024163 -0.085672 -0.033055 0.028456 0.011727 0.057002 0.039207 -0.073136 0.05977 -0.01134 0.12254 -0.096647 -0.064802 0.015472 0.00101 0.05981 -0.0088051 -0.033152 0.011374 -0.029651 
在 0.047277 -0.02253 0.027801 -0.071227 0.049115 -0.044465 0.036783 -0.041688 -0.015734 0.029767 0.018678 -0.044728 -0.0215 0.016559 -0.0059587 0.037286 0.047194 -0.032762 0.051592 0.007431 0.066306 -0.045373 -0.035443 -0.0089539 0.0083867 0.050997 0.0097008 -0.020064 0.026055 -0.024604 
打 -0.039148 0.020947 -0.023231 0.073946 -0.056954 0.021049 -0.038092 0.025059 0.018764 0.0027125 -0.0042167 0.069339 0.0024383 -0.042317 0.005317 -0.054166 -0.052325 0.049557 -0.050916 -0.0080018 -0.087176 0.056072 0.023653 0.014338 -0.014688 -0.071558 -0.0095657 -0.0033671 -0.016372 0.0026316 
法 -0.040676 0.022421 0.014847 -0.0024781 -0.014509 0.025499 -0.023871 -0.0039123 0.021871 0.0054278 0.0097233 0.016554 -0.0092229 0.0014806 0.010979 0.015572 -0.027984 -0.0034661 0.019554 0.015358 0.0071191 0.030278 -0.011402 0.014471 0.010233 -0.028954 0.0045607 0.016508 -0.022686 -0.0031338 
最 0.010349 0.0027046 0.0052971 -0.019692 0.016437 -0.015333 0.014086 -0.021864 -0.016164 -0.005423 0.026458 -0.015522 -0.0066783 0.0046803 -0.023898 -0.0056925 0.0021696 -0.017335 0.027882 -0.010315 0.0058711 -0.00012184 -0.006682 0.017045 -0.006323 0.026833 0.0019891 -0.018353 0.0088547 0.0064384 
全 -0.050952 0.03091 -0.012055 0.069562 -0.066646 0.051601 -0.029803 0.04122 0.012092 -0.020965 -0.03388 0.030046 0.022741 -0.026075 0.0048453 -0.033904 -0.012709 0.059725 -0.04288 -0.016098 -0.10571 0.061701 0.051626 0.0093135 -0.0079801 -0.057425 -0.010567 0.022414 -0.0048978 0.051262 
年 -0.0096331 -0.011587 0.018707 -0.0012726 -0.015348 -0.012375 -0.010461 -0.0018205 -0.00046018 0.0093614 0.01013 -5.3632e-05 0.015606 0.011484 0.0047016 0.00013558 -0.0074058 -0.0092089 -0.0084733 0.0038212 0.017666 -0.013322 0.0029883 0.0067004 -0.0059248 -0.0064661 -0.021403 0.011976 0.0063824 -0.019879 
做 -0.017564 0.0058115 -0.0031132 -0.0026553 -0.019644 0.01249 0.0045903 -0.015237 0.0017603 0.0054778 -0.0098629 0.011815 0.00059289 -0.020343 0.0016239 -0.013445 -0.0029896 -0.0029693 -0.023433 -0.0014471 -0.018744 0.0022391 0.016875 0.0013044 0.0043227 -0.020338 -0.0019914 0.0086793 -0.0081731 0.0038592 
儿 -0.060589 0.046242 -0.0078137 0.078443 -0.079238 0.034919 -0.077881 0.024229 0.0098661 -0.046947 -0.042938 0.084842 0.025668 -0.01594 0.018446 -0.047218 -0.048936 0.089671 -0.072296 -0.016822 -0.11598 0.055934 0.047658 0.015506 -0.025799 -0.061365 0.0096721 0.046682 -0.019569 0.051267 
2 -0.042279 0.017053 -0.014045 0.057015 -0.031367 0.026078 -0.041154 0.045624 0.04161 -0.0042446 0.0020045 0.021599 -0.00018237 -0.02717 -0.0019601 -0.024064 -0.028105 0.032275 -0.017233 -0.0085241 -0.05589 0.035206 0.036488 0.013896 -0.012129 -0.027316 -0.023138 0.032253 -0.02906 0.044598 
花 -0.19831 0.11911 -0.0699 0.20807 -0.21008 0.12184 -0.22685 0.16316 0.075449 -0.064841 -0.10567 0.21179 0.096051 -0.039709 0.0065378 -0.11537 -0.17099 0.19382 -0.18835 -0.044545 -0.3185 0.23429 0.13535 0.0043609 -0.054712 -0.19936 -0.0051182 0.074088 -0.056746 0.075837 
话 0.20571 -0.11647 0.066852 -0.24914 0.19949 -0.16322 0.21986 -0.16066 -0.10528 0.091154 0.10322 -0.21733 -0.077931 0.055181 0.020377 0.10253 0.12595 -0.17119 0.19014 0.014976 0.29248 -0.19393 -0.16299 0.023894 0.017386 0.18175 0.011238 -0.074188 0.08901 -0.072715 
讲 -0.021019 0.020374 0.017501 0.082208 -0.052009 0.043529 -0.027618 0.018519 -0.0076292 -0.0080372 -0.03455 0.047367 0.031824 -0.019509 -0.0046731 -0.025081 -0.012765 0.049559 -0.041957 -0.01594 -0.057582 0.021337 0.047221 0.00032 0.017956 -0.011697 -0.0061288 0.04619 0.0044267 0.023615 
播 0.10697 -0.016289 0.05232 -0.13989 0.074202 -0.077528 0.080417 -0.052522 -0.047674 0.048196 0.053134 -0.11529 -0.012893 0.053354 0.034195 0.091789 0.074895 -0.096235 0.090822 0.028049 0.12602 -0.13732 -0.054442 0.013864 0.025699 0.091712 -0.001757 -0.069352 -0.00026989 -0.082013 
级 -0.20185 0.10542 -0.017972 0.25038 -0.23482 0.12415 -0.22827 0.15784 0.086018 -0.069584 -0.073021 0.21844 0.10156 -0.045806 -0.028245 -0.13966 -0.18193 0.23017 -0.20791 -0.060547 -0.33275 0.2445 0.11066 0.022629 -0.028039 -0.159 -0.030321 0.077883 -0.06023 0.076557 
不 0.41193 -0.16282 0.098364 -0.45532 0.39992 -0.27044 0.44027 -0.27304 -0.1352 0.12211 0.13648 -0.42118 -0.18944 0.1359 0.045342 0.2538 0.31149 -0.36883 0.39298 0.090806 0.60522 -0.44809 -0.27941 -0.0097471 0.067653 0.36087 0.079928 -0.18523 0.13893 -0.20749 
本 0.1837 -0.056126 0.034839 -0.16476 0.12001 -0.084194 0.12475 -0.099282 -0.036749 0.022276 0.08008 -0.15819 -0.036432 0.02039 -0.0038678 0.09666 0.088111 -0.11628 0.14813 0.042888 0.23573 -0.18923 -0.079786 0.035618 0.0052082 0.14118 0.039788 -0.062105 0.075992 -0.080714 
城 0.24227 -0.1062 0.061727 -0.25175 0.24553 -0.15381 0.24972 -0.16183 -0.083967 0.088006 0.091935 -0.25492 -0.077287 0.079225 0.021161 0.15328 0.15796 -0.23748 0.22291 0.03561 0.38022 -0.25638 -0.15197 0.0049144 0.025868 0.22138 0.058571 -0.11216 0.093277 -0.10245 
南 0.0030674 -0.0047997 -0.0059238 -0.0067374 0.013698 0.0093794 -0.0005492 9.6946e-06 0.0040151 0.0090801 0.013933 -0.025676 -0.014552 0.020785 -0.01126 0.00016247 -0.00084443 -0.0023814 -0.0062295 0.0046628 1.1888e-05 0.011081 -0.001095 0.015132 -0.00016207 0.0052889 0.0027865 -0.0064064 -0.0092756 -0.0041346 
有 0.0264 -0.025234 0.0099065 -0.028008 0.026277 -0.0093209 0.039175 -0.024442 -0.010578 0.012361 0.02699 -0.018688 -0.020954 0.0026217 0.017327 0.0166 0.039014 -0.013766 0.023896 0.016963 0.053418 -0.022123 -0.031673 -0.013119 0.013174 0.01427 0.0015808 -0.02768 0.0069503 -0.011991 
好 0.17234 -0.066227 0.019109 -0.19526 0.16821 -0.10707 0.14494 -0.094615 -0.056924 0.054442 0.072614 -0.14881 -0.073467 0.047217 0.002245 0.11494 0.12364 -0.13334 0.17288 0.021146 0.232 -0.17089 -0.090847 0.010412 0.02764 0.11809 0.022461 -0.086358 0.024386 -0.058762 
成 0.084534 0.0053008 0.02849 -0.04415 0.063287 -0.065492 0.062439 -0.03574 -0.041808 0.018451 0.032691 -0.042353 -0.040077 0.021205 0.011662 0.022663 0.040766 -0.045354 0.058807 -0.0082992 0.088623 -0.036503 -0.033145 -0.0178 -0.012891 0.056289 0.011492 -0.035216 0.020744 -0.043453 
家 0.050292 -0.03555 0.017073 -0.076923 0.059816 -0.073941 0.083998 -0.048639 -0.0030765 0.033796 0.0078309 -0.053117 -0.035636 0.034223 -0.0041677 0.048298 0.022537 -0.065554 0.072757 0.012648 0.10118 -0.067883 -0.025666 0.0040101 0.021369 0.07259 0.021428 -0.015733 0.0059937 -0.050767 
王 -0.027296 0.021406 -0.019787 0.023928 -0.019091 0.0098279 -0.012799 0.02542 0.0058276 -0.011923 -0.0045217 0.038832 0.020917 0.00062541 -0.0090059 -0.016319 -0.001886 0.037202 -0.025973 -0.012174 -0.047526 0.01852 0.016468 -0.012049 -0.028204 -0.016412 0.009238 0.015839 -0.0077407 0.018635 
高 -0.043494 0.032395 -0.016369 0.043707 -0.033876 0.052582 -0.021753 0.043592 0.018539 -0.030911 -0.020642 0.044957 0.021407 -0.028009 0.006346 -0.012968 -0.020492 0.047945 -0.038725 0.0010639 -0.081875 0.044705 0.017201 0.012166 0.016691 -0.050773 0.0098517 0.014577 -0.033453 0.017787 
机 0.051941 -0.016801 0.030081 -0.030441 0.036626 -0.047805 0.039424 -0.0090918 0.0047516 0.003131 0.0057892 -0.032566 -0.037534 0.016483 0.01122 0.025783 0.051934 -0.036892 0.059845 0.026009 0.081667 -0.05048 -0.05671 -0.0026122 0.021692 0.037099 0.013322 -0.036949 0.019985 -0.0085513 
我 -0.081101 0.034342 -0.0031392 0.085646 -0.078288 0.052658 -0.078364 0.039235 0.014883 -0.029275 -0.031717 0.071773 0.03206 -0.03459 -0.00048803 -0.045278 -0.056421 0.075451 -0.069142 -0.02197 -0.11204 0.078015 0.043883 0.0070764 -0.00079444 -0.055271 -0.024724 0.024186 -0.014648 0.030035 
元 0.0053679 -0.017882 -0.0051495 0.022696 -0.00042722 0.016399 0.0075431 -0.01577 -0.011967 0.011656 -0.0083201 -0.010318 -0.025308 0.0006686 -0.003502 -0.0076603 -0.01969 0.017409 -0.0096526 0.0089779 -0.0030556 -0.027995 0.023717 -0.0023515 0.016369 0.00061643 0.016545 -0.00023198 -0.014557 0.015063 
海 -0.030535 -0.02709 -0.0090254 0.018706 0.0076745 0.028093 0.018122 0.011323 0.027206 -0.03395 0.029735 0.018119 -0.010259 -0.013476 -0.02437 -0.018026 -0.015009 0.01628 -0.0081556 0.023999 0.023243 0.031124 -0.011063 -0.013897 -0.015118 -0.010766 -0.023579 -0.0064921 -0.025484 -0.032599 
山 0.006877 -0.0011765 -0.0119 -0.0013493 0.0089025 0.0027928 -0.0054202 -0.021199 -0.0063824 0.0098482 -0.0036274 -0.033536 -0.019906 0.0021997 -0.0026047 0.027833 0.0229 0.01764 0.0054027 0.006589 0.016032 -0.031329 0.012193 -0.014163 0.0027666 0.012154 0.019255 0.0032956 0.0070693 0.0025784 
安 0.13815 -0.041441 -0.0058642 -0.12053 0.13241 -0.074862 0.10127 -0.091953 -0.035377 0.065947 0.020974 -0.11042 -0.049636 0.040759 0.0157 0.10048 0.070574 -0.092837 0.12189 0.020632 0.18754 -0.11932 -0.071702 -0.0098806 0.04708 0.09865 0.035995 -0.068405 0.012402 -0.025091 
发 0.12528 -0.056951 0.039719 -0.11561 0.11613 -0.071671 0.13514 -0.081672 -0.056516 0.054502 0.044149 -0.15393 -0.038725 0.019964 -0.0039644 0.050052 0.070946 -0.13257 0.094941 0.020248 0.22125 -0.15153 -0.061473 -0.025082 0.040376 0.13976 0.050536 -0.076273 0.066343 -0.074404 
音 0.089346 -0.056821 0.015512 -0.094607 0.08657 -0.059685 0.091651 -0.047408 -0.033116 0.033186 0.0326 -0.080503 -0.030974 0.029404 -0.0089368 0.032596 0.069113 -0.074027 0.077361 0.017585 0.11968 -0.10059 -0.067815 0.0035747 0.035641 0.084325 0.018335 -0.04 0.032003 -0.041205 
导 0.49542 -0.19301 0.096992 -0.50478 0.47593 -0.34488 0.44112 -0.31435 -0.16316 0.18106 0.19338 -0.48063 -0.16226 0.16843 0.012168 0.26 0.29643 -0.44024 0.44472 0.045273 0.6688 -0.45277 -0.31168 -0.017459 0.066108 0.42907 0.072841 -0.24931 0.10249 -0.19722 
会 0.16002 -0.065394 0.038868 -0.1968 0.16572 -0.10774 0.17804 -0.12402 -0.073739 0.04899 0.078417 -0.19653 -0.076942 0.04037 -0.0063571 0.11016 0.10916 -0.16821 0.17218 0.036282 0.2559 -0.16862 -0.10991 0.010564 0.015939 0.15085 0.0078898 -0.082049 0.02528 -0.10697 
方 0.15155 -0.080787 0.065273 -0.15064 0.17239 -0.084215 0.14066 -0.10411 -0.057201 0.062695 0.087355 -0.19697 -0.060761 0.058652 -0.021309 0.070695 0.14228 -0.14245 0.15863 0.0095802 0.21838 -0.15753 -0.10286 0.02847 0.044187 0.15158 0.023781 -0.062714 0.038915 -0.080442 
线 -0.030686 0.023719 -0.0027078 0.045404 -0.048376 0.040857 -0.041502 0.020521 -0.0049722 -0.024884 -0.031443 0.044493 0.011283 -0.012496 -0.0025451 -0.034939 -0.029179 0.027322 -0.04554 -0.002244 -0.065121 0.031469 0.035649 0.0087635 -0.011848 -0.050312 -0.0033931 0.01924 0.0051494 0.019985 
和 0.053332 -0.026275 0.011907 -0.053425 0.02532 -0.020366 0.022018 -0.004276 -0.018497 0.021628 0.0072052 -0.053475 -0.028762 0.0096408 -0.020188 -0.0019173 0.020638 -0.038079 0.016806 -0.022544 0.035492 -0.037682 -0.00053329 0.0039182 0.0029108 0.03658 0.020948 -0.0031152 0.01888 0.0017308 
n -0.035722 0.02955 0.0028476 0.043458 -0.032507 0.0066722 -0.025583 0.02904 0.028517 0.0032638 -0.038796 0.032468 0.027411 0.0054308 -0.00030921 -0.034919 -0.026643 0.0071593 -0.0098519 -0.011397 -0.031718 0.02465 0.016065 0.0085715 0.006944 -0.015479 0.007512 0.011098 -0.033018 0.026806 
西 -0.045546 0.020607 0.010975 0.025122 -0.017554 0.028854 -0.024235 0.0070777 0.010767 -0.028835 -0.014691 0.03923 0.016126 -0.014245 -0.014041 -0.02455 -0.023526 0.049079 -0.020227 -0.013418 -0.058012 0.01578 0.022883 0.0093258 -0.0068827 -0.037062 -0.0071904 0.0079722 -0.027467 0.0057417 
1 0.12225 -0.060254 0.0095044 -0.14277 0.12543 -0.052709 0.12756 -0.080282 -0.032025 0.069893 0.050816 -0.11612 -0.059659 0.026671 0.00028681 0.064182 0.074778 -0.1354 0.12038 0.015497 0.17399 -0.10451 -0.069227 -0.009447 0.016582 0.12686 0.01398 -0.044329 0.026356 -0.051188 
0 -0.041156 0.017139 -0.0088594 0.027021 -0.0082147 0.010319 -0.038261 -0.0028028 0.021824 -0.02832 -0.023434 0.02955 0.00298 0.012888 0.012977 -0.018229 -0.016823 0.016236 -0.018186 0.0073831 -0.042582 0.030906 0.019512 0.0019668 -0.019916 -0.040977 -0.029076 0.0088764 -0.031219 0.040509 
网 0.13585 -0.051144 0.028278 -0.14724 0.11414 -0.078146 0.12925 -0.097271 -0.042341 0.063916 0.062712 -0.12959 -0.055818 0.0321 0.012769 0.088271 0.097819 -0.12618 0.11103 0.010193 0.19068 -0.12453 -0.071404 0.015212 0.027837 0.10655 0.011944 -0.06501 0.038684 -0.078729 
拍 0.111 -0.057455 0.012105 -0.1247 0.12496 -0.084125 0.1024 -0.076273 -0.05544 0.028154 0.033911 -0.10509 -0.054075 0.063887 0.0080986 0.080506 0.079857 -0.10736 0.11992 0.030722 0.18745 -0.12872 -0.08644 -0.0062582 0.035966 0.10501 0.02181 -0.059104 0.027433 -0.066325 
语 -0.0089418 0.013944 -0.0079932 0.017067 -0.015512 -0.0049406 -0.020608 0.0025182 0.017904 -0.0067139 -0.0023446 0.018514 0.0097559 0.011732 0.020034 -0.017788 -0.014036 0.0061896 -0.0069446 -0.0053927 -0.028148 0.008509 0.018778 -0.011889 -0.0096433 -0.0078483 -0.0040766 -0.012604 -0.00021017 0.001672 
祝 -0.0011738 -0.011593 0.02499 0.038245 -0.029285 0.036449 -0.0094597 0.0031985 0.0053957 0.003492 0.0092596 0.018191 0.0011824 0.012439 0.021665 -0.036824 -0.025028 0.034428 -0.031668 -0.017445 -0.01033 0.029012 -0.0043931 -0.0064142 -0.015831 -0.012962 0.019206 0.010815 -0.026731 0.028954 
水 -0.0082299 -0.0089242 0.013691 0.0051262 0.0018586 -0.0016719 0.011981 -0.0033438 0.0030436 0.004679 0.0079272 0.0077566 0.0046257 0.0053314 -0.030546 0.0075518 -0.011596 -0.0054915 0.020441 -0.0012833 -0.019982 0.0208 -0.021758 -0.022128 0.0013625 0.022258 0.011898 0.010554 -0.008048 -0.0018481 
s -0.0037138 0.029182 -0.022855 -0.00019222 0.018148 -0.021618 -0.022483 0.012862 -0.0079658 -0.00080641 -0.026895 0.021851 -0.0041189 -0.00038271 -0.00076139 -0.0072469 0.01468 0.0085568 0.0049448 0.0033343 -0.020151 0.019595 -0.0036715 -0.019334 0.026861 -0.0084221 -0.010918 0.014933 0.022387 -0.015157 
金 0.14406 -0.033745 0.017256 -0.12844 0.12755 -0.11742 0.12302 -0.061273 -0.070559 0.058221 0.062909 -0.12213 -0.044332 0.024837 -0.015378 0.1 0.093241 -0.12707 0.10941 0.044612 0.19819 -0.15723 -0.08422 0.013794 0.0069145 0.12707 0.011072 -0.067294 0.037 -0.044224 
v 0.037825 -0.04979 0.012712 -0.054028 0.043939 -0.038584 0.028149 -0.0011814 -0.039688 0.0016206 0.0071102 -0.024316 -0.0076913 0.0048479 0.02662 0.018281 0.060422 -0.049837 0.045602 -0.0098562 0.10074 -0.064245 -0.015597 0.01717 0.0048241 0.061872 0.032861 -0.035411 0.015407 -0.029215 
你 0.062259 -0.020603 0.015464 -0.05605 0.049881 -0.044984 0.033829 -0.025271 -0.024292 0.013342 0.023303 -0.060609 -0.0028473 0.021413 0.017209 0.022493 0.036953 -0.048023 0.034016 0.015698 0.079665 -0.04536 -0.019462 -0.0030741 0.0033326 0.052185 0.019011 -0.017479 0.041149 -0.024694 
交 -0.1481 0.071731 -0.012493 0.15034 -0.082459 0.081419 -0.1071 0.088945 0.067653 -0.013918 -0.058051 0.1223 0.018299 -0.048819 -0.011482 -0.089267 -0.072622 0.12278 -0.075163 -0.029962 -0.14812 0.10364 0.073757 -0.016597 -0.04036 -0.086469 -0.026352 0.064645 -0.0086811 0.074731 
孩 -0.0939 0.056599 -0.03407 0.11334 -0.097279 0.10002 -0.090396 0.07493 0.019284 -0.058992 -0.033658 0.11405 0.062875 -0.035368 -0.006373 -0.073857 -0.074675 0.086117 -0.075872 -0.047082 -0.20083 0.1014 0.086619 -0.015672 0.0026013 -0.11159 -0.044852 0.064484 -0.054933 0.036243 
广 0.064781 -0.055934 0.021131 -0.10087 0.068164 -0.018605 0.069181 -0.044796 -0.019571 0.016558 0.028706 -0.089073 -0.029964 0.033739 -0.00078559 0.025684 0.074105 -0.067893 0.079361 -0.0034768 0.093735 -0.083884 -0.04469 0.0063889 -0.0060041 0.0531 0.0012181 -0.031867 0.01959 -0.040551 
事 0.0081254 0.0069259 -0.0049369 -0.011358 0.0031528 -0.018366 0.017722 -0.0054563 -0.01133 0.014886 0.0055033 -0.013243 -0.0084236 0.00034942 -0.021103 -0.0084842 0.0081596 -0.010883 0.019854 0.0066149 0.011251 -0.017971 -0.0025129 -0.00010225 0.010956 0.0014872 0.011345 -0.013156 -0.0041479 -0.0076746 
r 0.12089 -0.034407 0.0029013 -0.12023 0.073385 -0.068511 0.092687 -0.041503 -0.025364 0.019699 0.027434 -0.078124 -0.037916 0.025793 -0.0055263 0.052913 0.038567 -0.084449 0.073684 0.014085 0.14227 -0.079423 -0.053098 -0.0080283 0.039188 0.069344 0.0065309 -0.036093 0.037571 -0.048041 
感 0.079039 -0.016105 -0.0081414 -0.065238 0.088203 -0.046174 0.053215 -0.047546 -0.02696 0.035843 0.027382 -0.074716 -0.021591 0.015906 -0.001696 0.06391 0.027033 -0.039955 0.053728 0.040194 0.12634 -0.079733 -0.038783 0.012618 0.01632 0.057813 0.01692 -0.052529 0.010278 -0.055998 
东 -0.077717 0.054015 -0.045507 0.075168 -0.10631 0.076044 -0.10917 0.062916 0.047443 0.0028616 -0.019834 0.10708 0.017318 -0.054335 -0.02829 -0.03835 -0.026791 0.092229 -0.041432 -0.0057495 -0.089004 0.10352 0.054199 -0.016144 -0.015903 -0.056309 0.0023218 0.038997 -0.01338 0.015581 
十 -0.12932 0.057849 -0.0204 0.16801 -0.15799 0.086143 -0.13556 0.080987 0.030527 -0.072294 -0.040658 0.1404 0.030174 -0.058714 -0.00084565 -0.089134 -0.11703 0.16061 -0.13698 -0.0087543 -0.20024 0.13433 0.10088 0.00080906 -0.031234 -0.12435 -0.016366 0.085083 -0.020363 0.061225 
开 0.042977 0.005816 0.032234 -0.0015868 -0.01623 -0.041329 0.047156 0.0036844 0.016884 0.023921 -0.0024702 -0.013647 0.01312 0.028831 -0.017988 0.026208 0.018241 -0.019179 0.037491 0.0059714 -0.0074479 -0.047224 -0.033679 -0.029597 0.013754 -0.001416 0.0026903 -0.026627 0.018127 -0.015524 
光 0.01447 0.011705 -0.00024977 -0.00017013 0.0070603 0.0073674 0.018144 -0.008943 -0.00087893 -0.0078527 0.01075 0.0051036 -0.017802 0.0061188 0.018605 -0.012174 -2.2175e-06 0.0053679 -0.013561 -0.0014975 0.028571 0.017201 -0.016438 -0.013983 0.014076 0.022565 -0.02343 -0.024346 0.0026489 -0.0094179 
北 0.050575 0.0011524 -0.020177 -0.011247 0.0076525 -0.045887 0.0026118 0.016221 -0.00030077 -0.023194 -0.0075271 -0.048848 -0.005342 0.019931 -0.014204 0.026102 0.033651 -0.0017655 0.0263 0.0042544 0.073699 -0.039195 -0.027341 -8.208e-05 -0.018583 0.046112 -0.011293 -0.02774 0.029831 0.015255 
心 -0.25408 0.11518 -0.06196 0.26794 -0.24065 0.16505 -0.23294 0.14767 0.074885 -0.084282 -0.092373 0.24066 0.10254 -0.087239 -0.024325 -0.16741 -0.17381 0.23901 -0.22341 -0.051573 -0.37216 0.24815 0.16252 -0.017202 -0.065181 -0.21256 -0.038046 0.11206 -0.067883 0.11039 
马 -0.034351 0.011894 0.0035513 0.026313 -0.029734 0.023128 -0.038494 0.031094 -0.0096852 -0.014231 0.0014871 0.02633 -0.0066689 -0.016914 0.0020778 -0.012381 -0.0056182 0.021352 -0.028298 -0.012853 -0.038377 0.047369 0.020488 -0.010501 0.0019207 -0.021473 0.0040029 0.009462 -0.0043321 0.029573 
师 -0.10079 0.047479 -0.0073185 0.10635 -0.11059 0.081967 -0.091426 0.051696 0.065321 -0.04285 -0.04039 0.11812 0.02369 -0.026298 -0.016077 -0.079625 -0.078632 0.080459 -0.093083 -0.007212 -0.16301 0.12338 0.062388 -0.015054 -0.021773 -0.085983 -0.014295 0.044078 -0.027042 0.073567 
州 0.035761 -0.03256 0.0051006 -0.027939 0.015542 -0.032442 0.047595 0.0061311 -0.01255 0.018253 0.0059012 -0.03398 -0.017162 -0.0078597 0.0038259 0.0036968 0.019154 -0.025619 0.024206 0.009025 0.029072 -0.044579 -0.018988 -0.0068256 -0.013354 0.01428 -0.0011903 0.0069651 0.010055 -0.006661 
床 -0.24782 0.078065 -0.068288 0.25707 -0.22405 0.18684 -0.24509 0.16704 0.077325 -0.088657 -0.12972 0.23351 0.096809 -0.080059 -0.0092144 -0.17031 -0.19109 0.23791 -0.24812 -0.038865 -0.34663 0.24049 0.16986 -0.012623 -0.039906 -0.18514 -0.039577 0.13253 -0.074219 0.13046 
头 0.0044413 0.012671 0.010732 -0.0023935 0.011142 0.016479 0.023942 -0.024389 -0.010009 0.027731 0.0039015 -0.024638 -0.025201 0.00050297 0.027695 -0.011233 -0.017646 -0.0032006 0.017213 -0.0017137 0.011836 -0.016122 -0.015088 0.011845 -0.023043 0.0067693 0.019313 -0.004343 0.0035122 -0.026498 
宵 -0.058249 0.012453 -0.01659 0.044328 -0.019892 0.023154 -0.039924 0.0074914 0.028941 0.00076811 0.001055 0.027349 0.0090781 -0.014167 -0.0056647 -0.023596 -0.025861 0.038312 -0.03819 -0.0079749 -0.045761 0.041472 0.023962 0.003549 -0.0039931 -0.027919 -0.0036281 0.033409 -0.017467 0.017129 
文 0.020075 -0.024422 -0.0066172 -0.0051335 0.019664 0.013033 0.0082659 -0.0089351 0.0082008 0.0062704 -0.0065227 -0.0083975 -0.0091521 -0.012894 -0.010198 0.02365 0.015064 0.011632 0.00019562 0.0073548 0.0044061 -0.018672 0.012291 -0.0035145 -0.010579 0.00058459 0.00020578 0.015281 0.015266 -0.01022 
放 0.0013483 0.0022327 0.016073 -0.0063761 -0.0005022 0.011722 -0.022029 0.021394 0.015507 -0.0042335 -0.0052542 0.014311 -0.0012363 -0.0010772 -0.0071316 0.013898 0.0045698 -0.0089081 -0.037761 0.025248 -0.037374 0.007007 0.0019778 -0.0030539 0.0011726 -0.034631 0.0066301 -0.00072052 -0.021718 -0.0047703 
利 -0.034196 0.013489 -0.028784 0.057021 -0.035998 0.0073008 -0.03307 0.01928 0.0025599 -0.027449 -0.008033 0.043619 0.024446 -0.022345 -0.003315 -0.01219 -0.039118 0.020735 -0.023011 0.0057556 -0.058734 0.057474 0.025484 -0.0089099 0.0080037 -0.029819 -0.0091506 0.033662 -0.017987 0.00089937 
宝 -0.0050743 0.017535 0.025518 -0.012752 0.0078986 -0.013883 -0.047704 0.02595 0.0069369 -0.036035 0.00041155 0.011515 -0.021135 0.013979 0.001442 0.012388 -0.021533 -0.0077493 -0.0045989 0.027882 -0.00021458 0.045848 0.0091652 -0.030382 -0.01802 -0.044564 0.028674 -0.018081 -0.012297 -0.0015889 
公 0.12259 -0.077375 0.0097386 -0.11522 0.12431 -0.08624 0.14223 -0.086913 -0.073361 0.06139 0.051918 -0.10129 -0.02721 0.029481 -0.011993 0.10454 0.092408 -0.099846 0.094413 0.020851 0.17401 -0.099941 -0.10708 0.013165 -0.0079463 0.12358 0.040655 -0.06913 0.022045 -0.076829 
火 -0.0061711 -0.0018584 -0.0014964 0.022268 0.0068861 -0.0016274 -0.037685 0.0088585 0.013459 -0.01091 0.0099208 0.0082736 0.013561 -0.0079282 -0.021837 0.0064832 0.0039009 0.024311 -0.034006 -0.0016527 -0.0064773 0.025729 0.0011559 0.02308 0.0055737 -0.014052 -0.0033203 -0.016735 -0.019522 -0.003618 
衣 -0.038361 -0.0028304 -0.017031 0.030895 -0.032023 0.044299 -0.041952 0.025121 0.0043086 -0.00075324 -0.011092 0.053694 0.030468 -0.028429 -0.0040759 -0.024235 -0.021112 0.027209 -0.027677 -0.0073606 -0.051603 0.039948 0.0069777 0.006924 -0.017554 -0.022537 0.0011197 0.0063665 -0.016832 0.03129 
l -0.029272 -0.0093458 -0.0092272 -0.013909 0.015443 0.0024799 -0.00052601 -0.012783 0.0020224 -0.0026657 -0.026408 0.0095656 -0.0087679 0.011258 -0.0087373 -0.02387 -0.014711 0.020754 -0.008584 0.0024946 -0.028972 0.00034513 -0.024183 -0.012763 -0.010594 0.0075096 -0.013196 -0.0066827 -0.0023885 0.011707 
道 0.18258 -0.078753 0.034356 -0.17281 0.16085 -0.12558 0.16951 -0.12091 -0.049604 0.063095 0.085976 -0.19116 -0.041522 0.055238 -0.00058692 0.1007 0.12615 -0.1826 0.15963 0.042741 0.2493 -0.18658 -0.12289 -0.001156 0.025748 0.14185 0.032913 -0.089584 0.029463 -0.080527 
经 0.40294 -0.19809 0.10341 -0.44206 0.38866 -0.29076 0.41068 -0.25461 -0.1436 0.17194 0.1439 -0.42087 -0.12083 0.091819 -0.0036498 0.2348 0.28875 -0.35734 0.3348 0.048301 0.61553 -0.40459 -0.25378 -0.0036816 0.068827 0.37913 0.04875 -0.19945 0.12804 -0.19844 
么 0.3104 -0.10227 0.047725 -0.31653 0.29087 -0.21982 0.29071 -0.18849 -0.11097 0.077876 0.1412 -0.30677 -0.11829 0.084204 0.021514 0.193 0.22936 -0.2996 0.25575 0.043611 0.47459 -0.31307 -0.18485 0.020726 0.043709 0.25403 0.041263 -0.13435 0.079011 -0.1753 
A 0.023202 -0.014062 0.007024 -0.062299 0.041515 -0.0090038 0.038489 -0.038427 -0.023768 0.040431 0.019357 -0.028966 -0.029817 -0.0020033 0.027066 0.0035881 0.017349 -0.024659 0.038733 0.006721 0.069315 -0.055924 -0.02324 -0.019117 0.019197 0.03489 0.031457 0.0010041 0.017945 0.0048444 
爆 -0.1388 0.095612 -0.050617 0.19112 -0.13659 0.10572 -0.11693 0.11273 0.030421 -0.083981 -0.070053 0.1743 0.032415 -0.052293 0.01425 -0.094889 -0.096593 0.15334 -0.1337 -0.022081 -0.24462 0.1728 0.084738 -0.013845 -0.018634 -0.11557 0.01258 0.054753 -0.010165 0.064082 
7 -0.021048 0.00090518 0.0041097 0.036762 0.0066334 0.010342 -0.0043453 0.022059 0.013901 -0.033764 0.0099931 0.0016435 -0.014415 -0.0078386 -0.014645 -0.039209 -0.018906 0.020543 -0.029525 0.00038581 -0.026365 0.034138 -0.0080049 -0.013004 -0.0029419 -0.033425 0.022826 0.025752 -0.020935 0.018125 
之 -0.0931 0.048857 -0.019808 0.11557 -0.10068 0.052453 -0.095899 0.059659 0.054325 -0.038708 -0.030564 0.083014 0.017043 -0.012382 0.00051446 -0.040641 -0.05434 0.093989 -0.051326 -0.02426 -0.11465 0.10716 0.02418 0.00044728 -0.043598 -0.065628 -0.029289 0.048983 -0.035611 0.048224 
t -0.018003 0.010143 -0.0010412 0.021382 -0.016887 0.010226 -0.021065 0.0095711 -0.0057808 0.0047279 -0.017202 0.040667 0.013792 0.0030358 0.0032929 -0.0098517 0.0040264 -0.011083 -0.0036844 0.0080529 -0.029136 -0.0027863 0.024711 0.020403 -0.017953 -0.026967 -0.0030436 0.00095949 -0.0084857 0.014807 
下 0.074671 -0.035502 0.013787 -0.067777 0.063825 -0.050926 0.059219 -0.039144 -0.020594 0.018877 0.034044 -0.062171 -0.027237 0.0096724 -0.0085652 0.042676 0.039265 -0.045114 0.059168 0.0064509 0.098397 -0.053091 -0.022539 0.0058071 0.0036138 0.055753 0.014396 -0.022478 0.032612 -0.024048 
英 0.0044406 -0.0058627 -0.020902 -0.00073658 0.016709 0.0033963 0.027014 -0.022944 -0.012491 0.0083533 -0.011575 -0.013675 0.0054176 0.0067391 0.016678 -0.016071 0.0003639 0.0030776 0.011416 0.0013194 0.016832 -0.023959 0.0019953 -0.013018 0.010908 0.0092418 -0.006444 0.0018184 -0.01819 -0.024535 
部 -0.0079363 0.019311 0.010335 -0.05642 0.05218 -0.046285 0.0030998 -0.045982 0.011864 0.026027 0.033055 -0.019384 0.0023821 0.036423 0.007005 0.0019158 0.024948 -0.031791 0.043332 -0.023917 0.067056 -0.0076346 -0.01487 0.013469 -0.0096192 0.011106 0.0024793 -0.024442 0.010951 -0.0023525 
体 -0.0011456 -0.01111 -0.0013145 0.0056801 -0.01054 0.01371 -0.012627 0.012955 -0.00047535 -0.0017249 0.0013099 0.02382 -0.0078452 -0.0025315 -0.0027681 -0.018096 -0.015593 0.022962 -0.009399 -0.00060698 -0.001929 -0.0040796 0.0051712 -0.010755 0.0091046 -0.00043959 0.0075872 0.004133 0.01168 0.014579 
星 0.027725 -0.023276 0.0037256 -0.015589 0.017185 -0.017962 0.019597 0.0015529 -0.010604 0.0075175 0.0059071 -0.027736 -0.0053407 0.01542 -0.00057782 0.021512 0.013611 -0.037189 0.0089012 0.014167 0.035046 -0.0173 -0.013474 -0.0068852 -0.0094511 0.043962 -0.0093958 -0.015249 0.015639 -0.015044 
作 0.052793 -0.025638 0.022635 -0.06884 0.074532 -0.043589 0.078004 -0.067173 0.0027939 0.026764 0.03996 -0.06245 -0.018705 0.024318 0.0044351 0.053385 0.040857 -0.064518 0.070689 0.0050122 0.11259 -0.081535 -0.047936 6.3675e-05 0.018972 0.07894 0.031356 -0.028829 0.011408 -0.032494 
是 0.12529 -0.051856 0.02856 -0.14115 0.12738 -0.093682 0.14752 -0.076149 -0.03319 0.055042 0.046364 -0.11559 -0.057914 0.049321 0.024999 0.063174 0.097415 -0.11664 0.11042 0.0046632 0.20108 -0.13921 -0.079157 0.0038985 0.029139 0.12049 0.019499 -0.079204 0.04044 -0.072443 
主 0.045068 -0.022648 0.013125 -0.043949 0.024938 -0.029128 0.037565 -0.029547 -0.014616 0.012293 0.031885 -0.054424 -0.012487 0.034967 -0.016244 0.021804 0.043823 -0.057094 0.041208 0.0022827 0.083434 -0.049756 -0.030695 -0.0024279 -0.0033687 0.054184 0.00012967 -0.023647 0.0076577 -0.014252 
曲 0.072888 -0.028813 -0.0012397 -0.077316 0.073493 -0.030215 0.065169 -0.029218 -0.0072117 0.024377 0.013937 -0.054684 -0.015697 0.020825 -0.0067365 0.034985 0.043045 -0.068033 0.052324 -0.008448 0.086083 -0.086232 -0.032394 -0.0064315 0.023895 0.055888 0.0030499 -0.0211 0.016872 -0.031947 
世 0.015516 -0.0057183 0.0041247 -0.023474 0.0054735 0.0013334 -0.0019324 -0.014732 0.014024 -0.0016907 0.011586 -0.02463 -0.017842 0.0083089 -0.014352 -0.0032694 0.012799 -0.019636 0.0016983 0.0039521 -0.0025972 -0.006088 -0.025461 -0.00068213 -0.0090994 0.010749 0.017617 0.002253 -0.0037233 -0.0042314 
地 0.092307 -0.036733 0.048546 -0.11762 0.095519 -0.086282 0.098408 -0.055222 -0.036318 0.025302 0.033933 -0.086667 -0.02148 0.044158 -0.017899 0.080406 0.038849 -0.085549 0.079655 0.0051015 0.14705 -0.11796 -0.038286 -0.024162 0.012545 0.057969 0.019718 -0.034574 0.0045535 -0.041071 
自 -0.019875 0.010837 -0.0067252 0.022205 -0.013788 0.0043589 -0.0068125 0.024153 0.015636 -0.018291 0.0021611 0.014993 0.021084 -0.010343 0.010599 -0.024902 -0.0073862 -0.001216 -0.012815 -0.0016164 -0.00068703 -0.0083176 0.0045148 -0.0081341 -0.0044377 -0.02487 0.019272 -0.0092341 -0.017198 0.012715 
战 -0.093488 0.038937 -0.012781 0.13753 -0.12431 0.071279 -0.087212 0.063681 0.045954 -0.03264 -0.035449 0.10093 0.036706 -0.019848 -0.027888 -0.073209 -0.074415 0.114 -0.11712 -0.032472 -0.12917 0.09607 0.057011 0.016775 -0.021756 -0.12072 -0.025559 0.061381 -0.057594 0.028264 
二 -0.03292 -0.00073733 0.019503 0.0082397 -0.021106 0.0053996 -0.012815 -0.0061074 0.007944 -0.005411 -0.022269 0.011881 -0.01001 0.030336 0.011689 -0.032729 -0.012393 0.022004 -0.01752 -0.029804 -0.0017018 0.010615 -0.0059872 0.0017004 0.0069464 -0.017028 0.027843 -0.0074816 -0.0080988 -0.01959 
个 0.1452 -0.072366 0.027564 -0.18979 0.14089 -0.10322 0.13691 -0.10342 -0.074764 0.049968 0.057597 -0.144 -0.066876 0.058195 0.00367 0.10602 0.10984 -0.16546 0.16773 0.020753 0.24215 -0.16743 -0.096964 0.013947 0.048032 0.14926 0.033334 -0.057389 0.042114 -0.069044 
里 0.024534 -0.0050947 -0.01498 -0.021313 0.018103 -0.021994 0.020361 -0.0064862 0.0083101 -0.0042359 0.011325 -0.014222 -0.021244 0.010417 0.0044571 -0.0047025 0.0077343 -0.039995 0.017588 -0.015377 0.019918 -0.0035139 -0.018593 -0.0022164 0.0012289 0.017276 -0.013731 -0.016224 0.0060338 -0.0047303 
真 0.068129 0.0031846 0.017213 -0.065868 0.05385 -0.04093 0.047364 -0.044765 -0.016767 0.028255 0.027989 -0.062521 -0.013874 0.014131 0.012941 0.040522 0.035161 -0.040165 0.055156 0.0086476 0.06684 -0.05742 -0.040723 -0.0060633 0.021101 0.035829 0.014951 -0.032304 0.008114 -0.02573 
场 0.13851 -0.061412 0.052121 -0.099386 0.14663 -0.066871 0.13845 -0.081217 -0.041563 0.043982 0.045237 -0.096412 -0.064087 0.039788 -0.019274 0.091728 0.10554 -0.09284 0.1345 0.02035 0.17185 -0.12261 -0.058615 0.027718 0.055442 0.074173 0.0054432 -0.081913 0.026904 -0.073574 
云 0.0097057 -0.014799 -0.00029622 0.012152 0.018033 0.0059046 0.017759 -0.005363 0.0090465 -0.0045939 -0.0027833 -0.002845 -0.011171 -0.0077037 -0.00068131 0.0039799 0.0054323 0.011033 0.00089373 0.0020032 0.0076741 -0.02288 0.0083756 0.00025286 -0.00218 0.0050629 -0.012254 -0.0035271 -0.010883 0.0030455 
戏 -0.016022 0.019728 0.0057094 0.012591 -0.018171 0.0088602 0.013864 0.0037194 -0.0022322 0.022947 -0.0051234 -0.0044608 -0.00768 0.013857 -0.0090707 0.0090469 0.00032283 0.0025221 -0.010062 -0.013867 -0.042497 -0.013093 0.024947 0.0065545 -0.018563 -0.029293 0.010862 0.014391 -0.0035132 0.022223 
夜 -0.022594 0.0085114 -0.0021244 0.035525 -0.0073445 0.044364 -0.025646 0.038681 0.0029277 -0.02044 -0.014234 0.022621 0.015583 -0.025764 0.0053532 -0.00033156 -0.024235 0.035001 -0.029737 0.01303 -0.053278 0.0369 0.021014 0.0070406 -0.016803 -0.021094 -0.006524 0.015627 0.0082795 -0.015753 
言 -0.0071732 0.018682 0.015205 0.019666 -0.0090148 0.019912 -0.010546 0.020298 -0.0019966 -0.010279 0.0022172 0.003582 0.0033016 -0.0017991 0.0048083 -0.0052596 -0.019024 -0.00011579 -0.0044326 0.0044765 -0.022595 0.023409 0.019885 -0.012941 -0.012899 -0.019697 -0.014815 -0.013736 -0.0023302 0.0057409 
特 -0.035021 0.0051331 -0.0012597 0.020459 -0.022486 0.015667 -0.026228 0.026449 0.015537 -0.010536 -0.01049 0.020695 0.015697 -0.021437 -0.014407 -0.014761 -0.0098487 0.014365 -0.018195 -0.015518 -0.042446 0.028913 0.0017384 0.011693 -0.0025364 -0.020772 -0.0008949 -0.0053804 -0.012426 0.0047562 
了 0.15474 -0.066277 0.035075 -0.17529 0.15167 -0.090694 0.14981 -0.098258 -0.046595 0.046805 0.053933 -0.15688 -0.070901 0.030331 0.0084078 0.09267 0.11325 -0.11986 0.14062 0.030377 0.21173 -0.13672 -0.11195 -0.0008366 0.04539 0.13673 0.025117 -0.076654 0.051811 -0.088272 
关 0.083865 -0.053662 0.043438 -0.083919 0.079175 -0.05119 0.076294 -0.060685 -0.046247 0.031116 0.014605 -0.09967 -0.019832 0.003724 0.0045369 0.030603 0.068011 -0.10575 0.083973 0.014186 0.12414 -0.085044 -0.077793 -0.0054388 0.037024 0.077116 0.0088447 -0.042886 0.030326 -0.030838 
被 -0.041423 0.041307 -0.022594 0.040468 -0.0010211 -0.0078721 -0.0060441 -0.011226 0.0052684 0.0034871 -0.022181 0.010512 0.026393 -0.026893 -0.01912 -0.00030063 -0.0086933 0.010735 -0.031084 -0.025461 -0.059683 0.033843 0.0052597 -0.0082751 0.017018 -0.043036 0.00092941 0.038297 -0.014446 0.037732 
m 0.076436 -0.030656 0.03594 -0.086394 0.064855 -0.068109 0.077937 -0.063543 -0.018853 0.016624 0.012343 -0.077027 -0.011882 0.018682 0.018571 0.048934 0.077153 -0.08787 0.050392 0.014754 0.12927 -0.065626 -0.039734 -0.0045991 0.0077946 0.069882 -0.017032 -0.033768 0.021735 -0.020223 
无 0.032524 -0.0091816 -0.0045692 -0.024829 0.016165 -0.027717 0.01517 0.00027624 -0.0099363 -0.0014793 -0.010992 -0.03092 -0.0050702 -0.014414 -0.0052045 0.011873 -7.9729e-05 -0.0094817 0.028485 0.0075189 0.015626 -0.021103 -0.020428 -0.0040917 0.0099106 0.016291 0.012491 -0.0062459 0.01681 0.0027388 
红 -0.019471 0.022515 -0.0058931 0.015198 -0.019554 0.049108 -0.019136 -0.0026979 0.0008086 -0.020185 -0.018294 0.034684 0.029236 -0.025372 -0.0019562 -0.035925 -0.035093 0.037119 -0.02133 -0.012124 -0.04485 0.01748 0.030957 0.008665 -0.037646 -0.0080385 -0.01415 0.034348 0.00067701 0.012539 
源 -0.011995 0.006791 -0.0079813 0.029485 -0.030015 -0.0029354 -0.001909 0.019384 0.02012 -0.01293 0.012377 -0.010115 0.018051 0.0091455 0.0034648 0.0072797 0.0029139 0.0075635 0.0036235 -0.01481 -0.010276 0.011948 0.013215 -0.0012873 0.012557 -0.01628 0.021071 -0.012929 0.014638 0.0089688 
外 -0.040557 0.0081801 -0.0080513 0.022145 -0.018008 0.015693 -0.011145 0.0096764 0.031305 -0.033055 -0.0037422 0.022211 0.017084 0.009307 -0.012701 -0.0084537 -0.014742 0.011519 -0.029833 -0.012785 -0.024811 0.02221 0.0041162 0.0041665 -0.019116 -0.0063021 -0.0029093 0.003721 -0.026854 0.009116 
门 0.0054852 0.012902 -6.0228e-05 0.023444 -0.034689 -0.00094213 -0.0096321 0.0069418 0.00070201 0.0015094 -0.013141 0.004228 0.0075265 -0.0031022 0.0098026 -0.019297 -0.029159 0.013151 0.0015909 0.00047203 -0.021556 0.0094048 0.013169 0.0086171 -0.008127 0.0048507 -0.0075233 0.0049826 -0.0051415 0.0068369 
画 0.067942 -0.041415 0.03137 -0.05543 0.051305 -0.053795 0.091651 -0.029497 -0.03932 -0.012207 0.010097 -0.077709 0.010531 -0.0016518 -0.0040067 0.045591 0.01716 -0.066747 0.06601 0.035817 0.10414 -0.092752 -0.021063 0.01135 -0.0071258 0.070998 0.005538 -0.058793 0.045066 -0.022527 
程 -0.061819 0.037335 -0.023011 0.09201 -0.068128 0.027089 -0.092766 0.02896 0.02026 -0.023706 -0.03807 0.065348 0.02669 0.0028712 -0.027392 -0.019525 -0.049212 0.055043 -0.065151 -0.0045563 -0.10411 0.066139 0.044491 0.013609 -0.028859 -0.067348 -0.042695 0.023962 -0.049652 0.01201 
p 0.079484 -0.019885 0.015885 -0.07326 0.073431 -0.031394 0.075867 -0.065499 -0.013975 0.017058 0.036085 -0.075275 -0.016668 0.010726 -0.015841 0.03091 0.053803 -0.069651 0.068177 0.020351 0.094251 -0.083399 -0.066846 -0.0031324 0.03508 0.053963 0.010883 -0.039597 0.043577 -0.023314 
快 -0.0050768 0.021323 0.0088859 -0.023092 -0.025743 0.015376 0.0028355 0.014874 -0.0083084 -0.020524 0.025159 -0.0057967 -0.010484 0.0073962 0.0032495 -0.0082404 -0.010757 -0.00014897 -0.0025664 0.014281 -0.016642 -0.0094353 -0.0054534 0.0031333 0.020328 -0.0093864 -0.0067351 0.023673 0.019532 -9.7616e-05 
理 0.02136 -0.016366 -0.0015069 -0.016291 -0.0041161 -0.018631 0.035199 -0.010451 0.017076 -0.0042772 0.015302 -0.013702 -0.010136 0.0053021 -0.0026833 0.017326 0.013551 -0.016637 0.045215 0.0020728 0.017541 -0.025223 -0.014016 0.0094424 0.00045248 0.011498 -0.0074801 -0.0074135 0.005126 -0.019605 
c -0.028163 -0.015303 0.016512 0.026016 -0.02089 0.030075 -0.044444 0.022401 0.016518 -0.0075063 -0.0046338 0.030819 0.040381 -0.005164 -0.019489 0.011264 -0.033136 0.051916 -0.013858 -0.0019052 -0.035434 0.03025 0.02547 0.010067 0.0014942 -0.025877 0.012228 0.00020096 -0.0013476 0.017478 
剧 0.063934 -0.049705 0.024376 -0.05425 0.072191 -0.045863 0.065586 -0.01383 -0.019248 0.025945 0.030535 -0.049146 -0.042686 0.024558 0.007107 0.042033 0.069177 -0.053941 0.066857 0.015434 0.089659 -0.063194 -0.035172 0.021847 0.01835 0.050017 0.0014288 -0.04823 0.004785 -0.020468 
资 0.028093 -0.0073326 0.027305 -0.038954 0.039764 -0.027396 0.046191 -0.0075408 -0.018608 0.011554 0.023578 -0.050038 -0.022288 0.01258 0.00018967 0.020211 0.047892 -0.054084 0.039107 0.0037757 0.073726 -0.042728 -0.01997 -0.014561 0.0083828 0.02236 0.0041081 -0.03399 0.0048466 -0.010887 
华 0.020305 -0.026451 0.027234 -0.0049511 0.049296 -0.036766 0.027134 -0.033105 -0.024681 0.021352 0.038331 -0.033728 0.0072455 -0.020215 0.0099552 0.014023 -0.0062753 0.0020902 0.043121 -0.019973 0.04524 -0.046811 -0.0054953 -0.03125 -0.026787 0.012484 0.022149 -0.021635 0.026405 -0.01915 
龙 0.0053377 -0.005239 0.01039 0.011626 0.0036568 0.015686 -0.0083314 -0.0015051 0.006286 0.0090488 0.0061648 0.0198 -0.0097967 0.0097095 -0.0016537 -0.0033454 -0.011376 0.0069668 -0.0081978 0.0020291 -0.021878 0.020319 0.0013563 -0.0038619 -0.0011277 -0.011692 -0.014743 0.0080572 0.0037141 -0.0032614 
脱 -0.027677 0.0052362 0.0021791 0.022626 -0.037178 0.014924 -0.01182 0.00098659 -0.004609 -0.01395 -0.010008 0.028643 0.012264 -0.0037921 -0.0041615 -0.026578 -0.013309 0.037459 -0.038697 -0.0085114 -0.05347 0.043015 0.006902 0.013614 -0.0041551 -0.036393 0.0096185 0.010795 -0.019362 0.024873 
平 0.0031747 -0.026919 -0.014205 -0.041157 0.025859 0.005285 0.043822 -0.038091 -0.029947 0.015075 0.015809 -0.031445 -0.0056207 -0.012698 -0.00097364 -0.013155 0.038234 -0.030033 0.02576 -0.0060958 0.028309 -0.0067729 0.0072084 0.015129 -0.00041675 0.035269 -0.0010402 0.010903 0.0097151 -0.0017295 
工 0.20778 -0.061673 0.078608 -0.23219 0.24184 -0.13563 0.21474 -0.15219 -0.095289 0.049123 0.056341 -0.20866 -0.10644 0.098678 -0.012447 0.12621 0.14955 -0.22161 0.20882 0.050781 0.34466 -0.2399 -0.15444 0.0030292 0.059403 0.21525 0.025489 -0.13729 0.055897 -0.096055 
斯 -0.084274 0.019019 -0.027519 0.070932 -0.056512 0.060278 -0.082875 0.023907 0.041772 -0.022266 -0.012991 0.08366 0.046813 -0.026833 -0.018259 -0.067146 -0.038065 0.061181 -0.062243 -0.035489 -0.10278 0.054289 0.018659 -0.024004 0.018086 -0.089352 -0.00652 0.047139 -0.013591 0.017657 
激 -0.094958 0.064467 -0.0012823 0.11466 -0.067546 0.066653 -0.069778 0.071812 0.065107 -0.0034504 -0.027174 0.12626 0.058466 -0.054837 -0.0033958 -0.063208 -0.077062 0.083334 -0.053187 0.01878 -0.12766 0.08897 0.055317 0.0088919 0.0026894 -0.050247 -0.012875 0.015222 0.0025486 0.074065 
武 0.019514 0.0056676 0.0030408 0.00062834 0.016727 -0.014796 0.013496 -0.015077 -0.011699 -0.011446 0.0063564 -0.024287 -0.017328 0.0017338 0.0082001 -0.0011681 0.01052 -0.016364 -0.0057532 0.0098821 0.008665 -0.021239 0.023081 0.017702 -0.0075666 0.011997 0.0053681 -0.001847 -0.0032679 0.0042985 
阳 0.02371 0.00068996 0.010519 -0.016683 0.0059428 -0.013311 0.0063004 -0.0053122 -0.011949 0.0043963 -0.0098123 -0.018844 -0.0060125 0.011331 -0.004722 0.0062472 0.0029729 -0.010554 0.0052568 -0.0093769 0.029871 -0.0016459 -0.0049578 -0.0022951 0.0035625 0.015087 0.0021364 -0.015035 0.0058031 0.009601 
集 0.16296 -0.10446 0.032341 -0.16616 0.1718 -0.1511 0.17478 -0.13445 -0.07481 0.060404 0.068499 -0.21007 -0.043004 0.057808 0.0010615 0.13676 0.10646 -0.14056 0.16253 0.039411 0.23218 -0.16891 -0.090733 -0.017189 0.041426 0.12601 0.04648 -0.10452 0.024547 -0.056744 
面 0.071 -0.021562 0.020847 -0.053386 0.064474 -0.031079 0.04598 -0.037985 -0.010798 0.012568 0.021371 -0.079144 -0.012877 0.011997 -0.002015 0.037239 0.051773 -0.048948 0.059039 0.0089251 0.08133 -0.0618 -0.033842 0.018002 0.027328 0.060569 0.013985 -0.037214 0.02737 -0.031143 
d 0.058704 -0.015747 0.04255 -0.039854 0.075364 -0.035358 0.03781 -0.036842 -0.026382 0.0014618 0.033744 -0.078185 -0.018879 0.012696 -0.0040872 0.062943 0.054975 -0.052844 0.06266 -0.0093132 0.09923 -0.053472 -0.039945 0.0048202 0.015059 0.067592 0.020816 -0.019372 0.001683 -0.041951 
球 -0.048091 0.014652 -0.0050233 0.054285 -0.037718 0.042656 -0.049385 0.028774 0.025952 -0.026294 -0.016922 0.032483 0.01314 -0.025312 -0.0022961 -0.035519 -0.026291 0.044969 -0.027541 0.0084959 -0.071413 0.036122 0.046059 -0.00013168 0.0074783 -0.045044 -0.016388 0.016747 -0.018783 0.02515 
林 -0.012325 0.007391 -0.018378 0.036694 -0.039229 0.015859 -0.031967 0.028599 0.0071465 0.0091625 -0.020112 0.026372 -0.0085171 -0.0068559 -0.0068221 -0.0153 0.0062517 0.030514 -0.019366 0.015767 -0.027542 0.03487 0.0086732 -0.0066169 -0.013584 -0.0094391 -0.020179 0.016016 -0.017904 0.0089596 
少 0.026334 -0.016122 -0.0087575 -0.032664 0.012618 -0.01653 0.027227 0.002787 -0.0056561 -0.0024256 0.00061978 -0.017697 0.0054671 0.0038915 -0.0098528 0.014852 0.017802 -0.033187 0.04108 0.0065588 0.019717 -0.01498 -0.0024485 -0.01741 -0.01053 0.01052 0.0056513 -0.0074621 0.0052495 0.0023521 
费 0.036118 -0.029584 0.0032179 0.0052319 0.0094815 -0.028701 0.0041718 0.021559 0.0044335 0.013977 -0.017497 -0.0089473 0.012446 -0.013301 0.020157 0.0048319 -0.015929 -0.0032423 -0.0067316 0.0070663 0.027417 -0.031587 -0.0093399 0.016666 0.0062721 -0.012943 0.016101 0.0073333 0.023084 -0.014167 
内 0.034194 0.00043224 0.010666 -0.010245 0.019507 -0.0033118 0.020437 -0.014282 -0.026959 0.012409 0.012829 -0.014611 -0.010804 0.0083986 -0.0014618 0.011938 0.034489 -0.017381 0.026404 0.016653 0.041917 -0.031972 -0.016063 0.018851 0.016163 0.0057965 0.026435 -0.010687 0.0046435 -0.0056978 
传 0.3209 -0.16331 0.094099 -0.34573 0.30379 -0.19157 0.29637 -0.19865 -0.11159 0.083762 0.14512 -0.33849 -0.12269 0.07198 0.043048 0.19059 0.22986 -0.29221 0.29928 0.021766 0.50771 -0.36699 -0.19345 -0.010671 0.089365 0.25617 0.047824 -0.16572 0.08059 -0.17508 
亲 -0.017242 0.00093982 0.013738 0.010499 -0.015805 0.020622 -0.028178 0.0086796 -0.0055601 -0.0018625 -0.0018168 0.02346 0.016028 0.0073442 -0.0024407 -0.003145 0.00010491 0.012161 -0.0068269 -0.012792 -0.010102 0.005046 0.016545 -0.0021574 0.003736 -0.020026 -0.0034335 -0.0068392 0.00018084 0.027446 
风 -0.055102 -0.0039742 -0.023206 0.058761 -0.049537 0.033183 -0.055131 0.0017511 0.019852 -0.025346 0.010586 0.041716 -0.01341 -0.02849 -0.0012095 -0.039058 -0.029504 0.060446 -0.067465 0.012973 -0.073242 0.047442 0.027734 -0.0081917 0.011051 -0.028498 0.011669 0.013911 -0.033745 0.03028 
活 0.020654 -3.4085e-05 0.0047939 -0.036196 0.018335 -0.021288 0.041046 -0.0085557 -0.035754 0.00034965 0.022402 -0.055731 -0.035381 0.0258 -0.0076164 0.025359 0.02292 -0.054081 0.030856 -0.00086735 0.040402 -0.066033 -0.010747 0.0053439 0.0031038 0.043599 0.026525 -0.011249 0.0054629 -0.011814 
健 -0.044525 -0.0014771 -0.021448 0.07989 -0.059015 0.06606 -0.045764 0.050568 0.0037511 -0.026485 -0.011829 0.10519 0.021024 -0.031917 0.010731 -0.043914 -0.054736 0.10102 -0.09162 -0.016427 -0.10123 0.10548 0.073419 0.020639 0.01154 -0.09293 -0.01004 0.017441 0.0011675 0.03574 
u -0.070544 0.02857 -0.013145 0.066018 -0.062607 0.039452 -0.049267 0.035438 0.02382 -0.0092833 -0.023607 0.028669 0.029465 -0.01955 -0.0039927 -0.031382 -0.035922 0.056568 -0.049916 -0.032028 -0.10067 0.08784 0.027339 0.020938 -0.0083952 -0.032945 -0.00076843 0.02562 -0.021943 0.03561 
狗 -0.0037039 0.022911 -0.024372 -0.012045 -0.023322 -0.00058657 -0.004415 0.018546 0.033795 0.0043105 -0.0055055 -0.0055393 0.0016291 0.029544 0.024354 0.00098447 -0.01191 0.022714 -0.036786 0.015045 0.011747 0.036949 -0.018827 0.006626 -0.011857 0.028366 -0.011567 -0.010712 0.026906 0.0012505 
说 0.15934 -0.080342 0.016662 -0.1398 0.15734 -0.084528 0.16829 -0.11203 -0.0515 0.049167 0.061686 -0.14295 -0.069389 0.036562 0.024338 0.11033 0.095858 -0.12654 0.1036 0.029775 0.20628 -0.13819 -0.095617 0.0069293 0.018486 0.13483 0.022951 -0.077324 0.041635 -0.072061 
化 0.024538 -0.026818 0.012746 -0.037019 -0.017966 0.017433 0.039691 0.0060167 0.019647 -0.002796 -0.026909 -0.034532 -0.0078322 -0.00011643 -0.0030141 -0.0091283 0.03908 -0.021229 0.026143 0.017049 -0.010736 -0.007343 0.02372 -0.015406 -0.0059599 -0.00918 -0.021715 0.0064563 -0.0083798 0.012471 
偷 0.16344 -0.06355 0.057855 -0.14583 0.1244 -0.087722 0.15033 -0.074655 -0.041355 0.031528 0.081358 -0.12599 -0.062579 0.054027 0.019251 0.092617 0.0845 -0.15109 0.15317 0.0066889 0.22761 -0.13185 -0.083078 -0.00028852 0.041749 0.12936 0.022972 -0.074337 0.035553 -0.049209 
与 -0.0064638 -0.0030815 -0.0032408 -0.0041397 -0.0086112 -0.002668 -0.0009403 0.0037397 0.019753 0.0065409 0.0032476 0.0042636 -0.0093476 -0.0050467 0.0027699 0.0044385 0.0063178 -0.012263 -0.0072216 0.0061489 -0.0014251 0.0030229 -0.0054295 0.0065304 0.015814 0.0051011 -0.012308 0.00081819 -0.0048298 0.016 
强 -0.065723 0.039948 -0.01761 0.07643 -0.083715 0.076079 -0.09486 0.047538 0.015275 -0.012639 -0.0062382 0.055278 0.042945 -0.025765 0.011262 -0.056929 -0.07789 0.056848 -0.085559 0.0041761 -0.094012 0.079166 0.068391 -0.019547 -0.015361 -0.070201 0.014874 0.040268 -0.021712 0.028646 
装 -0.079285 0.0056598 -0.012328 0.10447 -0.062788 0.054263 -0.073163 0.042418 0.024166 -0.039729 -0.031818 0.07601 0.011076 -0.046985 0.0033835 -0.035088 -0.070597 0.039186 -0.06634 -0.022096 -0.12108 0.087565 0.057281 -0.028242 -0.010337 -0.060801 -0.024436 0.061351 -0.0029858 0.016967 
行 0.034727 -0.012066 0.0067351 -0.037063 0.047314 0.00040836 0.02768 -0.015958 -0.0043974 0.0275 0.00042917 -0.0477 0.0026727 0.02617 -0.0093168 0.011881 0.039152 -0.044506 0.046835 -3.7591e-05 0.042722 -0.034429 -0.026419 -0.0065842 0.031324 0.025822 0.0051985 -0.02613 0.010579 -0.013939 
张 -0.034407 0.022985 0.016363 0.038701 -0.038072 0.024522 -0.020254 0.012002 0.014382 -0.0084776 -0.018325 0.033895 0.0068852 -0.011806 7.3031e-05 -0.028589 -0.018277 0.045166 -0.038955 0.0013209 -0.027698 0.031613 0.0022048 0.00011403 0.00051528 -0.018211 0.0055645 0.0091836 -0.010388 0.010448 
信 0.024988 -0.0042312 0.016384 -0.012802 0.010117 -0.012621 0.0071235 0.000292 -0.013264 0.0093782 -0.0053384 -0.02612 -0.013861 0.0066054 -0.022535 0.0071812 0.0063752 -0.020095 0.023918 -0.0079853 0.010088 -0.013685 0.005983 -0.0099657 0.0084117 0.033788 0.0066513 0.008441 0.0061766 -0.007357 
物 0.013386 -0.0031222 0.0037453 -0.021504 0.02787 -0.018702 0.023405 -0.010671 -2.5946e-05 -0.0032237 0.0069141 -0.032646 -0.017649 0.016156 0.010063 0.022267 0.029014 -0.019595 0.018669 0.018882 0.033256 -0.014772 -0.017445 -0.010913 0.0048615 0.028144 -0.019106 -0.0059108 0.018909 0.01098 
长 -0.071406 0.0083156 0.017824 0.087758 -0.099456 0.061841 -0.086943 0.057147 0.024552 -0.0094287 -0.019706 0.077405 0.032773 -0.048004 -0.031322 -0.026451 -0.046672 0.034059 -0.08173 -0.039509 -0.12931 0.071161 0.016252 0.027782 -0.032271 -0.089167 0.021142 0.025033 -0.05283 0.019159 
哥 -0.044564 0.030885 -0.029811 0.034847 -0.024508 0.010308 -0.053478 0.044157 0.018241 0.0022717 -0.0066813 0.036756 0.028888 -0.039557 -0.0026341 -0.015315 -0.045624 0.039939 -0.025509 -0.020757 -0.076128 0.020567 0.03717 -0.0042637 -0.018193 -0.041048 -0.015398 0.027252 -0.022324 0.023314 
免 0.0039783 -0.023049 0.0087259 -0.00521 0.017416 -0.0043947 0.030292 -0.0092518 -0.0025278 -0.0034355 0.0015892 0.0019977 -0.005671 0.017173 -0.0032643 0.013007 -0.0070301 -0.016978 0.023019 0.013192 0.036286 -0.025018 -0.027425 0.0077529 0.00011358 0.0092291 -0.013995 -0.01248 -0.0025173 -0.0082454 
观 -0.089492 0.051245 -0.020526 0.10649 -0.068016 0.046734 -0.095746 0.062323 0.030506 -0.029061 -0.028961 0.078937 0.036104 -0.027162 0.011511 -0.051941 -0.049817 0.097206 -0.094503 -0.0060265 -0.15217 0.090258 0.075994 -0.025981 -0.030401 -0.082719 -0.027679 0.020681 -0.020375 0.047466 
术 0.047658 -0.011536 0.021901 -0.030103 0.029339 -0.03723 0.039234 -0.023184 -0.02788 0.00034527 0.0039863 -0.041218 -0.0053273 0.017368 -0.0012975 0.033807 0.020099 -0.035728 0.058602 0.0072634 0.042756 -0.024536 -0.019986 -0.018018 0.015223 0.037138 -0.014594 -0.00073612 0.019153 -0.030023 
神 0.040444 -0.023282 0.0034917 -0.036718 0.033241 -0.013055 0.037741 -0.02877 -0.0044425 0.018923 0.0072412 -0.035626 -0.0081348 -0.012842 0.0090092 0.019305 0.01574 -0.028865 0.039551 0.0020886 0.051347 -0.024654 -0.026595 0.0078712 -0.0092013 0.013749 0.010008 -0.027521 0.010878 -0.021082 
裸 -0.0065998 0.013145 -1.133e-06 -0.0011062 -0.0030213 0.0097554 -0.012538 -0.019353 -0.011844 0.0070536 -0.0047435 0.012593 -0.015169 -0.0037108 0.011003 0.008667 0.016492 0.0061887 0.0071158 -0.0014878 -0.0074891 0.00040528 -4.9288e-05 0.0099235 0.0076041 -0.0079551 -0.0010836 0.0084324 0.0020598 0.013563 
丝 -0.072558 0.024079 -0.022831 0.066141 -0.1029 0.0492 -0.062034 0.049516 0.033696 -0.0094518 -0.029992 0.09797 0.032101 -0.039734 -0.013556 -0.060964 -0.06215 0.063284 -0.064515 -0.0087559 -0.1398 0.089866 0.041295 -0.01724 -0.035017 -0.072301 0.0005347 0.025807 -0.0089395 0.042117 
游 0.0038384 0.015748 0.0035599 -0.010541 0.022355 0.0075939 0.010463 -0.0094018 -0.0033546 -0.0034468 -0.0022657 0.0043806 0.0025108 2.1445e-05 -0.0016718 0.0010993 -0.0052403 0.0077162 -0.0004195 0.0064154 -0.00060053 -0.010426 -0.011661 0.0065734 -0.016818 0.0071119 -0.0075544 -0.01292 -0.0038745 0.0024956 
拉 0.0089712 0.0039951 -0.013995 -0.0067479 -0.0042598 0.0082192 -0.01568 0.0026657 -5.6597e-05 0.012073 -0.0030505 -0.0077816 -0.013803 -0.00033743 -0.028585 0.00274 -0.0023271 -0.010341 -0.023412 0.00084377 0.020395 0.011788 -0.0084647 0.019889 0.00098331 0.014188 0.0091675 0.0025374 -0.023247 -0.020383 
点 0.12811 -0.043522 0.026675 -0.15005 0.10889 -0.059949 0.098709 -0.063443 -0.046968 0.0095676 0.064945 -0.12156 -0.021 0.027106 0.020882 0.074003 0.070727 -0.085348 0.10337 0.017954 0.15084 -0.088425 -0.088645 0.009013 0.010256 0.098188 0.030911 -0.045052 0.032779 -0.060686 
四 0.014838 -0.00029806 0.003817 -0.018092 0.0091136 -0.00498 0.011828 -0.0116 -0.0013023 -0.0022384 -0.0075852 0.0026021 -0.0008094 0.016573 -0.0036287 0.00070089 0.0082329 -0.02181 0.011036 -0.013524 0.015724 -0.028565 -0.0063821 -0.00025587 0.01657 0.012928 0.012115 -0.013857 0.0022555 -0.016621 
比 -0.016715 0.010585 0.012312 -0.010328 0.027093 0.0016059 -0.00076303 0.011328 0.010875 0.0081447 0.030446 0.0013085 0.0054385 0.019194 -0.0069984 -0.014403 -0.0039487 0.0049956 0.002276 0.01888 -0.012298 -0.0053613 -0.010958 0.024923 -0.023959 -0.014353 -0.01436 -0.0010404 0.022112 0.0067434 
来 -0.083648 0.0075653 -0.005528 0.049583 -0.064095 0.021034 -0.081046 0.04995 0.023723 -0.026543 -0.035524 0.071538 0.026663 -0.025559 -0.0053158 -0.018348 -0.041129 0.06438 -0.037856 -0.024746 -0.10199 0.093923 0.042822 -0.022649 -0.039737 -0.028112 0.0083073 0.042226 -0.016373 0.024751 
配 0.047592 -0.019152 0.0078591 -0.070037 0.045447 -0.016619 0.043921 -0.024065 -0.014869 0.027567 0.020995 -0.042771 -0.019372 0.016719 0.017439 0.020871 0.034013 -0.03336 0.052595 -0.0010626 0.06382 -0.068249 -0.033844 0.006321 0.029838 0.052862 0.016993 -0.012408 0.0060171 -0.023336 
京 -0.014953 -0.013945 -0.004854 -0.027049 -0.0072584 -0.019927 0.00064703 -0.0025874 -0.02572 -0.023607 0.016056 0.00060134 0.016748 0.024776 0.0075267 0.012983 -0.02412 -0.0028886 0.014919 -0.0034963 -0.015946 -0.014375 0.0014066 0.029582 -0.00037367 0.021684 0.030445 -0.014881 0.0044184 -0.0033142 
精 0.10502 -0.05865 -0.0060851 -0.11353 0.11831 -0.10155 0.14879 -0.061081 -0.063375 0.059311 0.072005 -0.14734 -0.060877 0.026758 -0.012205 0.073297 0.062789 -0.13464 0.11541 0.035221 0.19627 -0.13737 -0.094878 0.0050968 0.02861 0.084967 0.018081 -0.037483 0.053976 -0.065349 
服 -0.034913 -0.011061 -0.011766 0.03978 -0.034622 0.0032751 -0.026298 0.0201 0.0010413 -0.010048 -0.01573 0.056937 -0.0068603 -0.023834 0.0042066 -0.012262 -0.02371 0.024533 -0.01452 -0.021395 -0.05384 0.040836 0.045671 0.0026641 -0.031393 -0.021429 -0.002405 0.011087 -0.041062 0.0061274 
出 0.1373 -0.051943 0.023698 -0.13346 0.13529 -0.10971 0.13926 -0.089509 -0.028935 0.051076 0.032883 -0.14132 -0.05721 0.019553 -0.0058731 0.075281 0.078835 -0.1533 0.10814 0.019168 0.19235 -0.13539 -0.10895 0.00037024 0.026013 0.11328 0.0028144 -0.092192 0.065742 -0.057931 
V -0.093701 0.032697 -0.0050394 0.080753 -0.056685 0.05264 -0.051438 0.050375 0.013783 -0.036332 -0.030515 0.07698 0.030328 -0.015109 -0.023034 -0.038039 -0.058537 0.059572 -0.064897 0.00020643 -0.093169 0.087842 0.025727 -0.030156 -0.0077255 -0.03321 0.00056097 0.023311 -0.026584 0.03995 
操 -0.047098 0.054228 0.013413 0.081161 -0.042396 0.033108 -0.044877 0.027789 0.023095 -0.016065 -0.0063281 0.042012 0.036797 -0.026157 0.021882 -0.059768 -0.012011 0.03354 -0.072774 0.010629 -0.088819 0.052912 0.052048 -0.0024353 -0.020664 -0.074454 -0.018373 0.039995 -0.0308 0.058209 
3 0.059823 -0.01513 0.016642 -0.074365 0.066811 -0.044091 0.080654 -0.058465 -0.018546 0.027982 0.025827 -0.079686 -0.030142 0.017652 0.0092544 0.058947 0.059925 -0.063272 0.071848 -0.014108 0.078715 -0.084983 -0.053977 -0.021557 0.018253 0.068494 0.016039 -0.038998 0.021777 -0.0070023 
分 0.11576 -0.057214 0.012557 -0.12641 0.12992 -0.076799 0.10239 -0.095462 -0.050303 0.0099018 0.019035 -0.1228 -0.033023 0.062844 0.017019 0.058236 0.084331 -0.099759 0.10168 -0.0057972 0.13916 -0.14203 -0.08593 0.0054311 0.039446 0.072224 0.022019 -0.040389 0.027961 -0.023214 
度 0.047103 -0.0049071 0.019641 -0.049775 0.013777 -0.028772 0.0304 -0.02478 -0.01286 0.015158 0.0051765 -0.04696 0.0081239 -0.009548 -0.0023323 0.013531 0.0042183 -0.018978 0.049929 -0.01545 0.067314 -0.03201 -0.0013715 0.014423 0.028885 0.020596 0.027563 -0.026147 0.0081704 -0.027422 
春 -0.12955 0.031628 -0.020612 0.11447 -0.081346 0.062796 -0.07187 0.05237 0.011597 -0.028041 -0.021256 0.092815 0.0036218 -0.046855 0.016589 -0.066103 -0.09042 0.068246 -0.083202 -0.030188 -0.10998 0.11898 0.037253 -0.026985 -0.045384 -0.10595 -0.0095159 0.045554 -0.051555 0.052529 
热 0.00038481 -0.0061295 -0.0053693 -0.015793 0.0089457 -0.005248 -0.0065585 0.0012906 0.00057747 0.0042864 -0.0062502 0.0024363 -0.0072354 -0.00099964 -0.0071354 0.0074091 0.0013139 -0.00087663 -0.0062818 -0.023575 0.00065771 0.0054804 -0.0004869 0.0089289 -0.0034492 0.020926 -0.013399 -9.0011e-05 -0.00039037 -0.0050875 
y -0.075433 0.031564 -0.013551 0.10567 -0.069759 0.06207 -0.082911 0.052697 0.037718 -0.033744 -0.043161 0.096708 0.054485 -0.011425 -0.0052791 -0.052997 -0.076653 0.05553 -0.096645 0.0017812 -0.11506 0.098935 0.040984 -0.0028072 -0.0079804 -0.083373 -0.025906 0.040599 -0.016956 0.049061 
时 0.13371 -0.063513 0.038718 -0.15362 0.10955 -0.11466 0.12357 -0.063602 -0.046869 0.054631 0.061469 -0.13233 -0.069459 0.016904 0.015688 0.059539 0.095866 -0.12996 0.13057 0.029148 0.1837 -0.16268 -0.083928 -0.0023429 0.034447 0.12476 0.003367 -0.088181 0.04744 -0.086285 
唱 -0.23192 0.061758 -0.015006 0.24071 -0.21766 0.13056 -0.2224 0.111 0.088131 -0.054322 -0.080294 0.24932 0.078634 -0.057122 -0.0049958 -0.13886 -0.16739 0.19788 -0.17492 -0.0043571 -0.34053 0.2424 0.14572 -0.02277 -0.047197 -0.15647 -0.0059407 0.078106 -0.092188 0.13116 
李 0.029588 0.0015213 -0.012657 -0.024368 0.015665 -0.01551 0.014266 -0.018606 -0.023621 -0.001877 0.0091576 -0.0016327 -0.015658 0.0060196 0.0019831 0.010794 0.0080221 -0.0090691 0.015802 -0.022602 0.016186 0.00068322 -0.021345 0.019196 -0.0034285 0.024241 0.013237 0.0055765 -0.0091684 -0.012533 
b -0.063317 0.029474 -0.022838 0.089933 -0.092388 0.03048 -0.069462 0.029445 0.010147 -0.0097731 -0.012806 0.085914 0.03108 -0.016986 0.0049417 -0.052586 -0.059864 0.055533 -0.074008 -0.0091663 -0.12514 0.060854 0.062713 -0.00097115 -0.0069236 -0.053309 0.0047267 0.021189 -0.019711 0.05452 
友 0.0069107 -0.0070161 -0.0049172 0.0068387 0.0091917 -0.00049437 0.005972 -0.010499 0.0086543 0.0019603 0.01421 -0.011916 -0.008022 -0.0099819 -0.0011698 -0.0039179 -0.0027301 -0.013122 -0.0089813 0.011072 0.020645 0.007945 0.010344 0.010615 -2.2771e-05 0.00051024 0.016 -0.0013895 0.020387 -0.0021294 
明 0.083214 -0.032009 0.011995 -0.083458 0.073906 -0.046472 0.071305 -0.061322 -0.028808 0.020959 0.036382 -0.06159 -0.029191 0.0203 0.0030554 0.055575 0.061648 -0.069984 0.075594 0.021124 0.12613 -0.081491 -0.066758 -0.016135 0.022506 0.051771 0.0020982 -0.043658 0.023276 -0.04678 
台 0.053501 0.001937 0.0032112 -0.075424 0.036021 -0.038069 0.035549 -0.015531 -0.020346 0.0033344 0.028319 -0.064856 -0.012025 0.031056 0.0065821 0.055108 0.0597 -0.037516 0.027676 0.011019 0.07179 -0.031489 -0.0095456 0.0057161 0.038678 0.034718 0.028565 -0.022727 -0.0016396 -0.018458 
太 -0.0092638 0.0011523 0.0095985 -0.032399 0.023142 -0.01098 0.0022654 0.020633 0.022821 -0.010256 0.019069 0.0030547 -0.018729 0.0061221 -0.0048681 -0.016403 0.018848 -0.013466 0.01008 0.009737 0.014299 -0.020054 -0.0053115 -0.022923 -0.0069194 0.0024154 -0.02253 -0.00037616 0.004615 -0.013832 
江 0.055129 -0.026449 0.031087 -0.014369 0.016924 -0.015387 0.058166 -0.01217 0.010772 -0.0051746 0.013935 -0.031312 -0.041926 -0.0093215 0.023992 0.013538 0.051271 -0.016714 0.041865 -0.017659 0.028258 -0.060947 -0.020162 -0.012364 -0.014859 0.015604 -0.022558 0.0061126 0.031592 -0.001066 
姐 -0.040175 0.014761 -0.035313 0.026963 -0.023965 0.013993 -0.039332 0.056924 0.036245 -0.0070927 -0.019413 0.040475 0.015611 -0.025065 0.0044374 0.0059363 -0.039294 0.050413 -0.06275 0.0078985 -0.037011 0.029855 0.024314 0.0059431 -0.01106 -0.02222 0.0091377 0.043402 0.010889 0.019486 
身 0.0081249 0.0020663 -0.0060374 -0.032062 0.0059271 -0.00030886 0.00593 0.0022771 -0.013973 0.01651 0.013874 -0.02218 -0.00048305 0.0064696 0.0018362 -0.0027483 0.013779 -0.01092 0.0031434 0.0049182 0.013881 -0.016489 -0.023913 -0.017049 -0.00046243 0.0098313 -0.020299 -0.014371 0.010186 0.012255 
蹈 -0.070973 0.050915 0.0011659 0.088183 -0.056739 0.042444 -0.037611 0.0081796 0.046968 -0.047513 -0.045036 0.07418 0.036566 0.005995 -0.019573 -0.0052739 -0.042362 0.068457 -0.058163 0.0072445 -0.05632 0.048743 0.061 0.022762 0.00044199 -0.032824 -0.00037854 0.055686 -0.025914 0.02961 
婚 -0.09294 0.017724 -0.03202 0.098582 -0.071238 0.04759 -0.053621 0.067319 0.011125 -0.027129 -0.030267 0.066826 -0.0008548 -0.019805 -0.0079285 -0.05635 -0.050401 0.041878 -0.066867 -0.0087448 -0.12041 0.081953 0.041299 0.009335 0.01274 -0.065628 -0.0045783 0.033812 -0.034654 0.049478 
月 -0.0056249 -0.005715 -0.013187 -0.013809 0.011705 -0.018483 0.022896 3.5872e-05 -0.0089832 0.0057636 0.01711 0.00074294 -0.014785 0.013822 -0.0052916 0.020707 -0.011413 -0.017027 0.007483 -0.010555 0.012938 -0.025235 -0.013702 0.011014 -0.0050136 -0.00059949 0.0078581 -0.013203 -0.0064518 0.012105 
第 -0.0082696 0.011331 -0.0015791 0.050081 -0.0029846 -0.0047133 -0.030619 0.012051 0.012814 0.011487 -0.007409 0.0079227 -0.018162 -0.015407 -0.023787 -0.020703 -0.026803 0.048784 -0.0099838 0.02023 -0.04711 0.0042873 0.029507 0.025796 -0.006558 0.0014028 -0.013957 0.016095 -0.010329 -0.011728 
县 -0.030424 0.00086611 -0.019409 0.01935 -0.01508 0.012498 -0.025273 0.014357 0.013035 -0.013615 -0.0069597 0.015966 -0.01223 -0.00479 0.0070485 3.3787e-05 -0.0096808 -0.001137 -0.013903 -0.0049924 -0.019016 0.00068709 0.023792 -0.0044821 -0.010851 0.003248 0.0057448 0.013154 -0.010133 0.0087476 
五 -0.039725 0.030237 -0.023674 0.031751 -0.025642 0.014713 -0.0224 0.034091 0.022874 -0.0060172 -0.023986 0.024449 0.011412 0.0067846 0.00040372 -0.0071715 -0.024109 0.025735 -0.036512 -2.0816e-05 -0.052935 0.024158 0.034899 -0.0072357 -0.004123 -0.02239 0.0057692 0.020829 -0.0056914 0.00032275 
解 0.12399 -0.044826 0.030769 -0.10824 0.082219 -0.066966 0.11183 -0.072962 -0.031631 0.030466 0.034353 -0.11557 -0.031429 0.026705 0.012728 0.038439 0.06967 -0.089553 0.065947 -0.0032621 0.17261 -0.09183 -0.072764 -0.015863 0.0079112 0.096675 0.020248 -0.056002 0.025335 -0.063488 
妇 0.0083312 0.016998 -0.0011423 -0.020557 0.010821 0.028197 0.022677 0.019407 0.032844 -0.0021309 0.0066069 -0.020225 -0.0027071 -0.0025315 0.0070533 0.00061134 -0.0068705 0.0059651 0.0097246 0.016143 0.0080236 -0.015755 -0.024299 0.012154 0.0093067 0.028642 0.0042265 0.024316 0.031924 0.032179 
德 -0.087192 0.062885 -0.035291 0.093587 -0.093676 0.041622 -0.066953 0.04035 0.043916 -0.042356 -0.024884 0.066209 0.048401 -0.04349 -0.012354 -0.017183 -0.053529 0.09367 -0.08102 -0.0036788 -0.11939 0.07036 0.01988 0.0043402 -0.027471 -0.069836 -0.019986 0.024368 -0.036347 0.023098 
奇 -0.055537 0.02529 -0.019604 0.048291 -0.04681 0.027133 -0.038482 0.036186 0.03129 -0.012978 -0.019334 0.049483 0.024216 -0.019855 -0.0015668 -0.018319 -0.045802 0.037789 -0.056877 -0.0039754 -0.084633 0.068499 0.016341 -0.0061652 0.00031225 -0.022497 -0.023725 0.023072 -0.015672 0.04876 
胸 -0.012126 0.0038291 -0.0064498 0.02436 -0.020493 0.02752 -0.021455 0.010327 -0.0046295 -0.0064052 -0.02724 0.027467 0.021923 0.0094918 0.0012027 -0.0078608 -0.007712 0.0059831 -0.023549 -0.0084078 -0.017858 0.032356 0.0055766 0.0023934 0.0012463 0.008728 0.0031939 0.0085078 0.009952 0.026827 
h -0.012291 0.041274 0.013512 0.034802 -0.031212 0.032484 -0.041487 0.032598 0.0015821 0.0062439 -0.0021146 0.043002 0.028235 -0.0043032 -0.017307 -0.030458 -0.034138 0.032933 -0.026976 0.0054308 -0.041403 0.0078387 0.025779 0.0047777 -0.0053371 -0.0097448 -0.011756 0.03403 3.1939e-05 0.026708 
实 -0.01094 -0.00113 -0.0017449 0.018073 -0.021627 -0.00082042 -0.014995 -0.0035358 -0.0054314 -0.0013325 0.0083888 0.010484 -0.0068701 -0.01362 -0.0015197 0.016397 -0.018895 0.013808 -0.0095497 0.013912 -0.0098027 0.023547 0.01847 0.0044499 0.015669 0.0049409 0.023893 0.01481 0.019394 0.022841 
清 0.049482 -0.0094432 -0.0010941 -0.045047 0.044601 -0.022889 0.040769 -0.01682 -0.029816 0.027471 0.024145 -0.047244 -0.0073701 0.019949 0.00033513 0.040155 0.030315 -0.040264 0.046784 0.0097733 0.083236 -0.059335 -0.035852 0.0061267 0.0022264 0.041966 -0.0088532 -0.029066 0.0081503 -0.027113 
白 0.010009 -0.0003841 0.038174 -0.039189 0.035827 -0.036019 0.051021 -0.02343 0.0047511 -0.003605 0.022063 -0.018959 -0.013198 0.0054857 0.021449 0.02721 0.024501 -0.011319 0.033175 0.03021 0.048619 -0.055787 0.0025241 0.021398 0.021804 0.013143 -0.016909 -0.019357 0.020619 0.00068909 
品 0.071725 -0.041305 0.018665 -0.07162 0.07281 -0.027543 0.082105 -0.047777 -0.034154 0.026758 0.034979 -0.073399 -0.030166 0.035686 0.026203 0.050793 0.044967 -0.061974 0.041511 -0.0055917 0.084714 -0.079891 -0.056384 -0.0029534 -0.001118 0.038275 -0.0022261 -0.037722 0.022037 -0.04289 
者 0.0068698 0.0046613 0.0022001 -0.0081223 -0.019206 -0.0051378 -0.0019229 0.023159 0.00018281 0.0027662 -0.00052145 0.0031766 0.017807 -0.0046591 0.011462 0.0037919 -0.0071476 0.0049055 0.0047821 -0.0073871 -0.0011775 0.015031 0.00065753 -0.018506 0.010237 0.0005492 -0.001781 0.022076 0.013765 0.013855 
吻 -0.005586 0.00030139 -0.0023283 0.00082438 0.0033019 -0.0011486 -0.0066015 0.0031951 -0.0078894 0.0094858 -0.0025381 0.015392 -0.00086308 -0.015847 -0.0045668 0.0098988 0.0098521 -0.0070094 -0.011021 0.013092 -0.0017974 -0.015428 -0.019964 -0.0049053 -0.0073357 0.012776 -0.0017019 -0.012025 0.0024195 -0.011343 
毛 -0.033717 0.030245 -0.002382 0.044563 -0.061791 0.013609 -0.030712 0.014451 -0.0062901 0.012005 0.0023304 0.040276 0.005472 0.007535 -0.021521 -0.012884 -0.035437 0.054399 -0.0423 0.00076112 -0.069989 0.061614 0.03688 -0.016125 -0.028475 -0.047146 -0.0047328 0.021139 -0.011085 0.020666 
票 0.39788 -0.19928 0.085749 -0.44957 0.3738 -0.29482 0.40595 -0.23685 -0.16421 0.12892 0.16429 -0.42992 -0.13358 0.12541 0.036708 0.27712 0.30406 -0.36094 0.3869 0.040087 0.61192 -0.41483 -0.25934 0.0064736 0.078135 0.32968 0.058447 -0.20448 0.11785 -0.19518 
克 -0.093614 0.048426 -0.02625 0.083724 -0.049276 0.045204 -0.079538 0.043627 0.0095676 -0.00025667 -0.038884 0.06495 0.018201 -0.013615 -0.0050386 -0.03047 -0.030905 0.068107 -0.069052 -0.0039892 -0.10588 0.063246 0.058701 -0.0027947 -0.0047364 -0.055063 -0.032077 0.030159 -0.036725 0.054798 
6 -0.03559 0.026234 0.0061652 0.035483 -0.039585 0.016215 -0.075715 0.015754 0.011221 0.0054756 -0.0061754 0.04939 0.036183 -0.019953 0.0029971 -0.063193 -0.034473 0.022049 -0.056217 -0.021665 -0.068753 0.051878 0.021946 0.013042 -0.029767 -0.050152 -0.012458 0.029906 -0.026165 0.035544 
夫 -0.061254 0.017189 -0.025131 0.056157 -0.068912 0.042737 -0.068821 0.047981 -0.003559 -0.017733 -0.020765 0.070654 0.034612 -0.015899 0.012198 -0.029839 -0.062484 0.053714 -0.050189 -0.001532 -0.092421 0.087088 0.05642 0.024745 -0.03115 -0.065455 -0.029822 0.036427 -0.048958 0.032082 
短 0.039797 -0.029347 0.017032 -0.040227 0.036291 -0.00076975 0.042853 -0.025961 -0.023049 -0.0025252 0.027686 -0.028642 -0.021246 0.012167 0.020692 0.01938 0.043082 -0.0080562 0.042514 0.017927 0.052885 -0.056721 -0.025669 0.0057579 -0.0036415 0.052893 0.0042287 -0.02654 0.010774 -0.020846 
妈 -0.019893 0.014437 0.020411 0.033262 -0.035928 0.017749 -0.052496 0.03154 0.00050417 0.0034051 -0.015021 0.045104 0.014629 -0.011282 -0.01066 -0.019214 -0.039743 0.0056353 -0.032239 -0.015317 -0.042639 0.039753 0.021635 0.0087017 0.0061749 -0.030655 0.011232 0.0083961 -0.013875 0.01823 
赛 0.02857 -0.010622 0.015743 -0.022785 -0.0015988 -0.011316 0.020994 -0.016057 0.0067434 0.0087618 0.0043362 -0.011638 -0.00022083 0.018869 -0.0028635 0.0084213 0.012261 -0.036756 0.028343 0.014649 0.032852 -0.031964 -0.010353 0.010875 0.0060638 0.023965 -0.002736 -0.032004 0.0059607 -0.022933 
口 -0.00036125 0.0084989 -0.0039575 0.0088091 0.0056587 -0.0055697 -0.037852 0.012802 -0.011976 -0.010072 0.020716 0.031706 0.025654 -0.0097881 -0.00069732 -0.0056638 -0.015001 0.0051486 -0.038622 0.0096786 -0.036264 0.0035314 0.031316 -0.013664 0.0026496 -0.01797 0.0045421 0.0079631 0.015326 -0.015142 
科 -0.037586 0.020672 -0.020101 0.05751 -0.040526 0.045752 -0.038111 0.022527 0.01223 -0.016982 -0.015771 0.029396 0.0095907 -0.025669 -0.017806 -0.028547 -0.042018 0.040277 -0.046117 0.015437 -0.063259 0.040487 0.026547 0.002936 0.010361 -0.030449 0.01014 0.019744 -0.02651 0.044125 
产 -0.016415 0.0066371 -0.0065855 0.032161 -0.023819 0.01688 -0.029947 -0.017064 -0.0085627 0.0002981 0.015544 0.037737 -0.025967 -0.021469 0.013785 -0.025097 -0.026362 0.014515 -0.032929 0.015386 -0.036949 0.01205 0.032906 0.0020139 -0.021114 -0.014089 0.0007482 0.0064417 0.013016 0.0080091 
空 -0.058425 0.029059 -0.0038118 0.070243 -0.07994 0.054534 -0.060694 0.049118 0.046302 -0.047352 -0.057885 0.087535 0.036388 -0.031346 0.0045441 -0.045295 -0.032689 0.066632 -0.09029 -0.019006 -0.070162 0.077404 0.017056 0.020244 -0.0058062 -0.071536 -0.00083865 0.013898 -0.0021081 0.0048628 
界 0.022688 0.00078041 0.0013646 -0.022222 0.01294 -0.0055391 0.0093963 -0.014384 -0.026665 0.019325 0.0066634 -0.012299 0.0013157 0.0026791 0.0028843 -0.0052334 0.023581 0.0068435 0.01703 -0.0064551 0.038129 -0.0084127 0.025481 -0.0015619 -0.010221 -0.005373 -0.0073635 0.01415 -0.021142 -0.028161 
习 -0.033694 0.0024315 0.001192 0.03705 -0.011785 -0.0049667 -0.037125 0.034549 -0.011301 -0.026681 -0.0039704 0.042769 0.01092 0.0017161 -0.011169 -0.025583 -0.042475 0.014483 -0.04806 0.0036724 -0.047535 0.042628 0.02008 -0.011294 -0.026116 -0.037491 -0.0084427 0.0056567 -0.015933 0.002639 
极 -0.16967 0.034936 -0.004772 0.13359 -0.1318 0.08318 -0.15067 0.068071 0.024431 -0.0402 -0.028304 0.16484 0.08013 -0.057104 -0.022527 -0.11781 -0.11878 0.14482 -0.1545 0.0081025 -0.22785 0.17856 0.106 -0.0080449 -0.046806 -0.1033 0.00045996 0.090154 -0.046064 0.048802 
5 0.085205 -0.037531 0.0052084 -0.075983 0.074644 -0.041737 0.089098 -0.037646 -0.03503 0.040427 0.052558 -0.08336 -0.032562 0.020572 -0.0042192 0.058687 0.079977 -0.066793 0.10079 0.00042941 0.10409 -0.11611 -0.048126 -0.0058437 0.0056207 0.059349 0.003279 -0.043523 0.031071 -0.048206 
听 0.0029966 -0.0085988 0.023453 -0.0018047 0.0060683 -0.0082678 0.022382 -0.0062255 -0.012422 0.002441 -0.01254 0.010045 -0.0042865 0.0031788 -0.0049063 -0.0073876 0.001295 0.010244 -0.0057351 -0.0060976 -0.0092862 0.00060939 0.0048242 0.008021 0.0007254 0.0030225 0.007241 0.011172 -0.015497 -0.0050749 
版 0.054001 -0.0051185 0.025543 -0.061039 0.061481 -0.047078 0.088685 -0.049225 -0.033464 0.0099653 0.032226 -0.067984 -0.017773 0.01901 -0.023274 0.065132 0.072588 -0.066639 0.057551 0.017914 0.11226 -0.083184 -0.062867 0.0037497 0.043476 0.040687 0.0037617 -0.040341 0.012582 -0.055682 
表 -0.0061895 0.00011006 -0.0088331 -0.02236 0.0050591 -0.010337 0.020173 -0.033383 -0.028556 -0.0077537 0.007726 -0.021993 -0.0064882 -0.022342 0.0045487 -0.0039825 0.0077834 -0.020076 -0.0056132 -0.0211 0.019427 -0.014419 -0.0027404 0.010442 -0.016201 -0.013206 0.015433 -0.033628 0.013655 -0.0084613 
过 0.12789 -0.02888 0.032515 -0.11748 0.12694 -0.090993 0.086562 -0.096118 -0.051189 0.061455 0.033875 -0.097972 -0.062098 0.047377 0.019718 0.05658 0.055191 -0.11434 0.10702 0.044461 0.15177 -0.13479 -0.072032 0.0089859 0.010832 0.077711 0.020919 -0.053857 0.022775 -0.067469 
g -0.054517 0.012674 -0.011966 0.069914 -0.063092 0.035871 -0.0561 0.034897 0.025689 -0.010154 -0.016128 0.066576 0.014046 -0.034687 -0.021608 -0.038145 -0.022463 0.041295 -0.055221 -0.0039458 -0.093756 0.071193 0.037492 0.0066346 -0.0014166 -0.06046 -0.0041052 0.030744 -0.0084588 0.01643 
青 0.012663 0.0028178 -0.0047294 -0.00032961 0.014949 -0.014797 0.0058505 -0.023158 -0.011483 -0.0028618 0.014758 -0.0024335 0.0022105 0.0058005 -0.0020252 0.015959 0.011035 -0.014716 0.022513 0.0052902 0.025564 -0.007957 0.0048385 -0.0091645 -0.0035789 0.017663 0.0033627 -0.011586 0.00092649 0.0033545 
正 0.0037098 -0.0065923 -0.01056 -0.011818 -0.001526 0.012837 -0.0035477 0.012102 -0.0024639 0.0020122 -0.014063 -0.0062125 0.01131 0.011823 0.017152 0.0030037 -0.0021988 0.011675 0.0067156 0.0036863 -0.014486 -0.014402 -0.01776 -0.014477 0.0073758 0.022326 -0.005936 0.011385 -0.0019929 0.019426 
黑 -0.039456 0.0055309 -0.01477 0.036317 -0.023358 0.037435 -0.027842 0.022024 0.010508 0.0034936 -0.0115 0.046044 0.032277 -0.0097935 0.018945 -0.020942 -0.031682 0.027668 -0.025204 0.0032634 -0.040352 0.00067465 0.028838 -0.0070093 -0.009172 -0.025712 -0.012954 0.0093682 -0.020632 2.0124e-05 
超 -0.12697 0.023211 -0.043698 0.13931 -0.16157 0.073063 -0.15136 0.080454 0.067714 -0.025231 -0.043544 0.13266 0.069767 -0.013063 0.012808 -0.066737 -0.073159 0.13987 -0.092178 -0.0078094 -0.18306 0.16597 0.091981 -0.035219 -0.047105 -0.11477 -0.03578 0.047542 -0.021581 0.053017 
古 -0.070335 0.01454 -0.0031548 0.064397 -0.042146 0.032859 -0.073077 0.048041 0.03692 -0.012363 -0.034572 0.074607 0.017087 0.012899 -0.0088954 -0.038616 -0.036312 0.05993 -0.069497 -0.024115 -0.10543 0.062433 0.032199 -0.00016691 -0.014726 -0.054233 -0.028402 0.044257 -0.023366 0.041488 
鸡 -0.019901 0.019683 0.02576 0.014393 -0.026847 0.005008 -0.023474 -0.0039218 -0.019487 0.023882 -0.028468 0.010899 0.03791 -0.0031627 0.0031924 -0.015953 -0.035442 0.014747 -0.027508 -0.031708 -0.041422 0.031209 -0.009979 -0.023405 0.025056 -0.037863 0.0061996 0.03363 0.0094857 -0.0079553 
直 0.029471 0.0025289 0.014109 -0.022207 0.026104 -0.016581 0.019444 -0.0048462 -0.039293 -0.0061576 0.0088881 -0.024148 -0.0080804 0.039078 0.0072209 0.011711 0.0096316 -0.014745 0.036551 -0.0079203 0.034931 -0.0083489 -0.038605 0.013817 0.0086813 0.024158 -0.01194 -0.0033892 -0.0046143 0.0021365 
牛 0.024475 -0.019411 0.021953 0.011869 -0.0097965 -0.0029916 -0.0061531 -0.027566 0.00057026 0.01059 -0.0074005 0.0105 -0.010212 0.0018802 -0.017641 0.0095742 -0.005555 0.019877 0.00079591 0.0073135 -0.0114 -0.010257 -0.002101 -0.01879 0.016678 0.012957 0.019591 0.0030214 -0.013737 0.016907 
书 0.042757 -0.023144 0.011311 -0.028323 0.018015 -0.019115 0.043345 -0.016403 -0.011701 0.011776 0.030081 -0.024129 -0.026007 -0.0019031 -0.0079722 0.0035852 0.012664 -0.018949 0.043154 -0.007949 0.047962 -0.033291 -0.021085 0.0045673 -0.0037328 0.032655 0.0044639 -0.022681 0.009427 -0.012854 
路 -0.0637 0.0077649 -0.009857 0.037237 -0.036245 0.0080445 -0.02577 0.015176 0.0073681 -0.011006 -0.028149 0.042697 0.029561 -0.030274 0.0028679 -0.0015183 -0.00431 0.0066143 -0.055371 -0.0033994 -0.033497 0.054704 0.028512 -0.015458 0.010612 -0.017746 -0.0079406 0.015661 3.8466e-05 -0.0002887 
典 -0.0045747 0.02348 -0.024329 0.015468 -0.020602 0.018249 -0.0017077 -0.0040137 0.0048864 0.020772 -0.018052 0.038779 0.0088251 0.014053 0.018205 0.015362 -0.016863 0.0012861 -0.0034823 0.0049859 -0.039847 0.019527 -0.0021468 0.015434 0.01956 0.0084773 -0.028514 0.011071 4.7692e-05 0.0018345 
尔 0.045693 -0.036755 0.014517 -0.049047 0.018425 -0.040923 0.056807 -0.019518 -0.026888 0.024892 -0.011606 -0.04322 -0.013754 -0.0072337 -0.010728 0.023145 0.033155 -0.040331 0.016246 0.019307 0.066455 -0.043646 -0.013115 -0.019365 0.0079493 0.048774 -0.00031905 -0.014974 0.0076159 -0.022006 
合 -0.004391 0.011766 -0.014044 -0.012074 0.025878 -0.014495 0.0055146 -0.011234 -0.011001 0.0053533 -0.0055727 -0.01552 0.0016626 -0.0036391 -0.017427 0.008417 0.011868 0.019767 -0.022914 -0.021683 -1.1954e-05 -0.026119 -0.00066704 -0.0016303 -0.00051006 0.025779 0.018897 -0.00063988 0.024658 -0.0055868 
艺 -0.01547 0.017931 0.0079557 -0.0071766 0.0023467 0.015878 -0.0061674 -0.010856 -0.014494 0.0070087 -0.020919 0.010233 0.0088023 -0.0040847 0.0037649 -0.015305 -0.0066315 -0.00078289 -0.01347 -0.0039327 -0.016773 0.026468 0.015606 -0.00055484 -0.0064243 -0.010657 0.0066792 0.0074455 -0.002983 0.02566 
童 -0.023209 -0.0083121 -0.011848 -0.002586 0.017336 0.0092914 0.001025 0.0027774 -0.01602 -0.0054521 0.011475 -0.00034829 -0.015088 0.0019289 -0.0085054 -0.0033693 0.018297 0.026573 -0.0086837 -0.015462 -0.0093032 -0.0087798 0.0080516 0.0013074 -0.0033887 -0.030131 -0.021864 0.0043671 0.0011946 0.011196 
河 0.085832 -0.0071551 0.011398 -0.082624 0.063393 -0.047574 0.080636 -0.062807 -0.01438 0.025157 0.048482 -0.084496 -0.016318 0.0032743 0.0094543 0.054593 0.067239 -0.077898 0.065688 0.029765 0.11588 -0.060506 -0.061585 0.014136 0.0030534 0.064385 0.0045557 -0.040888 0.025562 -0.053869 
给 -0.11309 0.054663 -0.037492 0.11641 -0.11775 0.072108 -0.10358 0.095328 0.032685 -0.039713 -0.018508 0.10236 0.044833 -0.016894 -0.00031335 -0.072978 -0.090427 0.097954 -0.10506 -0.011612 -0.19818 0.14633 0.05449 -0.001001 -0.014229 -0.098895 -0.032018 0.049186 -0.055766 0.072789 
试 -0.012163 -0.010061 -0.0065615 0.026268 -0.012389 0.0081815 -0.031933 -0.0094498 0.014414 0.001068 0.0065423 0.0042919 0.0088588 -0.0027369 -0.0043548 -0.021047 -0.013749 0.018802 -0.019186 -0.014382 -0.01067 0.018714 0.0068376 -0.011876 0.00093904 0.0088649 0.0032828 -0.001478 0.0098731 -0.019563 
故 0.063628 -0.030954 0.01103 -0.0626 0.063322 -0.041664 0.068957 -0.051053 -0.043977 0.029514 0.020142 -0.039384 -0.021298 0.012331 -0.01888 0.0065739 0.022683 -0.058944 0.036513 0.031713 0.070502 -0.054683 -0.039857 -0.0060982 -0.0065009 0.055042 0.010025 -0.036397 0.024714 -0.032537 
鱼 0.018588 -0.0092019 -0.0080842 -0.0082018 0.017424 -0.012621 0.012589 -0.019407 -0.0033506 -0.01053 0.012304 -0.018543 -0.00087772 0.00883 0.0058169 0.01949 0.02244 -0.024831 0.0067339 -0.00080208 0.040118 -0.00937 -0.0029445 -0.019335 -0.0064646 0.0074896 0.00074547 -0.0047772 0.0094731 -0.024986 
业 -0.00019236 -0.019681 -0.0074328 0.0019446 0.0421 -0.028054 -0.00084655 -0.00027191 -0.0013728 0.0022915 0.010624 -0.015462 -0.024907 0.0073615 -0.0072283 0.014077 0.013999 -0.0096167 -0.012319 -0.0041276 0.043221 -0.0094698 -0.00083652 -0.0021669 0.017562 0.013866 -0.021996 0.019328 0.0088007 0.00091664 
村 0.0056428 -0.013758 0.020117 -0.037649 0.022099 -0.021272 0.038267 -0.02417 -0.009009 0.0065309 0.027411 -0.040271 -0.0092591 0.00891 0.01457 -0.0020067 0.029423 -0.056814 0.057869 0.032455 0.046972 -0.036133 -0.00097694 0.0061033 0.014108 0.025069 0.00028688 -0.013358 0.017828 -0.028556 
段 -0.078072 0.030811 -0.029162 0.094631 -0.064751 0.066488 -0.05571 0.058182 0.027751 -0.047643 -0.034783 0.069335 0.012572 -0.033875 -0.0080072 -0.045725 -0.039518 0.071863 -0.069892 -0.028865 -0.12998 0.077501 0.063615 0.021002 0.0075884 -0.060293 -0.00013269 0.02141 -0.022859 0.060842 
房 0.044211 0.0043607 0.0069108 -0.046622 0.037714 -0.00071894 0.043145 -0.0035698 -0.031381 0.010715 0.028654 -0.061028 -0.0030916 0.026513 -0.017236 0.059479 0.036757 -0.029533 0.016473 0.016131 0.082855 -0.053893 -0.0008796 -0.030858 0.033558 0.06492 0.033539 -0.042399 0.014148 -0.0026209 
丽 -0.012594 0.0034324 -0.0048784 0.0090746 -0.0011285 0.01493 -0.0091143 0.0029238 -0.011781 -0.0037514 -0.0086688 0.011752 -0.0012433 -0.01566 -0.0071294 0.0073887 0.0034641 0.029507 -0.0082151 -0.00035106 -0.015597 0.01196 0.002742 -0.010614 0.0046447 -0.0051264 -0.00097982 -0.0068596 -0.0048626 -0.0094114 
课 -0.013736 0.020679 -0.0098084 0.027563 -0.032986 0.041424 -0.033829 0.01914 0.018601 -0.02691 -0.014868 0.031475 0.0049755 -0.021611 0.0021567 -0.018422 -0.030912 0.046046 -0.030007 0.0058165 -0.025592 0.018533 0.0083064 0.0037482 -0.0058853 -0.022937 -0.012353 -0.0043814 -0.0062563 0.023237 
怎 0.10475 -0.044768 0.0030173 -0.116 0.10615 -0.082815 0.081352 -0.057692 -0.040393 0.050341 0.045462 -0.086419 -0.032322 0.032334 -0.0094083 0.063318 0.074784 -0.10932 0.078383 0.0078607 0.15068 -0.12403 -0.076518 -0.0011057 0.023822 0.11299 -0.0053363 -0.051967 0.02818 -0.05354 
果 0.05648 -0.021178 0.017539 -0.068924 0.043754 -0.039356 0.045722 -0.05283 -0.03596 0.02831 0.0011555 -0.067674 -0.015526 0.0075075 -0.0031383 0.037559 0.052747 -0.045171 0.011597 0.010912 0.046803 -0.044327 -0.031714 -0.0086203 0.012169 0.012858 0.014116 -0.022531 -0.0075826 -0.02357 
考 -0.022347 -0.017676 -0.0072033 0.014723 -0.025408 -0.0082953 -0.0020395 -0.025467 -0.019337 -0.010609 -0.021429 -0.0179 -0.019078 -0.017007 0.033239 -0.013763 -0.029673 0.0055664 0.0065494 -0.00011544 -0.0040775 0.023045 -0.022928 -0.0024223 -0.030537 0.028366 -0.0019455 0.0056679 0.01635 0.0022694 
刘 -0.013131 0.010588 -0.024407 0.012668 -0.013738 0.0022133 -0.0010351 0.021339 -0.0085766 0.0086861 -0.014782 0.015132 -0.011503 -0.0017601 0.0014332 -0.023931 -0.0090327 0.0090959 -0.008081 6.7802e-05 -0.02274 0.018288 0.013323 -0.0019835 -0.0016797 -0.012639 -0.011214 0.0088653 -0.0092363 0.0091101 
酒 -0.045876 0.046606 -0.027862 0.065386 -0.037366 0.032725 -0.031409 0.041269 0.0096553 -0.020586 -0.0078805 0.035443 0.029505 -0.011081 0.012836 -0.016249 -0.030551 0.014343 -0.045198 -0.014594 -0.053529 0.070924 0.044568 0.0085809 0.013165 -0.024082 0.020338 0.0073092 0.0033301 0.012011 
T -0.036659 0.0019215 0.013101 0.0047846 -0.032849 0.011297 -0.01012 0.040719 0.018165 -0.0061468 0.013085 0.009706 -0.0054376 -0.012188 0.017581 -0.0079374 -0.013924 0.023058 -0.00094601 -0.012221 -0.022753 0.012328 -0.00044093 0.02089 0.011084 -0.0037256 0.0015568 0.037634 -0.011433 -0.0048991 
川 0.16124 -0.094331 0.06413 -0.18325 0.17141 -0.11274 0.13374 -0.081577 -0.03873 0.074496 0.09307 -0.17039 -0.038688 0.04868 0.024094 0.080677 0.11119 -0.138 0.17525 0.031284 0.26557 -0.14662 -0.12531 -0.018867 0.014853 0.12963 0.053184 -0.079183 0.034126 -0.09825 
飞 -0.047234 0.036915 -0.016672 0.054358 -0.05254 0.034698 -0.02332 0.023369 0.020714 -0.041866 0.0016024 0.056717 0.010197 -0.0088419 -9.5675e-05 -0.043176 -0.022834 0.034346 -0.020819 0.0071686 -0.071629 0.052572 0.013359 -0.0079347 0.01512 -0.046635 0.0056951 0.025702 -0.030079 0.021444 
军 -0.061481 0.03363 0.008879 0.041817 -0.050468 0.022037 -0.056285 0.033282 0.030627 -0.021801 -0.03515 0.019944 0.02901 -0.0036772 -0.0022039 -0.031182 -0.06038 0.029217 -0.021518 0.018429 -0.049755 0.038058 0.027235 -0.0081511 -0.0073679 -0.052384 0.014086 0.017069 -0.012135 0.024968 
D -0.03254 0.039838 -0.0014121 0.039213 -0.041034 0.035917 -0.051716 0.043778 0.011193 -0.019316 -0.01063 0.036295 0.016012 -0.03127 -0.010402 -0.027802 -0.036466 0.0452 -0.028554 0.0076345 -0.09272 0.079295 0.015427 -0.027787 -0.011312 -0.039942 -0.016197 0.024704 -0.034794 0.028488 
毒 -0.16194 0.08998 -0.019695 0.17378 -0.13442 0.11228 -0.11971 0.051642 0.043174 -0.029669 -0.031051 0.15603 0.077247 -0.014873 -0.028825 -0.05273 -0.066441 0.10186 -0.10184 -0.015445 -0.21158 0.1101 0.10321 0.010729 -0.031892 -0.10102 -0.042091 0.041528 -0.053626 0.072687 
摩 -0.055025 -0.0086752 -0.0051215 0.03702 -0.030751 0.0188 -0.034486 -0.004197 0.0021996 -0.035943 -0.017196 0.044108 0.011869 -0.019649 -0.028692 -0.033578 -0.013395 0.032966 -0.026303 -0.012992 -0.035514 0.031023 0.027064 0.0012604 -0.01057 -0.020329 0.0030693 0.003198 -0.021165 0.013918 
巴 -0.10812 0.046839 -0.0078974 0.1305 -0.11652 0.048668 -0.11415 0.043555 0.018077 -0.022627 -0.048365 0.1068 0.030329 -0.050409 -0.011108 -0.071028 -0.067897 0.11248 -0.10642 0.0059425 -0.14974 0.11815 0.0794 -0.012506 -0.020164 -0.091992 -0.028797 0.072901 -0.03744 0.022487 
妹 -0.0454 0.020863 -0.028213 0.038085 -0.022541 0.038268 -0.032143 0.038523 0.021584 -0.014085 -0.014555 0.028227 0.011394 -0.034358 -0.016072 -0.028107 -0.027676 0.024669 -0.036771 0.010997 -0.071933 0.032183 0.050767 -0.0086602 -0.0083608 -0.021128 -0.019842 0.019536 -0.024413 0.029929 
志 0.049377 -0.0057991 0.0092379 -0.032826 0.017372 -0.017524 0.04006 -0.014781 -0.013937 0.0067618 0.018552 -0.037651 -0.032542 0.0030374 -0.0046351 0.031595 0.022281 -0.015072 0.0080587 -0.003014 0.066581 -0.020063 -0.014017 -0.018459 0.019769 0.050613 0.012317 -0.011062 0.0095583 -0.017976 
代 0.030432 0.00055868 0.01977 -0.026246 0.0027415 -0.023793 0.0022686 -0.011738 0.023649 -0.0082752 0.017899 -0.030861 0.01147 0.017559 0.022858 0.023131 0.020311 -0.022394 0.008131 -0.0081891 0.0071215 -0.01283 0.0022284 0.016334 0.008754 0.023723 0.013205 -0.0085219 -0.0067975 -0.0087255 
基 0.035064 -0.010703 0.011323 -0.01095 0.032963 -0.016926 0.045184 -0.032905 -0.022401 0.04275 0.0047039 -0.018138 -0.04065 -0.0089124 -0.012401 0.016668 0.048353 -0.008798 0.03478 0.023817 0.039251 -0.01124 -0.012101 0.0038666 0.031521 0.046139 0.036432 -0.016537 -0.00261 -0.025275 
士 -0.074402 0.035796 -0.032963 0.12059 -0.10567 0.07514 -0.11666 0.068378 0.057241 -0.021623 -0.047026 0.099562 0.039205 -0.029863 -0.019768 -0.052791 -0.089827 0.083211 -0.092727 -0.0089955 -0.14359 0.12348 0.042306 0.018461 -0.0036867 -0.094129 -0.030453 0.052492 -0.035834 0.05011 
原 0.057006 -0.018916 0.0075816 -0.06223 0.058732 -0.039776 0.073953 -0.026317 -0.0122 0.035831 0.034093 -0.054063 0.010435 0.037565 0.013934 0.045041 0.061701 -0.041939 0.061362 -0.0016329 0.081635 -0.061538 -0.04844 -0.0011413 0.0062247 0.046605 -0.0027006 -0.045785 0.014958 -0.023069 
字 0.034001 -0.02713 0.0090958 -0.037355 0.052146 -0.0051473 0.036754 -0.031448 -0.010445 0.01644 0.033474 -0.035527 0.0010968 -0.003759 0.00025745 0.015804 0.036632 -0.030837 0.02176 -0.0029349 0.048775 -0.038356 -0.024692 -0.0034693 0.024026 0.056003 0.017113 -0.017332 0.01995 -0.021307 
要 0.055584 -0.021089 0.0074093 -0.052898 0.047317 -0.056932 0.044378 -0.03119 -0.0045202 -0.0053729 0.022592 -0.058129 -0.028547 0.018402 0.0042085 0.043378 0.036924 -0.049986 0.056523 -0.0050146 0.072321 -0.060431 -0.036802 0.019406 0.012402 0.042965 0.0036183 -0.031508 -0.0040787 -0.0024167 
店 0.076336 -0.048912 0.025923 -0.057614 0.046493 -0.047251 0.076591 -0.022715 -0.027585 0.025439 0.013533 -0.066205 -0.039321 0.00084748 -0.012557 0.022657 0.028387 -0.060088 0.07407 -0.0064163 0.088906 -0.043782 -0.031104 -0.016137 0.01951 0.036773 -0.0094371 -0.013514 0.023227 -0.020481 
奸 -0.048681 0.042425 0.010279 0.049055 -0.049858 0.037832 -0.039979 0.030192 0.016961 0.0028026 -0.016027 0.025687 0.045719 -0.003272 0.0036955 -0.034102 -0.03319 0.033994 -0.03621 0.0048915 -0.054176 0.034218 0.041753 0.0047576 -0.020664 -0.03306 0.0048342 0.01105 -0.0038938 0.031694 
杀 -0.093406 0.014571 -0.040596 0.091597 -0.07378 0.071607 -0.074742 0.050441 -0.0031382 -0.017872 -0.013213 0.082067 0.023805 -0.048222 0.0028963 -0.051615 -0.054813 0.080316 -0.068646 -0.029824 -0.10974 0.080166 0.073336 0.022576 -0.0016835 -0.069523 0.00051638 0.055999 -0.039671 0.046562 
间 -0.032756 0.021434 0.0086993 0.030869 -0.0036953 0.013298 -0.016182 -0.014951 -0.013247 -0.01479 0.013573 0.023326 -0.0062169 -0.012037 0.0023237 -0.00024527 -0.028088 -0.007291 -0.016706 0.022897 0.0013271 0.0254 0.026656 -0.020281 -0.018078 -0.022599 0.012875 0.0037548 -0.00085055 0.029815 
S -0.058482 0.03193 -0.011948 0.092804 -0.056706 0.058294 -0.076779 0.06277 0.010947 -0.025707 -0.035257 0.093499 0.025826 -0.024397 -0.01394 -0.042282 -0.058202 0.088397 -0.069131 0.0011455 -0.13314 0.061333 0.066312 -0.015576 -0.023351 -0.079477 -0.0028518 0.049098 -0.017408 0.06069 
保 0.014087 0.0064688 -0.0012281 -0.043844 0.027299 -0.036955 0.0097298 0.017752 0.0035208 -0.010308 -0.00024297 -0.022687 -0.0038983 -0.019946 0.025345 -0.024975 -0.0072022 -0.014929 -0.013964 -0.024559 0.039713 0.018198 0.022888 0.00020713 -0.0095792 0.018102 -0.023966 -0.0015157 0.020964 0.01363 
吗 0.11436 -0.031035 0.026565 -0.11835 0.11689 -0.074213 0.10932 -0.057092 -0.029149 0.036808 0.035374 -0.11137 -0.04441 0.029865 0.0089848 0.066878 0.087334 -0.096786 0.087508 0.0040717 0.14702 -0.10092 -0.075926 0.0020457 0.03708 0.089257 0.0021267 -0.050911 0.029605 -0.059025 
市 -0.0033458 -0.014312 0.00020773 -0.015253 0.016172 0.00078298 0.014563 0.00021234 -0.021008 0.0014479 0.0079989 -0.024628 0.0039266 0.0053798 0.0019635 0.010369 0.02008 -0.017423 0.013478 -0.0048417 0.021208 0.0011073 0.0021295 -0.0021158 0.0071262 0.021503 -0.0062147 0.0050106 0.0053137 -0.016956 
吃 0.033158 -0.011216 0.0089467 -0.014282 0.029897 -0.032206 0.02492 -0.035534 -0.013472 0.016612 0.0050474 -0.031047 0.012086 0.0067539 0.023299 0.048086 0.025706 -0.0096962 0.02156 -0.0089715 0.045808 -0.015728 -0.012745 0.018938 0.016992 0.020369 0.0056556 0.0043523 0.017648 -0.012627 
万 0.021556 -0.01899 0.017696 -0.029428 0.035215 -0.025397 0.0016895 -0.021643 0.0032829 0.00075654 0.011588 -0.024614 -0.01113 0.0096295 0.0056859 0.022136 0.024166 -0.043914 0.01625 -0.013096 0.038686 -0.0336 -0.0089798 -0.014065 -0.002692 0.033624 0.016983 -0.013678 0.00045772 -0.013484 
百 0.13207 -0.060034 0.031221 -0.11573 0.10864 -0.074449 0.11868 -0.053292 -0.057302 0.048614 0.063784 -0.12694 -0.037178 0.02085 0.021151 0.063891 0.06839 -0.099847 0.10415 0.025026 0.14513 -0.12915 -0.060941 -0.02566 0.030221 0.098821 0.028241 -0.060094 0.0064016 -0.072329 
