3075 30
</s> -0.0018553 0.0002455 0.0055047 -0.002258 -0.0036526 0.0034869 -0.00039334 -0.0075792 0.0019437 0.0098769 -0.0022298 0.0088043 0.0056009 0.014265 -0.0074258 0.010251 0.010034 -0.0096529 -0.0013018 0.0048057 -0.0070899 0.011669 -0.0014761 0.0068825 0.0072427 -0.011242 -0.0012855 0.011698 -0.004709 -0.0031719 
新 -0.027863 0.03658 0.031095 0.028433 -0.12094 0.044419 0.020956 -0.069006 0.03762 0.0077173 0.042942 0.013242 -0.024669 0.045776 -0.076028 0.043764 0.056982 -0.042325 -0.031835 -0.034091 -0.16666 0.12302 -0.011934 0.037225 -0.012907 -0.16457 0.036202 0.045904 0.036342 -0.034037 
闻 -0.047194 0.047155 0.059575 0.037671 -0.097195 0.052331 0.0013208 -0.037667 0.064314 0.0047786 0.030771 0.004401 -0.060626 0.034769 -0.07479 0.030631 0.082253 -0.011832 -0.028294 -0.018086 -0.1818 0.10306 -0.0027864 0.023507 -0.020098 -0.13519 0.041567 0.030572 0.019266 -0.03057 
讯 -0.030251 0.086936 0.098122 0.043913 -0.1687 0.0683 0.033117 -0.075283 0.07103 0.011293 0.033637 0.044651 -0.073889 0.057845 -0.12762 0.069943 0.093668 -0.042645 -0.042892 -0.028878 -0.23437 0.11358 -0.02929 0.059845 -0.022908 -0.2242 0.087218 0.048993 0.025207 -0.037653 
腾 -0.034412 0.065912 0.038802 0.049415 -0.11491 0.027872 -0.0019605 -0.033957 0.052625 0.0055601 0.0085653 0.011832 -0.031824 0.025002 -0.057466 0.0059788 0.044938 -0.02896 -0.012589 -0.036734 -0.13554 0.079072 -0.0037235 0.016236 -0.0016589 -0.11016 0.052331 0.030773 0.032253 -0.017848 
播 0.13697 -0.32817 -0.25247 -0.21558 0.64512 -0.27743 -0.16416 0.27614 -0.2942 -0.097375 -0.13368 -0.067882 0.28148 -0.17888 0.46227 -0.15825 -0.40822 0.12062 0.082431 0.11564 0.87425 -0.47342 0.037949 -0.18391 0.058128 0.73304 -0.28446 -0.15872 -0.12291 0.1561 
的 -0.040974 0.063445 0.06833 0.042307 -0.13542 0.061621 0.036589 -0.065558 0.053155 0.026062 0.022222 0.027231 -0.069205 0.052898 -0.074202 0.031911 0.093321 -0.020835 -0.04653 -0.023703 -0.16301 0.092285 -0.0025328 0.045648 -0.022848 -0.18437 0.058286 0.036601 0.061258 -0.0064699 
网 -0.029835 0.038171 0.036518 0.042086 -0.092447 0.026979 0.033173 -0.036684 0.041964 0.025994 0.027427 0.01796 -0.038249 0.029332 -0.066044 0.021946 0.051123 -0.026658 -0.015518 -0.021517 -0.1064 0.088243 0.0048285 0.032227 -0.019492 -0.11974 0.039067 0.030089 0.021949 -0.0097956 
事 -0.034683 0.055367 0.069754 0.051218 -0.14679 0.063329 0.055261 -0.044297 0.078275 0.0091339 0.010066 0.032451 -0.056357 0.043078 -0.10995 0.019818 0.071658 -0.024776 -0.013782 -0.04297 -0.17274 0.13046 -0.0035752 0.043617 -0.034773 -0.13688 0.059385 0.048816 0.017376 -0.044082 
条 0.024547 -0.038981 -0.023457 -0.028125 0.066395 -0.032646 -0.0026995 0.036273 -0.033227 -0.023014 -0.0092168 -0.004611 0.022114 -0.012029 0.050161 -0.01836 -0.035813 0.019857 0.012248 0.020222 0.070372 -0.050419 0.0048468 -0.011012 0.019279 0.072536 -0.040118 -0.025176 -0.0084364 0.024464 
日 -0.044769 0.06613 0.057229 0.043017 -0.12895 0.070524 0.028415 -0.053539 0.076854 0.027247 0.027568 0.04239 -0.06154 0.037104 -0.07587 0.0063654 0.050263 -0.026462 -0.0090574 -0.012315 -0.16428 0.11202 0.0016803 0.02538 -0.011292 -0.14997 0.061289 0.023167 0.015951 -0.026628 
头 -0.027879 0.060292 0.067759 0.058799 -0.13661 0.082583 0.017086 -0.064442 0.046937 0.033083 0.022973 0.026611 -0.045253 0.017364 -0.080136 0.030611 0.075643 -0.022361 -0.021006 -0.024523 -0.18246 0.081021 -0.016547 0.013278 -0.0092683 -0.15568 0.067687 0.040776 0.044891 -0.032887 
通 -0.020752 0.032945 0.040052 -0.0096458 -0.066601 0.03656 0.0075289 -0.032703 0.013795 0.0078009 0.024243 -0.004075 -0.023261 0.020659 -0.024798 0.026594 0.051998 -0.0052988 0.017109 -0.041672 -0.067309 0.055143 0.014607 0.014118 0.016243 -0.053764 0.02533 0.024934 0.0024366 -0.027724 
交 0.019228 -0.054574 -0.025972 -0.015381 0.054186 -0.044428 -0.014965 0.04255 -0.045085 -0.0024591 -0.027911 0.0076213 0.029753 -0.01379 0.083752 0.010342 -0.030394 -0.017203 0.027871 0.025425 0.093085 -0.068297 -0.014521 -0.010417 0.036235 0.081752 -0.024552 -0.026472 -0.036176 0.046002 
视 -0.0418 0.085019 0.05877 0.081764 -0.19379 0.094795 0.046252 -0.080056 0.095748 0.046592 0.034619 0.0058492 -0.083941 0.076192 -0.13891 0.034752 0.10615 -0.038806 -0.034952 -0.051255 -0.26576 0.13284 0.0020885 0.052556 -0.020435 -0.23395 0.093003 0.037819 0.043286 -0.040297 
。 0.052012 -0.14337 -0.11356 -0.11322 0.37261 -0.12272 -0.082166 0.15772 -0.19366 -0.012818 -0.058655 -0.035442 0.11672 -0.11032 0.24367 -0.049835 -0.20359 0.040492 0.032373 0.085736 0.42118 -0.24973 -0.014037 -0.054286 0.017018 0.36166 -0.16208 -0.12075 -0.059303 0.063303 
广 0.018396 -0.041739 -0.025488 -0.021378 0.065465 -0.028055 -0.020344 0.027653 -0.037811 -0.01291 -0.0060246 0.0032247 0.032306 -0.025201 0.058974 0.00074218 -0.049333 -0.0043733 0.013346 0.0069217 0.10243 -0.049259 0.0085772 -0.011365 0.024358 0.081986 -0.040145 -0.021688 -0.026094 0.046949 
今 -0.032419 0.064499 0.03473 0.034412 -0.15171 0.059644 0.014501 -0.072812 0.076414 0.0030428 0.027471 0.0089178 -0.060631 0.056531 -0.10708 0.031255 0.086685 -0.052491 -0.023554 -0.03881 -0.20229 0.13894 -0.013691 0.04998 -0.023756 -0.16314 0.036665 0.024972 0.031883 -0.0081928 
我 0.019299 -0.053115 -0.059328 -0.048275 0.13694 -0.059935 -0.019523 0.053544 -0.057847 0.00038651 -0.019513 -0.016044 0.049173 -0.035535 0.075065 -0.037654 -0.053815 0.020946 0.016256 0.028784 0.15738 -0.082908 0.0093722 -0.045003 0.017234 0.13128 -0.060339 -0.031313 -0.032812 0.020803 
最 -0.01747 0.025802 0.029384 0.010584 -0.063828 0.017356 0.018422 -0.019955 0.028375 0.0077062 0.01676 0.0083213 -0.020237 0.027067 -0.028285 0.014647 0.02535 -0.013306 -0.013651 -0.005884 -0.11012 0.035025 -0.0066828 0.031453 -0.00046216 -0.090224 0.013686 0.029781 0.026002 -0.013343 
故 -0.018328 0.10485 0.074585 0.03835 -0.19584 0.081136 0.037685 -0.091591 0.087971 0.028855 0.030169 0.044138 -0.092606 0.035678 -0.13149 0.044089 0.089786 -0.036688 -0.032427 -0.02038 -0.23956 0.16297 -0.007342 0.042612 -0.0099091 -0.21064 0.07993 0.037432 0.04181 -0.024201 
央 -0.016662 0.048988 0.027953 0.038625 -0.093466 0.041985 0.014463 -0.039822 0.04264 0.0047981 0.0079751 0.0076935 -0.04344 0.0079812 -0.074528 0.0049054 0.081591 -0.040468 -0.018836 -0.024385 -0.13336 0.087341 -0.012192 0.024259 -0.018949 -0.12991 0.034959 0.03777 0.036918 -0.023924 
中 -0.033976 0.071591 0.014036 0.046847 -0.10773 0.050855 0.027295 -0.060329 0.055576 0.022822 0.010145 0.0090265 -0.049221 0.043609 -0.072862 0.020552 0.06941 -0.016765 -0.018306 -0.021213 -0.13765 0.077375 -0.0031329 0.029977 -0.017648 -0.119 0.044227 0.033791 0.020553 -0.029834 
州 -0.0010827 0.013392 0.011031 -0.0016072 -0.036071 0.0059743 0.012708 -0.011979 0.01954 -0.013849 0.007116 -0.010258 -0.011534 -0.00090145 -0.016301 0.0044487 0.0086615 0.0042131 0.018352 -0.010848 -0.043412 0.0074897 0.0052171 0.020425 0.0056143 -0.052387 -0.0016725 0.013691 0.022473 -0.0061344 
息 -0.0054046 -0.018379 -0.018349 -0.022257 0.038313 -0.025486 -0.0019681 0.039657 -0.018917 -0.016901 -0.016027 0.00079625 0.042521 0.0039595 0.0014687 -0.013912 -0.0031699 -0.012289 0.013869 0.019587 0.06949 -0.0054352 -0.0068874 -0.014609 0.0064973 0.050571 -0.001609 0.01256 0.01809 0.023264 
1 -0.05946 0.11774 0.10751 0.11486 -0.2594 0.10696 0.061534 -0.10528 0.12751 0.024721 0.042302 0.013032 -0.068478 0.046017 -0.16557 0.029444 0.13979 -0.039804 -0.041638 -0.05213 -0.34209 0.19845 -0.01678 0.058996 -0.0098376 -0.24708 0.099265 0.076108 0.033286 -0.048257 
消 -0.011212 0.007115 0.0094628 -0.0044495 0.011889 -0.014113 0.018422 0.00064687 -0.010298 -0.020093 -0.0013525 0.011035 -0.014166 0.0030854 -0.0072458 -0.0015802 0.0050135 -0.0041779 -0.0017951 -0.0055651 0.016646 0.00033829 0.0061109 -0.005433 0.010723 0.0083699 -0.011435 0.0080742 -0.010819 0.0047202 
国 -0.055907 0.10065 0.075047 0.091042 -0.18733 0.07429 0.058715 -0.081985 0.10781 0.030932 0.027799 0.019551 -0.079724 0.06185 -0.12651 0.036334 0.124 -0.068436 -0.027567 -0.016693 -0.27247 0.17115 0.01335 0.048433 -0.044812 -0.2206 0.084983 0.054016 0.038874 -0.01546 
大 -0.093905 0.11455 0.12658 0.1334 -0.2928 0.12752 0.07879 -0.12932 0.1422 0.049348 0.069947 0.030727 -0.14022 0.10473 -0.21566 0.095785 0.16083 -0.093868 -0.060289 -0.051536 -0.39836 0.23692 0.015917 0.089653 -0.034765 -0.33972 0.12672 0.081372 0.046268 -0.06825 
联 -0.032443 0.047991 0.036288 0.037932 -0.090102 0.07549 0.021954 -0.03631 0.062257 0.015218 0.021265 -0.0058935 -0.049829 0.0058086 -0.04976 0.046167 0.0891 -0.030976 -0.016425 -0.029863 -0.14699 0.085462 0.023935 0.037149 -0.024445 -0.12928 0.049547 0.029498 0.047228 -0.029155 
2 -0.063481 0.13534 0.10698 0.1051 -0.2712 0.11197 0.062389 -0.09351 0.10281 0.016477 0.024147 0.028218 -0.089007 0.048186 -0.17664 0.038311 0.13748 -0.073665 -0.022719 -0.041478 -0.3419 0.17886 -0.012949 0.064622 -0.049528 -0.29641 0.13246 0.045767 0.075916 -0.069715 
0 -0.056375 0.10056 0.08052 0.058612 -0.23005 0.075399 0.025447 -0.089278 0.09853 0.021164 0.053376 0.034348 -0.087132 0.079461 -0.14573 0.044613 0.12512 -0.057959 -0.028701 -0.031383 -0.29272 0.14645 0.012146 0.038986 -0.024623 -0.23315 0.095337 0.057694 0.065384 -0.042331 
南 -0.0059943 0.01649 0.0071035 0.016606 -0.038045 0.0067006 -0.0055906 -0.004739 0.006287 0.01577 0.015952 0.0089498 -0.033962 0.017759 -0.028244 0.0093499 0.03105 -0.018138 -0.0052742 -0.021583 -0.042072 0.045965 -0.0045829 0.012948 -0.01169 -0.041782 0.021337 0.027775 -0.0067094 -0.0097215 
一 0.010642 0.00010335 0.019937 -0.030003 0.021039 -0.009305 -0.012097 0.014409 -0.013871 -0.030307 0.0091309 0.011943 0.0073115 0.0049752 0.03485 -0.010559 -0.0038087 -0.012659 -0.0065783 -0.0024205 0.041831 -0.0025143 -0.0098343 -0.021445 0.0063183 0.039677 -0.012215 -0.031983 0.0056396 0.017745 
时 -0.0012222 0.030491 0.014583 -0.012404 -0.02732 -0.0020384 0.0049395 -0.023348 0.019416 0.022481 0.029326 0.0023723 -0.003313 -0.0099783 -0.017639 -0.019587 0.033428 0.0052151 -0.021093 -0.011504 -0.04326 0.033439 -0.009241 -0.0040521 -0.0011685 -0.02442 0.023399 0.010783 0.011583 -0.0063869 
人 -0.05741 0.06844 0.08099 0.072857 -0.20008 0.081206 0.050925 -0.068521 0.09335 0.028948 0.038795 0.037402 -0.083296 0.070617 -0.14199 0.043677 0.099758 -0.026213 -0.044623 -0.021272 -0.24438 0.15255 0.015545 0.031822 -0.018149 -0.22226 0.078528 0.045319 0.043883 -0.059326 
， -0.20009 0.45412 0.34372 0.30598 -0.89051 0.37227 0.17012 -0.37043 0.42169 0.11692 0.16356 0.11777 -0.33376 0.24632 -0.64611 0.17548 0.54721 -0.19557 -0.15579 -0.16342 -1.1534 0.6863 -0.040676 0.25173 -0.1042 -0.99445 0.41158 0.23502 0.17509 -0.2066 
早 -0.025408 0.030375 0.045565 0.018072 -0.075137 0.023837 0.019415 -0.028661 0.027577 -0.00023139 0.016283 0.01912 -0.030303 0.019046 -0.061828 0.016433 0.037733 -0.013278 -0.01443 -0.023982 -0.09124 0.060461 -0.0029825 -0.0031121 0.0047099 -0.072727 0.020644 0.013572 -0.0019319 -0.01713 
看 -0.099544 0.26837 0.22996 0.21175 -0.51903 0.23306 0.10328 -0.21054 0.23483 0.098565 0.082671 0.063115 -0.19397 0.13191 -0.32634 0.13481 0.31454 -0.11994 -0.057465 -0.13515 -0.66554 0.39376 0.011268 0.15716 -0.025593 -0.602 0.20768 0.14916 0.093255 -0.10391 
政 0.025707 -0.055774 -0.045404 -0.031076 0.14035 -0.050542 -0.027103 0.061972 -0.066378 -0.010195 -0.028461 -0.0067232 0.052625 -0.051818 0.079395 -0.029955 -0.080907 0.015535 0.0098033 0.012798 0.16836 -0.089217 -0.0010868 -0.015829 0.012414 0.16176 -0.066181 -0.02357 -0.045777 0.015214 
动 0.0035855 -0.017064 -0.019066 -0.014079 0.016671 0.006812 -0.02826 -0.017246 0.018219 -0.0095473 -0.0045685 0.031091 0.028046 0.030956 0.0033231 -0.0021161 0.003479 -0.013735 0.023684 -0.018754 0.012542 0.0079583 0.015062 0.0087048 -0.011732 -0.038954 0.025737 0.030854 0.029038 -0.017518 
县 -0.030133 0.074495 0.050741 0.042689 -0.13764 0.061393 0.042128 -0.068303 0.055246 0.026987 0.025921 0.0065777 -0.051522 0.045512 -0.076051 0.035719 0.07646 -0.0043651 -0.014573 -0.023804 -0.16272 0.083789 -0.0033193 0.030481 -0.023699 -0.13584 0.041449 0.027267 0.015307 -0.024944 
放 0.059893 -0.12124 -0.086892 -0.079577 0.22539 -0.081748 -0.049601 0.11001 -0.11624 -0.055568 -0.052889 -0.0064635 0.11276 -0.082814 0.15768 -0.056854 -0.12161 0.070213 0.050249 0.069907 0.33496 -0.16334 0.012614 -0.080183 0.030637 0.29151 -0.11409 -0.052619 -0.050042 0.051422 
, -0.0031244 -0.023894 -0.0031163 -0.011365 -0.0079349 -0.011975 0.011568 -0.0087902 -0.01395 -0.028338 0.013822 -0.010828 0.024433 -0.0073312 -0.014734 0.020243 0.013919 0.0060398 0.0049861 -0.00060309 0.01216 0.0021035 -0.014351 -0.0016878 -0.0084315 0.013938 0.015656 -0.0015603 -0.025421 -0.018094 
么 -0.073568 0.12928 0.078269 0.10018 -0.25058 0.10132 0.059443 -0.098772 0.13234 0.040088 0.060779 0.044166 -0.10978 0.055522 -0.14928 0.078295 0.11492 -0.065616 -0.036696 -0.043469 -0.32512 0.18531 -1.1437e-06 0.067377 -0.021841 -0.29797 0.080701 0.049926 0.050118 -0.055757 
开 0.087635 -0.18125 -0.19632 -0.13579 0.40598 -0.19536 -0.1102 0.19127 -0.24381 -0.042963 -0.11547 -0.068372 0.17818 -0.098303 0.28151 -0.11384 -0.26476 0.091398 0.081142 0.076292 0.52901 -0.2955 0.026886 -0.10678 0.02577 0.45575 -0.15026 -0.13994 -0.11678 0.083815 
阳 0.00073955 0.051952 0.028884 0.042501 -0.079832 0.038293 0.019064 -0.043043 0.023238 0.0043494 0.0023152 0.021785 -0.040095 0.016793 -0.053001 0.0076534 0.043524 -0.01893 0.0094781 -0.014648 -0.10237 0.056597 0.0031744 0.024563 0.005417 -0.088212 0.046069 0.0086206 0.017108 -0.012911 
电 -0.0086909 -0.024556 -0.041273 -0.021212 0.040583 -0.032415 -0.021658 0.022385 -0.048185 -0.0071498 -0.014726 -0.0017359 0.031927 -0.035594 0.034832 -0.014267 -0.031612 -0.012978 0.020863 0.015501 0.060472 -0.013562 -0.011356 -0.01309 0.026523 0.053944 -0.033046 0.0003983 -0.0073367 -9.2939e-06 
？ -0.22449 0.48017 0.3591 0.33319 -0.98042 0.4125 0.22561 -0.41156 0.49921 0.14127 0.16567 0.13566 -0.38761 0.28378 -0.66769 0.1961 0.55828 -0.20664 -0.13729 -0.17198 -1.271 0.71098 -0.057029 0.25712 -0.066291 -1.0933 0.39833 0.24747 0.20668 -0.19103 
台 -0.010367 -0.02399 -0.033018 -0.037797 0.057575 -0.026553 0.0031524 0.031397 -0.033671 0.020596 0.0092004 -0.018963 0.018518 -0.010379 0.029909 -0.0068138 -0.019888 0.020891 0.0078157 -0.014155 0.10178 -0.055897 -0.012969 -0.014808 -0.019637 0.056366 -0.019479 -0.0067706 -0.02302 0.027799 
给 0.054742 -0.13156 -0.14324 -0.12552 0.30771 -0.12808 -0.062396 0.11528 -0.15586 -0.043026 -0.041384 -0.04902 0.14114 -0.074918 0.21263 -0.066181 -0.19228 0.051465 0.024811 0.056868 0.42636 -0.24176 -0.0093058 -0.064964 0.028389 0.37153 -0.12877 -0.055008 -0.098729 0.061919 
江 -0.0014394 0.060376 0.059222 0.0035962 -0.095494 0.011573 -0.017124 -0.046895 0.038261 0.042058 0.013292 0.025583 0.0038225 0.043224 -0.062148 -0.011378 0.051441 0.018397 -0.005739 0.011811 -0.10516 0.084129 0.00048268 0.0053088 0.01176 -0.054236 0.019918 -0.0048818 0.039922 -0.027149 
车 -0.030352 0.082574 0.061849 0.08933 -0.19989 0.073253 0.073977 -0.083934 0.08511 0.051673 0.066757 0.052658 -0.1178 0.043709 -0.1185 0.036603 0.1141 -0.073708 -0.025432 -0.034699 -0.27945 0.19096 0.0052332 0.062326 -0.029099 -0.26548 0.10417 0.024551 0.052312 -0.077876 
山 -0.037439 0.039041 0.039597 0.0050544 -0.048257 0.025608 -0.00011715 -0.025148 0.036568 0.026833 0.0043974 0.01754 -0.015077 0.035179 -0.018392 0.024321 0.017871 -0.019676 -0.0055962 0.01038 -0.072312 0.04816 -0.0256 0.026804 0.0033333 -0.065341 0.040302 0.016528 0.017504 -0.027563 
公 0.0017406 0.0064187 0.022642 0.012124 0.030275 -0.0026951 0.016136 0.0079477 -0.021822 0.012983 0.027461 -0.0092947 0.013425 -0.0335 -0.014359 -0.028201 -0.0185 -0.0072253 0.033776 0.0034932 0.010255 0.010207 0.019934 0.017049 0.016179 0.058033 -0.012547 0.012112 0.018143 0.0021916 
是 -0.040429 0.089569 0.073488 0.065529 -0.19913 0.091358 0.042942 -0.096558 0.091346 0.039188 0.040704 0.016218 -0.057711 0.065859 -0.12143 0.046437 0.12657 -0.023032 -0.032665 -0.038231 -0.24303 0.12976 0.0024276 0.05218 -0.016891 -0.22477 0.090207 0.047088 0.063345 -0.037246 
? -0.0083768 0.010459 0.010552 -0.0020565 -0.011978 0.021898 -0.024424 -0.0075504 -0.00045107 0.017599 0.0098105 -0.0037606 0.026045 0.021822 0.019566 -0.011142 -0.0037958 -0.0052893 0.025175 -0.010736 -0.0038981 -0.024999 -0.0056899 0.0082642 -0.0068088 -0.023714 -0.018256 0.0092645 0.0047958 -0.014187 
移 -0.0033474 0.013262 0.0017226 0.015003 -0.045155 0.028548 0.015327 -0.012587 0.022214 0.0076039 0.024056 -0.0013867 -0.017674 0.0066739 -0.020998 0.014651 0.024847 -0.01476 -0.0092887 0.000312 -0.048954 0.025484 0.017688 0.0027465 -0.0017401 -0.028166 0.0078289 0.0072692 0.012589 0.0040452 
安 -0.047422 0.17011 0.12415 0.13186 -0.33602 0.12498 0.087264 -0.15722 0.14975 0.032549 0.042253 0.04938 -0.15136 0.090534 -0.204 0.054438 0.21288 -0.06391 -0.059419 -0.070374 -0.47485 0.22874 0.017219 0.11403 -0.045547 -0.35632 0.15995 0.11848 0.068449 -0.047574 
道 -0.049432 0.052831 0.060336 0.033429 -0.11229 0.026496 0.014162 -0.045173 0.069835 0.026383 0.054441 0.025234 -0.041826 0.021137 -0.06886 0.03386 0.063332 -0.039598 0.010373 -0.031771 -0.12549 0.077442 -0.0026166 0.036619 -0.014039 -0.1196 0.048529 0.022641 0.0017633 -0.012068 
天 -0.018424 0.075113 0.041153 0.042537 -0.11506 0.061579 0.020973 -0.041458 0.058068 0.026066 0.018857 0.021367 -0.045069 0.043587 -0.076918 0.031013 0.065403 -0.030964 -0.024741 -0.015612 -0.15979 0.089073 -0.0094201 0.036941 -0.012791 -0.14571 0.068468 0.023228 0.024315 -0.019152 
打 0.041692 -0.1108 -0.066445 -0.093008 0.21186 -0.11813 -0.055399 0.0776 -0.11838 -0.017281 -0.041214 -0.026142 0.0842 -0.07672 0.14176 -0.063293 -0.14959 0.061369 0.03074 0.021533 0.25641 -0.13046 0.0071594 -0.054347 -0.0023326 0.25994 -0.088822 -0.049781 -0.051348 0.045065 
了 -0.034233 0.08752 0.077522 0.060386 -0.16872 0.080699 0.0463 -0.061906 0.075095 0.025367 0.036624 0.01216 -0.060188 0.047504 -0.10695 0.033311 0.11387 -0.03511 -0.017979 -0.024052 -0.22041 0.12879 0.00077711 0.053456 -0.011401 -0.16396 0.068128 0.045764 0.04519 -0.039845 
上 -0.00015111 0.013354 0.023964 0.010952 -0.044044 -0.0048704 0.0075043 -0.0066949 0.012336 -1.4239e-05 0.0045531 -0.010753 0.0039219 0.018359 -0.0088154 0.025423 0.024042 -0.015874 -0.0052126 -0.00085228 -0.046723 0.026223 0.011805 0.0020045 -0.0030992 -0.049023 0.0068628 -0.0016322 -0.0068436 -0.011909 
西 -0.001953 0.0086087 0.013284 0.0075401 -0.053247 0.02128 0.0010041 -0.032803 0.013076 0.015602 0.017492 0.0029624 -0.0092014 0.020835 -0.031368 0.02119 0.026723 0.0063421 -0.0072687 -0.023865 -0.06223 0.03037 -0.013811 0.021788 -0.0031706 -0.051082 0.01744 0.003001 0.009595 -0.02529 
学 -0.054857 0.1161 0.088203 0.09572 -0.26635 0.12624 0.066131 -0.12005 0.13006 0.021931 0.03111 0.020034 -0.10711 0.081528 -0.16548 0.038675 0.14617 -0.051093 -0.030878 -0.0262 -0.34916 0.19161 -0.029163 0.056058 -0.049558 -0.30131 0.1133 0.073597 0.077451 -0.071792 
报 -0.045023 0.17509 0.1385 0.12302 -0.38528 0.17158 0.043795 -0.14716 0.19059 0.016771 0.08906 0.036084 -0.11637 0.079291 -0.25028 0.080245 0.18347 -0.04594 -0.044259 -0.047138 -0.44798 0.22646 0.0073232 0.11733 -0.060204 -0.38235 0.1642 0.10126 0.10924 -0.080646 
有 -0.030357 0.051667 0.046465 0.04727 -0.095345 0.053002 0.030361 -0.038676 0.047716 0.011781 0.022068 0.015494 -0.035287 0.045525 -0.060039 0.024455 0.056816 -0.016092 -0.022849 -0.028215 -0.12292 0.062474 -0.017236 0.018859 -0.0089968 -0.11365 0.056958 0.021889 0.020117 -0.024413 
经 -0.021661 -0.0057545 -0.0070886 0.019896 0.045094 0.010315 -0.020527 0.013444 0.00054981 0.024939 0.0091659 -0.025126 -0.021449 -0.0047398 -0.0022562 -0.017199 0.012275 -0.0035226 -0.011292 0.026175 0.00071108 -0.011688 -0.013201 0.012049 -0.025677 0.01677 0.00098797 0.0018 -0.013551 -0.016496 
会 -0.055233 0.077502 0.076521 0.081554 -0.17197 0.074617 0.053665 -0.060544 0.07221 0.024358 0.043232 0.022544 -0.063728 0.019956 -0.095139 0.04955 0.082328 -0.030643 -0.023639 -0.034001 -0.17783 0.1147 0.001166 0.042227 -0.016331 -0.16734 0.069754 0.037777 0.016944 -0.045359 
城 0.017635 -0.0079394 -0.014857 -0.028815 0.017036 0.01319 -0.010807 0.020401 -0.004742 -0.0071666 0.0023535 0.025333 -0.0020168 -0.00043242 0.015714 -0.0027101 -0.0081077 -0.0037778 0.029224 -0.0011081 0.028478 -0.042254 0.0017878 -0.011558 -0.0037849 0.0098672 0.013161 -0.014179 -0.015461 0.02077 
频 0.038132 -0.076804 -0.081483 -0.038991 0.19406 -0.088392 -0.046062 0.081359 -0.091825 -0.016959 -0.016053 -0.0049056 0.072605 -0.052265 0.13731 -0.065784 -0.10876 0.030556 0.041356 0.031304 0.22862 -0.12499 0.017157 -0.060493 0.018189 0.17841 -0.083124 -0.053133 -0.051832 0.040421 
不 -0.1041 0.19048 0.16991 0.14238 -0.43722 0.14133 0.099049 -0.16424 0.21649 0.066113 0.048206 0.045624 -0.15738 0.12315 -0.28569 0.10672 0.20096 -0.07416 -0.057095 -0.06862 -0.52104 0.27761 -0.0032517 0.073357 -0.027828 -0.41805 0.16729 0.10268 0.074507 -0.10668 
个 0.0036658 -0.032168 -0.016123 -0.0060499 0.047737 -0.035555 -0.0057412 -0.0035904 -0.001161 -0.021931 -0.018181 0.010796 0.0074914 0.012589 0.0021506 0.0035609 -0.02094 0.020549 0.0076051 0.022803 0.036181 -0.02113 -0.0087944 -0.017724 -0.02612 0.034907 -0.01517 0.0063539 -0.012152 0.030176 
什 -0.0070158 0.036 0.025284 0.030577 -0.065532 0.028247 0.026941 -0.031627 0.03405 0.0050581 0.016384 -0.008695 -0.0059776 0.034285 -0.03753 0.0211 0.048302 0.011251 -0.025652 -0.0050335 -0.11487 0.037995 -0.029379 0.031606 0.013216 -0.082393 0.035354 0.022746 0.0023709 -0.034825 
市 0.0099691 0.035067 0.012459 0.0087279 -0.023978 0.011221 0.0056157 0.007832 0.016519 -0.0036393 0.0047076 0.011753 -0.011516 0.006654 -0.0091935 -0.01273 0.014561 -0.014337 0.013269 -0.0058648 -0.022034 0.014773 -0.0061564 -0.0044329 -0.0085206 -0.023508 0.018307 0.013863 -0.0017967 0.0017569 
东 -0.045332 0.093641 0.057141 0.065737 -0.20426 0.072916 0.066908 -0.079986 0.082718 -0.0018157 0.019618 -0.0091524 -0.071593 0.024726 -0.09762 0.050567 0.10053 -0.033267 -0.0086678 -0.064801 -0.23818 0.1407 -0.011943 0.069806 -0.023883 -0.15933 0.051545 0.025179 0.050976 -0.060497 
7 -0.029064 0.072961 0.070809 0.06692 -0.16856 0.080814 0.03798 -0.085415 0.052298 0.040376 0.038666 0.020292 -0.055707 0.05097 -0.12781 0.041532 0.086495 -0.036291 -0.011819 -0.054001 -0.21011 0.11097 0.0093897 0.034066 -0.015511 -0.18301 0.073293 0.040013 0.021539 -0.019496 
宁 -0.02281 0.0064174 0.013176 0.01623 -0.041711 0.02201 -0.0059255 -0.016906 0.023517 -0.0042673 0.01957 -0.0011958 -0.0082031 0.0092803 -0.027662 0.015122 0.0092356 -0.01068 0.004777 0.0068919 -0.033111 0.024807 0.011383 -0.00705 -0.0098758 -0.041677 0.015407 0.016051 0.0041249 -0.010488 
你 0.013843 -0.0030065 -0.013995 -0.0042924 0.014617 0.0036968 0.010528 -0.00086829 -0.01401 0.0059244 0.0087022 0.00029724 0.00671 0.0084237 0.010936 0.0080503 0.0047996 0.012495 0.010482 0.0068569 0.0063444 -0.0085399 -0.0018232 0.0073754 -0.0014899 0.0018206 -0.0039054 0.0076718 -0.010889 0.017568 
海 -0.029667 0.11837 0.058998 0.087133 -0.21727 0.10504 0.030941 -0.11249 0.12012 0.056015 0.020389 0.034914 -0.095762 0.073935 -0.14809 0.078775 0.12131 -0.029912 -0.020675 -0.040971 -0.28817 0.17249 -0.0035534 0.043635 1.6893e-05 -0.26079 0.11549 0.047616 0.029674 -0.016801 
平 -0.039794 0.085615 0.079433 0.074254 -0.17127 0.073199 0.040309 -0.058986 0.072686 0.025677 0.031417 -0.0025223 -0.039912 0.032067 -0.10573 0.0066992 0.075501 -0.050272 -0.020197 -0.011861 -0.16778 0.11143 0.0053514 0.027945 -0.0044559 -0.14277 0.06188 0.045028 0.044844 -0.035639 
生 -0.0020624 0.021503 0.018002 0.034951 -0.047928 0.028985 0.024159 -0.025399 0.04468 0.020034 0.00048682 0.0069155 -0.010605 0.036437 -0.042315 0.0010275 0.024681 -0.012225 -0.018416 0.0047196 -0.066722 0.025121 -0.0084172 0.014308 -0.022254 -0.056953 0.03717 0.022299 0.0044464 -0.008074 
河 0.0078478 0.030556 0.010331 0.0025984 -0.042134 -0.0039869 0.0079611 -0.050299 0.035072 0.011917 0.01554 -0.011412 -0.013502 0.031157 -0.035786 -0.0016036 0.026027 -0.022739 0.0010919 -0.036286 -0.064319 0.045872 -0.0012921 0.011542 -0.0049169 -0.049523 0.010577 -0.0031992 0.0043113 0.00070266 
年 -0.032097 0.059259 0.043895 0.053515 -0.13274 0.052387 0.037993 -0.063137 0.066982 0.031639 0.049793 0.026828 -0.05461 0.022726 -0.11898 0.032508 0.073744 -0.044296 -0.011549 -0.025184 -0.20005 0.11684 -0.0078603 0.039829 -0.02858 -0.16385 0.061614 0.032403 0.031676 -0.025808 
家 -0.029749 0.062009 0.057885 0.066881 -0.13881 0.063358 -0.00055229 -0.065077 0.056399 0.013893 0.039245 0.015837 -0.062883 0.038991 -0.10424 0.028081 0.073932 -0.02704 -0.0022921 -0.036896 -0.18236 0.10499 -0.0023666 0.049667 0.0084011 -0.14751 0.051573 0.033986 0.0095421 -0.030974 
北 -0.026702 0.0044664 0.021911 0.021362 -0.081842 0.044777 -0.0013666 -0.031869 0.0060945 -0.020201 -0.017061 -0.016149 -0.052763 0.031169 -0.039779 -0.016985 0.018959 -0.0132 -0.033769 -0.015375 -0.07687 0.041976 0.0053806 0.045051 0.0057951 -0.05422 0.023442 -0.0050488 0.014855 -0.0047763 
来 0.049696 -0.091538 -0.075503 -0.084273 0.21402 -0.090498 -0.045242 0.11517 -0.092015 -0.026559 -0.050876 -0.032958 0.06991 -0.051209 0.13837 -0.03934 -0.11183 0.011065 0.018537 0.023524 0.2343 -0.14797 0.0074626 -0.040944 -0.0054841 0.23856 -0.070524 -0.048362 -0.058085 0.051082 
语 -0.01456 0.022217 -0.0097982 0.0054612 -0.052559 0.023181 0.010809 -0.0061647 0.02001 0.014526 -0.0015745 -0.0031522 0.0017954 0.013398 -0.017649 0.0083562 0.0027631 -0.022623 0.019127 0.0025419 -0.031581 0.02623 0.010088 0.011199 0.0037128 -0.041386 0.028482 0.029574 0.0023232 8.3169e-05 
班 -0.020625 0.041299 0.067058 0.0345 -0.10322 0.033941 0.016624 -0.043047 0.060491 0.0031851 0.0013358 0.016487 -0.012438 0.048223 -0.071756 0.024058 0.051491 0.0056502 -0.032884 -0.018828 -0.11038 0.059572 -0.003332 0.047468 -0.020928 -0.11801 0.034299 0.013086 0.013544 -0.010444 
发 -0.13099 0.22675 0.20155 0.18966 -0.51172 0.25787 0.13289 -0.21552 0.26751 0.10478 0.09504 0.080015 -0.2346 0.15418 -0.39076 0.092738 0.3116 -0.13983 -0.077967 -0.12017 -0.70326 0.40238 -0.00061596 0.12984 -0.038874 -0.576 0.21153 0.14159 0.11097 -0.082365 
在 -0.020887 0.059747 0.050977 0.032218 -0.10035 0.022463 0.026349 -0.055191 0.063891 0.01373 0.013184 0.0217 -0.051458 0.036183 -0.07678 0.015799 0.069889 -0.029649 -0.013419 -0.019022 -0.12284 0.077852 0.003147 0.038593 -0.013629 -0.12495 0.024515 0.033105 0.021993 -0.0001032 
这 0.0018309 0.052373 0.020502 0.0042242 -0.049475 0.021703 0.015927 -0.019968 0.012012 0.010286 0.009947 0.0031348 -0.024134 0.0065314 -0.038116 0.034427 0.033316 -0.026785 -0.015699 0.0077488 -0.060773 0.044641 0.0078198 0.013412 0.0092531 -0.055468 0.027386 0.0010031 0.017816 -0.0298 
乐 -0.0055929 -0.01247 0.013707 -0.0044152 0.0019794 0.0038204 0.0021312 0.025255 -0.01894 5.7976e-05 -0.016412 0.0058916 0.00087151 -0.014951 -0.0093548 -0.0081302 0.00020574 0.0081471 -0.0025394 0.012316 0.01461 -0.00069389 0.014026 -0.02263 0.0054179 0.014698 0.0047343 -0.0084755 -0.0019 0.0051259 
听 0.037873 -0.11907 -0.097972 -0.066785 0.22916 -0.09634 -0.038325 0.08181 -0.12406 -0.020507 -0.025444 -0.038658 0.093292 -0.059346 0.14562 -0.05634 -0.13635 0.041238 0.032786 0.027024 0.29181 -0.15896 -0.0022908 -0.06418 0.019625 0.25542 -0.095833 -0.061281 -0.046869 0.048566 
点 0.063887 -0.11126 -0.058383 -0.058601 0.20797 -0.081866 -0.041273 0.076484 -0.10086 -0.042024 -0.030968 -0.029891 0.04954 -0.030645 0.14283 -0.062707 -0.13585 0.06609 0.035521 0.028777 0.27833 -0.12222 0.0034037 -0.049133 -0.0018399 0.22226 -0.07601 -0.053342 -0.062073 0.037402 
下 -0.017708 -0.0045171 -0.0051352 -0.0053382 0.023971 -0.010722 -0.0098836 0.0054563 -0.0061447 0.015501 -0.0099536 -0.00034217 0.0084946 -0.0021755 -0.0073729 0.010419 -0.01084 -0.0093366 0.012694 -0.0091438 0.018567 -0.0061265 0.00033201 -0.029131 -0.010627 0.03719 -0.0032216 -0.013517 0.0025394 0.016897 
吗 0.0075029 0.019587 0.016228 0.010651 -0.018862 0.0094342 0.0021642 -0.0012221 0.012182 -0.0066972 -0.0074175 -0.013784 -0.0052563 0.025455 -0.017965 0.011775 0.030072 -0.010613 -0.010877 0.012885 -0.033241 0.020522 0.0075688 -0.0091297 0.01679 -0.014575 0.0014729 0.011699 0.012567 -0.0097243 
军 0.0043827 -0.014453 -0.012396 0.022174 0.016988 -0.0037629 -0.016935 0.0085172 -0.018458 -0.0048069 0.01807 0.011919 -0.0087475 -0.0033139 -0.00019189 0.0067935 -0.019993 0.0096928 -0.0047454 0.031074 0.035485 -0.02728 0.0059701 0.0033333 -0.009792 0.039926 -0.0020409 -0.02758 -0.0027434 0.025108 
业 -0.03035 0.06137 0.045405 0.073097 -0.15265 0.061919 0.035694 -0.056174 0.047494 -0.0021284 0.019248 0.01191 -0.053297 0.053918 -0.094581 0.046018 0.099072 -0.037447 -0.024022 -0.031254 -0.18954 0.10623 -0.0015241 0.046498 -0.032567 -0.15613 0.060157 0.029584 0.041287 -0.025918 
微 -0.023314 0.041497 0.065903 0.06123 -0.15407 0.064902 0.01944 -0.078823 0.045197 0.044299 0.025966 -0.0022168 -0.053768 0.064917 -0.10347 0.022518 0.068987 -0.0094278 -0.036297 -0.010033 -0.20433 0.12029 -0.023505 0.01912 -0.011504 -0.1579 0.058647 0.053473 0.057848 -0.028669 
合 -0.01899 0.046953 0.047525 0.051859 -0.050122 0.051464 0.0050134 -0.025363 0.038681 0.018398 0.016109 0.022264 -0.046769 0.013691 -0.041401 -0.0059736 0.062989 -0.018894 0.0060917 -0.035789 -0.074432 0.034837 -0.012853 0.01101 -0.021956 -0.085821 0.020874 0.020132 0.045406 0.0088937 
传 -0.06098 0.20418 0.15326 0.12964 -0.39998 0.19878 0.11021 -0.16855 0.17933 0.040083 0.095121 0.043258 -0.14456 0.12657 -0.27694 0.094306 0.249 -0.11029 -0.031013 -0.11043 -0.56179 0.28 0.0014051 0.088681 -0.014423 -0.47008 0.14373 0.11244 0.071216 -0.10792 
都 -0.042632 0.042365 0.072774 0.018984 -0.15014 0.089228 0.013684 -0.082168 0.050392 -0.014688 0.0063495 -0.015172 -0.066354 0.033721 -0.12014 0.0064514 0.095082 -0.014194 0.0086046 -0.039774 -0.18507 0.096965 -0.021419 0.012225 -0.030823 -0.16818 0.02563 0.034056 0.0065213 -0.042583 
要 -0.017928 -0.0041415 -0.017785 0.0070065 0.0011987 -0.014373 0.019764 0.002643 -0.0091614 0.014213 0.017488 0.0023242 -0.01356 -0.015364 -0.010224 0.0046171 0.0080414 -0.00020227 0.021149 0.010517 -0.0097778 -0.015027 0.023318 -0.025766 0.021502 -0.0097206 0.013898 -0.0027359 -0.00034623 -0.0050021 
关 -0.026017 0.10054 0.083864 0.050259 -0.22001 0.10357 0.052861 -0.069103 0.1267 0.028053 0.012155 0.022335 -0.089936 0.08053 -0.17519 0.038887 0.1092 -0.040496 -0.058079 -0.071056 -0.27992 0.17503 -0.0069738 0.066175 -0.010016 -0.254 0.091733 0.057589 0.061965 -0.056396 
查 0.058956 -0.10311 -0.083039 -0.052739 0.21893 -0.094476 -0.049244 0.1119 -0.12303 -0.017944 -0.034451 -0.047269 0.096663 -0.084098 0.12989 -0.03936 -0.14589 0.044573 0.0014889 0.042235 0.2906 -0.1637 -0.0038273 -0.051685 0.025962 0.24206 -0.10274 -0.065774 -0.050406 0.032598 
武 -0.0076594 0.014193 0.01842 0.0070144 -0.035889 0.028938 -0.0055824 0.00070345 0.019286 0.017864 0.01471 0.0033162 -0.014732 0.01208 -0.03035 0.021025 0.01706 -0.012567 0.006024 -0.008985 -0.034126 0.02253 0.0095278 0.005943 -0.0062045 -0.027432 0.017641 0.019484 0.003419 -0.01892 
信 -0.020825 0.061417 0.038794 0.040381 -0.10981 0.041289 0.018037 -0.035996 0.042607 0.016741 0.018482 0.015272 -0.027735 0.035519 -0.04592 0.021055 0.070808 -0.023874 -0.024927 -0.0048577 -0.13408 0.067634 -0.011006 0.020542 -0.0062232 -0.10441 0.01887 0.017683 0.033059 -0.02172 
益 0.031689 -0.030467 -0.033977 -0.023769 0.083462 -0.02759 -0.0028498 0.029239 -0.046476 -0.01097 -0.017973 -0.011054 0.030871 -0.016281 0.056885 -0.037183 -0.054861 0.011865 0.01829 0.014913 0.10044 -0.068755 -0.0090965 -0.035363 0.014309 0.097439 -0.047931 -0.037748 -0.0347 0.015591 
每 -0.021668 0.056395 0.052035 0.054115 -0.11887 0.058271 0.042936 -0.069638 0.053546 0.026629 0.025865 0.026265 -0.063787 0.040506 -0.071331 0.034813 0.045746 -0.027309 -0.034677 -0.017413 -0.15433 0.085889 0.005269 0.027709 0.0094967 -0.13063 0.045906 0.018249 0.039714 -0.027189 
小 -0.019904 0.0547 0.014737 0.053535 -0.10304 0.010777 0.013837 -0.028246 0.051699 0.0068201 -0.0020118 -0.015837 -0.02612 0.029372 -0.069948 0.026576 0.071581 -0.0053984 0.0029524 -0.012945 -0.10706 0.066456 0.0040169 0.026822 -0.027939 -0.068299 0.031054 0.015896 0.015113 -0.012312 
; -0.042443 0.076072 0.048559 0.07279 -0.16012 0.071496 0.038081 -0.081154 0.055106 0.044597 0.022845 0.0072604 -0.054481 0.055498 -0.1151 0.011197 0.1169 -0.031216 0.0055516 -0.054208 -0.2099 0.11568 -0.021683 0.033085 -0.013578 -0.1857 0.05707 0.031906 0.043702 -0.048126 
为 -0.066723 0.09998 0.096852 0.077497 -0.22756 0.09268 0.020514 -0.064832 0.095301 0.034182 0.069255 -0.0019351 -0.085443 0.049344 -0.11943 0.049101 0.11908 -0.014638 -0.043029 -0.058415 -0.26361 0.16332 0.0061146 0.03397 -0.014265 -0.24208 0.094626 0.030369 0.05223 -0.066809 
三 0.0064817 0.0089648 0.0053467 0.0080134 -0.019555 0.007561 0.0023916 -0.011445 0.025517 0.014384 -0.0036662 0.013035 -0.00083677 0.011948 -0.0061222 -0.005088 0.0099888 -0.014671 -0.00049056 0.0018717 -0.018425 -0.0022285 0.0099444 -0.0024939 -0.020945 -0.019777 0.010898 0.0091572 -0.0039394 -0.013366 
川 -0.0028558 -0.0010197 -0.01058 0.014392 -0.048886 -0.0049379 0.018133 0.019277 0.017034 0.025787 -0.0028536 0.017947 -0.019187 0.002847 0.0023238 0.0097032 -0.010287 0.022766 0.023994 -0.005306 -0.051336 -0.01764 0.014505 -0.0053767 -0.0072545 -0.055233 -0.018802 0.03614 0.02966 0.0081447 
长 -0.03121 0.049689 0.046831 0.045816 -0.14152 0.087974 0.030952 -0.052152 0.065735 0.020622 -0.0011247 0.0040823 -0.058648 0.044513 -0.098477 0.019924 0.074402 -0.025932 -0.047858 -0.03442 -0.18421 0.098466 0.010576 0.032364 -0.0054301 -0.14758 0.060251 0.05316 0.032169 -0.021263 
好 -0.02428 0.041953 0.044864 0.055199 -0.076582 0.030936 0.013858 -0.027697 0.022604 0.026787 -0.0034187 -0.0089528 -0.039032 0.043514 -0.031576 0.024936 0.028935 -0.028196 0.010575 -0.020655 -0.091727 0.0347 -0.0031165 0.023118 -0.024414 -0.10297 0.045438 0.010002 0.020694 -0.041335 
帮 0.0050551 -0.036005 -0.053363 -0.058583 0.14012 -0.075186 -0.028993 0.042887 -0.055637 -0.010418 -0.0054443 0.0077566 0.054082 -0.031454 0.087388 -0.0061278 -0.08061 0.049164 0.0059507 0.023765 0.18861 -0.11049 -0.0053867 -0.019222 0.0064111 0.15129 -0.025429 -0.012578 -0.028179 0.027029 
6 -0.022669 0.031518 0.036052 0.026417 -0.11623 0.057195 0.030884 -0.067453 0.063039 0.0021787 0.046863 0.0062654 -0.053168 0.027818 -0.088347 0.039358 0.094607 -0.014302 -0.022718 -0.01905 -0.16344 0.096335 0.023488 0.034949 -0.010778 -0.13099 0.02619 0.045609 0.010642 -0.042935 
济 0.022106 -0.02832 -0.024677 -0.019996 0.077483 -0.019592 -0.027873 0.033549 -0.029196 -0.0053707 -0.015976 -0.0015529 0.034594 -0.029352 0.036891 -0.006364 -0.017328 -0.0054513 -0.0039135 0.036824 0.066353 -0.067168 0.01539 -0.03253 0.0069029 0.040099 -0.017313 -0.031651 -0.0099489 0.0048514 
高 -0.027181 0.078083 0.037316 0.035347 -0.12689 0.075712 0.010895 -0.069545 0.074826 0.025032 0.019384 -0.00063898 -0.071432 0.033476 -0.10672 0.056071 0.093582 -0.046522 -0.01145 -0.022414 -0.16945 0.098652 -0.028243 0.061751 -0.0098061 -0.15222 0.033361 0.037043 0.022079 -0.036873 
体 -0.0031578 0.0096386 0.030598 0.0050262 -0.024856 0.0064807 0.013329 -0.0097231 0.030631 0.006867 0.0060738 0.0018974 -0.022983 0.01525 -0.010977 0.011366 0.0041842 -0.021031 0.0050012 0.011104 -0.024099 0.021442 -0.0016617 0.012284 -0.0039559 -0.037911 0.017027 -0.0077289 0.01083 -0.0009779 
育 0.0075094 -0.039991 -0.039403 -0.012334 0.028119 -0.011267 0.002292 0.0030713 -0.025334 0.0016459 0.0031348 -0.011411 0.022696 -0.0056515 0.010135 -0.0070952 -0.018045 0.0061439 -0.0056471 0.014344 0.051976 -0.0075753 0.0031988 -0.011438 0.0052388 0.045843 -0.02166 -0.019937 -0.013102 0.0070865 
林 0.0095618 0.004891 -0.0038918 0.0097833 -0.009001 0.0058916 -0.0039338 -0.021045 0.016205 0.00062095 -0.0036261 -0.013192 -0.0057552 0.0043785 -0.0045878 -0.0056915 0.0090409 0.012025 -0.011663 -0.0012889 -0.0022551 0.010447 -0.014968 0.0082357 0.0094934 -0.0085829 -0.014464 0.0070859 -0.016919 -0.011568 
知 -0.012505 0.0085601 -0.012827 0.010804 -0.021258 0.020269 0.00092274 -0.017223 0.034259 0.016254 0.004088 0.015859 -0.0094901 0.0089258 -0.01616 0.021098 0.030131 -0.027412 0.0064798 -0.010523 -0.03948 0.026792 3.6211e-05 0.025152 -0.015376 -0.036189 0.03606 0.011831 0.018643 -0.0045422 
际 0.0022153 -0.020612 -0.011118 -0.025539 0.039284 -0.0054959 0.004399 0.0018171 -0.03341 0.0068812 -0.032696 -0.00043364 0.016948 0.00093405 0.028574 -0.021169 -0.016657 0.0068863 0.0033601 0.0072432 0.03707 -0.032297 -0.023644 -0.0058728 0.00418 0.03944 -0.0094049 -0.0062899 -0.00043844 -0.016929 
财 -0.0092913 0.067291 0.038335 0.042703 -0.10418 0.027697 0.0033301 -0.045539 0.050898 0.03292 0.019062 0.017372 -0.021312 0.0062158 -0.074995 0.016254 0.044798 -0.012177 -0.023348 -0.019548 -0.14176 0.0727 -0.014345 0.012558 -0.02869 -0.098256 0.060121 0.013179 0.0042678 0.0012104 
民 -0.00909 0.0048773 0.03308 0.005488 -0.030075 0.015793 0.00331 -0.022743 0.012202 0.0065356 0.015294 0.012713 -0.0068569 0.018019 -0.037184 -0.0069105 0.022408 -0.0039458 -0.019465 -2.0821e-05 -0.042292 0.018675 0.013471 0.0084424 -0.021607 -0.013907 0.0024614 -0.0053706 -0.0075627 -0.0062368 
文 -0.010493 0.044936 0.03814 0.01731 -0.07629 0.029777 0.019963 -0.026638 0.015932 0.009772 0.016053 0.004461 -0.028311 0.015022 -0.026309 0.028617 0.033621 -0.030258 -0.024652 -0.0023025 -0.070077 0.048543 0.019774 0.014449 -0.012113 -0.072109 0.019321 0.0048489 0.017016 -0.017831 
房 -0.016433 -0.0039755 0.016692 -0.020711 0.021434 0.019308 -0.014444 -0.0087227 0.0061766 0.029221 0.029192 0.02884 -0.02804 -0.011425 0.020326 -0.014866 0.00064839 0.011698 -0.017967 -0.018187 0.022781 -0.011301 0.0067051 -0.023707 0.0020656 0.011702 0.02458 0.033717 -0.0078543 0.031743 
湖 -0.0067673 0.02846 -0.010187 0.0035572 -0.003218 -0.0025971 0.0073013 0.014325 -0.0044651 -0.01333 0.0081559 0.021651 -0.028045 -0.004103 0.018793 0.0033146 0.01737 -0.0040222 0.0046512 -0.0010608 -0.01362 0.013738 -0.0090994 -0.01608 0.016343 0.0007354 0.032864 -0.004406 0.0087946 -0.0001946 
产 0.0033746 0.00074897 -0.0173 -0.016273 0.039137 -0.021451 -0.0016391 0.0098588 -0.0051479 -0.032473 -0.021566 0.0013902 0.0073965 -0.027973 0.025492 -0.029125 -0.045757 0.0072398 -0.0072848 0.011044 0.044027 -0.018762 -0.0057487 -0.014966 0.011506 0.030719 0.011403 -0.0023604 -0.0098704 0.0051439 
. -0.033901 0.070997 0.038998 0.072763 -0.14795 0.043073 0.018868 -0.066992 0.099367 0.017673 0.044679 0.0018604 -0.062249 0.03841 -0.092545 0.04617 0.084324 -0.022425 0.003075 -0.042166 -0.17246 0.12478 -0.022599 0.035588 -0.018709 -0.1605 0.040829 0.034937 0.02265 0.00062265 
能 0.006197 -0.0010154 0.012881 0.0053618 0.0073664 0.0016368 -0.01426 0.0063423 -0.011432 -0.0064364 -0.00028935 0.00060328 -0.001468 -0.0078447 0.014543 -0.006051 -0.013586 -0.0041644 -0.0038658 0.0032219 0.012947 -0.023949 0.012714 0.014749 -7.1527e-05 0.016913 -0.0096564 -0.0053904 0.0080067 0.015114 
如 -0.027558 0.03813 0.041465 0.040238 -0.10675 0.035112 0.012427 -0.047023 0.055226 0.016202 0.020129 0.010329 -0.04872 0.029269 -0.07852 0.026352 0.072495 -0.024281 -0.0097254 -0.0090544 -0.12973 0.093892 0.0097655 0.028113 -0.021352 -0.10755 0.044636 0.038085 0.01566 -0.0084788 
教 0.0054242 -0.033539 -0.05965 -0.015653 0.07647 -0.0222 -0.017085 0.031596 -0.040659 -0.031046 -0.0039482 -0.011203 0.021179 -0.02529 0.054286 -0.02346 -0.064691 0.024555 0.026755 0.031633 0.097009 -0.059621 0.0060119 -0.03608 0.011695 0.087196 -0.043775 0.0076298 -0.033062 0.009183 
水 -0.021677 0.038871 0.030131 0.0058852 -0.062801 0.033265 0.017103 -0.048608 0.060907 0.031361 0.021143 0.0078324 -0.033483 0.023824 -0.048112 -0.0033519 0.035965 -0.03471 0.0018238 -0.021209 -0.097995 0.06097 0.0011724 0.039864 0.00059379 -0.10075 0.026054 0.014343 0.027131 -0.0089099 
号 -0.046018 0.08156 0.081004 0.052752 -0.18653 0.096637 0.027429 -0.070543 0.10393 0.032459 0.033474 0.017692 -0.072756 0.034137 -0.11937 0.031625 0.11749 -0.04121 -0.027005 -0.032702 -0.24424 0.11508 0.0096592 0.042375 -0.0052874 -0.20187 0.066016 0.039515 0.055726 -0.056819 
定 -0.053553 0.040005 0.054583 0.075403 -0.17535 0.064217 0.02166 -0.038393 0.048652 0.039891 0.04741 -0.0042322 -0.066833 0.041902 -0.11273 0.0082534 0.064365 -0.038159 -0.046994 -0.0099034 -0.17783 0.078511 0.01951 0.0088329 -0.027906 -0.14733 0.047903 0.0079512 0.0013028 -0.033657 
3 -0.022604 0.028154 0.034726 0.04533 -0.097071 0.045118 0.024321 -0.036646 0.060127 -0.0030947 0.021957 0.020525 -0.012173 0.031494 -0.087693 0.031412 0.029464 -0.040566 -0.013583 -0.0014562 -0.11047 0.072027 0.0026842 0.018469 -0.027397 -0.094077 0.049014 0.023383 -0.0055351 -0.024133 
综 -0.003331 0.0015888 -0.0038126 -0.0087267 0.0071346 -0.0043172 0.021341 0.011113 0.010626 -0.0043899 0.0065656 -0.007924 -0.024132 -0.017068 -0.00040212 0.0058252 0.0019984 0.021899 -0.0077507 0.0065054 -0.018812 0.0042302 0.0065355 -0.0049761 6.1896e-05 -0.00035541 -0.012216 -0.0081684 -0.0089557 -0.01208 
哥 -0.009792 0.011162 0.0029311 0.024521 -0.041775 0.018058 -0.0092707 -0.029231 0.013641 -0.019132 0.029423 0.018037 -0.0076468 0.00056881 -0.045715 -0.021829 0.016991 -0.029768 -0.0096309 -0.0061981 -0.026366 0.05506 0.017122 -0.011418 -0.014661 -0.020988 -0.008579 0.0045228 0.022531 0.0046747 
镇 -0.0046866 0.037103 0.022683 0.029217 -0.044728 0.026014 0.019539 -0.018812 0.038015 0.018848 0.015766 -0.0049744 -0.034523 0.018272 -0.044216 0.024363 0.028301 -0.008158 -0.019119 -0.019609 -0.083386 0.039838 0.0034721 0.005934 -0.024043 -0.081151 0.0069014 0.032391 0.031007 -0.0021494 
怎 -0.024544 0.048998 0.031176 0.034153 -0.084337 0.023406 0.016918 -0.052257 0.062881 0.014853 0.025791 0.013353 -0.029215 0.017979 -0.077824 0.032297 0.058581 -0.018624 -0.0069729 -0.015719 -0.13538 0.060817 -0.014895 0.043287 -0.027858 -0.11417 0.050789 0.037674 0.014076 -0.012305 
地 -0.011139 0.049027 0.064198 0.03456 -0.16505 0.037224 0.038403 -0.041598 0.063246 0.020246 0.0090882 0.0077632 -0.061643 0.049032 -0.1017 0.055007 0.058912 -0.033405 -0.020519 -0.028303 -0.18731 0.081741 -0.0060797 0.030871 -0.0088935 -0.15858 0.083133 0.035487 0.0074058 -0.018233 
和 -0.049156 0.067231 0.080019 0.0378 -0.21842 0.062693 0.031043 -0.054748 0.12263 0.0205 0.054298 0.0049053 -0.070744 0.033191 -0.12108 0.036745 0.099479 -0.068305 -0.039812 -0.053628 -0.27237 0.12519 0.00019217 0.03534 -0.036694 -0.22464 0.078465 0.030766 0.05039 -0.040992 
分 -0.035197 0.042487 0.063703 0.045316 -0.13253 0.035524 0.024966 -0.051457 0.068564 -0.0042607 0.032733 0.027148 -0.034518 0.057863 -0.10226 0.037198 0.056719 -0.023299 -0.043845 -0.033573 -0.1353 0.074032 -0.0053955 0.040178 0.0090236 -0.14972 0.064652 0.030741 0.016537 -0.031346 
则 0.0072574 -0.0654 -0.042066 -0.044722 0.15636 -0.064135 -0.03367 0.076763 -0.075582 -0.005335 -0.03051 -0.008828 0.066216 -0.031086 0.1094 -0.045264 -0.093802 0.032129 0.027039 0.023492 0.21025 -0.12963 -0.011632 -0.040154 0.019505 0.17901 -0.044553 -0.030247 -0.031871 0.037276 
月 -0.025157 0.017159 0.022851 0.024003 -0.075886 0.0073367 0.020172 -0.019992 0.021167 0.00029911 0.015195 0.012594 -0.041194 0.020263 -0.047897 0.025981 0.03069 -0.013705 -0.0067871 -0.022526 -0.088223 0.061259 0.0079595 0.012404 0.0036221 -0.078546 0.025985 0.023191 0.0091443 -0.014772 
几 0.064548 -0.15699 -0.12688 -0.089432 0.26336 -0.14455 -0.05962 0.12149 -0.12155 -0.029514 -0.02527 -0.034867 0.093069 -0.058588 0.21357 -0.084198 -0.17609 0.035477 0.02313 0.024005 0.35702 -0.19231 -0.019178 -0.064068 0.015289 0.29918 -0.13159 -0.093818 -0.068513 0.090961 
游 0.013689 -0.030019 -0.0186 -0.010747 0.038397 -0.0099137 -0.019417 0.014211 -0.027154 -0.0023979 -0.004145 0.003244 0.0064489 -0.015986 0.04396 0.0013698 -0.026029 -0.0075656 0.018045 -0.005504 0.04756 -0.021129 -0.0067839 -0.015793 0.02066 0.040004 -0.028023 -0.017232 -8.4166e-05 0.0083979 
法 0.021318 -0.025726 0.01294 0.021508 0.060063 0.0017481 0.010468 0.0094273 -0.013747 -0.0038813 -0.0097156 0.022606 -0.0047023 -0.0086557 -0.0056443 0.0077397 -1.4363e-05 0.029034 0.027922 0.0097691 0.032598 -0.019115 0.019289 0.01667 0.03363 0.0053718 -0.025086 -0.030907 -0.015598 -0.0076866 
金 -0.033032 0.081173 0.061484 0.077569 -0.17061 0.071992 0.0090583 -0.075928 0.067012 0.034581 0.044425 -0.0044654 -0.06108 0.053706 -0.1185 0.040809 0.099013 -0.033977 -0.024788 -0.043773 -0.25085 0.12477 0.0046046 0.044618 -0.029617 -0.18708 0.062497 0.045846 0.048222 -0.040464 
龙 -0.01059 0.036296 0.032191 0.044893 -0.082042 0.025146 0.011811 -0.032144 0.04976 0.01132 -0.0022779 0.0056944 -0.023604 0.020642 -0.039544 0.022142 0.031924 -0.0311 -0.011807 -0.022877 -0.099337 0.045514 0.0034152 0.016015 -0.022716 -0.088525 0.03725 0.020849 0.025515 -0.010033 
区 -0.028772 0.040332 0.031005 0.038342 -0.069938 0.02935 0.024143 -0.032127 0.040295 0.015462 0.0061605 0.026714 -0.033333 0.022513 -0.036142 0.015804 0.05632 -0.0098295 -0.023028 -0.0022778 -0.10624 0.078894 -0.0042626 0.019742 -0.0089568 -0.097388 0.050937 0.0019108 0.032009 -0.03574 
出 -0.064859 0.11855 0.10237 0.080591 -0.23675 0.12632 0.059182 -0.089941 0.13689 0.033793 0.032661 0.038095 -0.12366 0.10202 -0.17457 0.048885 0.14007 -0.04567 -0.041732 -0.035119 -0.35047 0.18164 0.010207 0.048053 -0.027556 -0.30715 0.093727 0.049928 0.06814 -0.043635 
真 -0.016927 0.056195 0.046735 0.037941 -0.10811 0.039048 0.013588 -0.045887 0.042945 0.0036577 0.014068 0.0060781 -0.034621 0.037926 -0.058245 0.011032 0.052351 -0.012853 0.011585 -0.0014363 -0.12457 0.073122 -0.0063431 0.031181 0.0042785 -0.099301 0.04463 0.018519 0.026508 -0.030816 
子 -0.016936 0.052243 0.033209 0.03598 -0.13257 0.06528 0.028103 -0.038836 0.044136 0.014421 0.024546 0.02478 -0.049803 0.015995 -0.080803 0.037409 0.069189 -0.0049503 0.0046149 -0.021774 -0.15715 0.08857 0.0010846 0.034457 -0.0022905 -0.12618 0.053794 0.022792 0.027472 -0.030264 
心 -0.02814 0.064433 0.077052 0.065206 -0.14284 0.07578 0.026233 -0.067507 0.075848 0.023914 0.023866 0.0058886 -0.064323 0.045626 -0.10833 0.033336 0.094441 -0.046106 -0.013622 -0.024007 -0.19637 0.12164 -0.0030938 0.035661 -0.0090228 -0.1762 0.065517 0.035107 0.044768 -0.021493 
调 0.0064487 -0.025113 -0.040495 -0.02375 0.061329 -0.025008 -0.019736 0.029081 -0.029704 0.0083599 -0.029707 -0.026598 0.044597 -0.031618 0.038669 -0.017645 -0.02713 -0.0076943 0.0057339 -0.0067735 0.066727 -0.04671 -0.0011358 -0.034867 0.0018504 0.042148 -0.011095 -0.0082023 -0.002273 0.025968 
球 0.0062459 -0.009242 -0.0071186 0.002865 0.00058026 -0.014253 0.00086885 0.0079229 -0.015099 0.016334 -0.0082237 0.0058011 -0.0062665 0.00030793 0.0093748 0.0054485 -0.016284 0.001931 -0.011342 -0.0090784 0.011932 0.0010628 0.013438 -0.028969 -0.014281 0.019968 -0.0038972 -0.011415 0.0064297 0.0048314 
多 -0.037383 0.12776 0.085486 0.059897 -0.26798 0.094584 0.047124 -0.077068 0.10819 0.012215 0.019382 0.0090008 -0.088678 0.043418 -0.18107 0.059369 0.12828 -0.047593 -0.014761 -0.041551 -0.32886 0.15332 -0.026533 0.045995 -0.037649 -0.25965 0.094058 0.05307 0.085082 -0.033575 
何 -0.030831 0.10983 0.092927 0.043359 -0.17952 0.097245 0.048621 -0.081564 0.095915 0.029811 0.045229 0.021823 -0.068107 0.050332 -0.1088 0.039512 0.11712 -0.039443 -0.031264 -0.027799 -0.23877 0.13748 -0.011677 0.041295 -0.033103 -0.18995 0.075064 0.056218 0.050108 -0.046755 
汉 -0.0060181 0.027234 0.048504 0.05224 -0.11587 0.023485 0.0064414 -0.010221 0.075908 0.0023957 0.045211 -0.0051325 -0.041993 0.025358 -0.051125 0.049657 0.091485 -0.038611 -0.019687 -0.029916 -0.10893 0.087335 -0.014121 -0.0047718 -0.012685 -0.10685 0.068353 0.023179 0.043863 -0.037695 
社 -0.0029892 -0.013231 0.00090958 0.008318 -0.0048917 -0.014756 0.0035823 -0.01485 0.0035732 -0.018436 0.012023 0.011952 0.0025737 0.00067623 0.01393 -0.0045887 -0.013826 0.0028962 0.012076 0.016633 0.018601 -0.003102 -0.0074639 0.0051567 -0.0069377 0.026976 -0.018642 -0.00098349 -0.0029076 -0.0015696 
京 0.033148 -0.0005039 0.018603 0.017414 -0.019824 -0.024161 -0.010025 0.0078019 0.017118 0.029931 -0.029396 0.014661 0.020928 0.028528 0.033548 -0.034633 -0.01788 0.0038037 -0.019418 -0.018681 0.018016 -0.029654 0.012405 0.021934 0.01859 0.033581 -0.021111 -0.015812 0.0065993 0.018365 
自 -0.018981 0.044031 0.061792 0.041276 -0.11976 0.046553 0.026212 -0.023277 0.053395 0.020407 0.032166 0.0072683 -0.035489 0.045235 -0.076465 0.019299 0.061275 -0.029322 -0.0083737 -0.01476 -0.14914 0.083675 -0.0057314 0.038709 -0.018288 -0.11652 0.040956 0.020145 0.03272 -0.036364 
9 -0.01918 0.052912 0.059372 0.056935 -0.11929 0.049277 0.0061006 -0.062112 0.055743 0.019169 0.019355 0.011231 -0.049408 0.070306 -0.10096 0.04371 0.086129 -0.047556 -0.022221 -0.027975 -0.16335 0.092105 -0.010678 0.047528 -0.0074954 -0.15042 0.031183 0.041274 0.0046975 -0.042897 
方 -0.060188 0.13623 0.088568 0.11209 -0.29124 0.14525 0.067083 -0.13262 0.12775 0.010481 0.050671 0.03062 -0.094167 0.049803 -0.21377 0.045704 0.13033 -0.035793 -0.047887 -0.051729 -0.36053 0.1945 -0.029439 0.047998 -0.021426 -0.29799 0.096286 0.045124 0.093271 -0.058921 
8 0.005717 0.0039004 0.011629 -0.01779 -0.0056583 0.011633 0.012643 0.020321 -0.0010144 0.0086327 0.0017848 -0.0031962 0.0066193 0.01 0.0039874 0.0032023 0.00074002 -0.022938 0.012982 0.020103 -0.028714 -0.021873 0.0050777 0.019506 0.0036931 -0.017281 0.0043979 0.020224 0.020415 -0.0057835 
之 0.042373 -0.11243 -0.083732 -0.054934 0.24158 -0.098235 -0.046483 0.12399 -0.10557 -0.034352 -0.056035 -0.015694 0.10151 -0.086087 0.17564 -0.082502 -0.16264 0.041433 0.053821 0.050873 0.2998 -0.16437 0.010841 -0.044251 0.035771 0.29058 -0.10654 -0.078001 -0.051519 0.032126 
门 -0.0086515 0.0095303 0.016823 0.020218 -0.043891 0.0068114 0.0056866 -0.0076347 0.012392 -0.0018472 0.007076 0.0068908 -0.0079719 0.032713 -0.039688 0.03168 0.011417 0.0058073 -0.021902 -0.012939 -0.045916 0.030332 -0.0040912 0.0099651 0.0010743 -0.054921 0.034674 0.0036686 0.020236 -0.0062329 
女 -0.028716 0.07028 0.051847 0.043742 -0.13572 0.061151 0.013458 -0.028804 0.066492 0.042111 0.026297 0.026128 -0.058878 0.039405 -0.0688 0.037154 0.097538 -0.030228 -0.031245 -0.035268 -0.17697 0.08489 0.0015104 0.047113 -0.0034329 -0.13186 0.040589 0.013786 0.028855 -0.031499 
考 -0.048119 0.086693 0.092899 0.073509 -0.17101 0.090026 0.038194 -0.041775 0.075585 -0.0017625 0.048063 0.0058275 -0.05378 0.085803 -0.14279 0.034913 0.12817 -0.0071903 -0.046825 -0.042582 -0.22286 0.10138 0.017575 0.017548 0.014151 -0.21614 0.05097 0.067799 0.017219 -0.056618 
间 -0.035815 0.034503 0.05309 0.038297 -0.10403 0.036623 0.028938 -0.076605 0.047943 0.023348 0.040008 0.017457 -0.042203 0.029766 -0.095753 0.036798 0.066925 -0.017547 -0.012838 -0.025302 -0.16899 0.07976 -0.0018379 0.023909 -0.028846 -0.1298 0.072169 0.023178 0.036982 -0.046288 
让 0.0022505 -0.044855 -0.012328 -0.020183 0.034794 -0.02898 -0.01266 0.015175 -0.029288 -0.016647 -0.025269 -0.0078372 0.022015 -0.011664 0.022164 -0.018655 -0.022014 0.0049481 -0.013664 0.025808 0.051736 -0.032144 -0.0014152 -0.022095 -0.0037713 0.048025 -0.012521 -0.015509 -0.018052 0.015332 
娱 0.010639 -0.009416 -0.015354 -0.0026202 0.041002 -0.020496 0.017417 0.016353 -0.014216 -0.013555 -0.014434 0.00031818 -0.0011458 0.0041322 0.022752 -0.0049468 -0.0057577 0.0011845 0.0051715 0.0073297 0.044078 -0.020854 0.0019072 -0.012195 0.0056038 0.023928 -0.020868 0.0014015 -0.0025116 0.010774 
吧 0.023695 -0.065846 -0.059832 -0.050718 0.12521 -0.033333 -0.021405 0.039328 -0.07251 -0.034042 -0.01277 -0.015708 0.07971 -0.058244 0.11423 -0.03243 -0.07337 0.017333 0.034462 0.02089 0.20245 -0.10306 0.0081515 -0.021601 0.020744 0.16685 -0.061561 -0.027 -0.00048709 0.034071 
作 -0.028971 0.04661 0.035121 0.020949 -0.060968 0.020474 0.0015754 -0.019079 0.024828 -0.001175 0.016771 0.018522 -0.041663 0.030804 -0.046848 0.020074 0.056138 -0.034008 -0.011139 -0.0059087 -0.089116 0.038987 -0.022724 0.027109 -0.0035438 -0.069203 0.011058 0.0053822 0.010189 -0.0082025 
正 -0.017324 0.031521 0.03318 0.017992 -0.086866 0.040825 0.0062992 -0.032596 0.048947 0.015822 0.0179 0.019602 -0.040875 0.024527 -0.051464 0.012746 0.060715 -0.013205 -0.024952 -0.018318 -0.077472 0.057481 -0.020571 0.013856 -0.0057555 -0.08721 0.026818 0.020932 0.013576 -0.0025028 
/ -0.067612 0.20575 0.17 0.15509 -0.39074 0.17402 0.1018 -0.16137 0.20234 0.058005 0.094844 0.077145 -0.15634 0.1152 -0.26501 0.10329 0.21608 -0.098479 -0.058837 -0.049455 -0.48764 0.28365 -0.027941 0.090445 -0.041967 -0.42193 0.15188 0.095373 0.097949 -0.064285 
重 0.011648 -0.016155 -0.0025884 -0.004092 0.019358 -0.014692 0.0029966 0.00039011 0.0041521 -0.0087025 -0.0037774 0.013969 0.0030136 0.013747 -0.01038 0.0056571 -0.022176 -0.011384 -0.0073486 0.014776 0.012503 -0.012035 0.0045943 0.0022913 -0.012147 0.0096639 -0.016311 0.018335 -0.0097105 0.014231 
找 0.042637 -0.077378 -0.064937 -0.054873 0.1571 -0.077399 -0.02721 0.071686 -0.070336 -0.017172 -0.03535 -0.014025 0.063789 -0.041047 0.093044 -0.036556 -0.10758 0.036749 0.016782 0.027814 0.20413 -0.091916 -0.010324 -0.021201 -0.0010383 0.15631 -0.059741 -0.042695 -0.035585 0.035881 
到 -0.018231 -0.025861 -0.0031231 0.028242 -0.011797 -0.026909 0.0011085 -0.027472 -0.0062507 -0.0013261 0.0003107 -0.030759 0.020611 0.0056421 -0.016978 0.027536 -0.01327 0.023351 0.00041849 0.011949 -0.043685 0.022634 0.020556 -0.019873 0.004919 -0.037715 0.025439 -0.016435 -0.025257 0.026679 
华 -0.034331 0.075323 0.084417 0.074425 -0.18065 0.099784 0.0049295 -0.04622 0.087387 0.021631 0.041723 0.015855 -0.074223 0.054414 -0.1186 0.055489 0.11909 -0.026403 -0.009057 -0.040998 -0.22005 0.15467 0.025054 0.041636 -0.0055624 -0.20233 0.092343 0.023927 0.047602 -0.056903 
英 -0.0091282 0.053974 0.030127 0.025144 -0.063159 0.017333 0.0090172 -0.047014 0.055877 0.0033161 0.023246 0.0022988 -0.031559 0.0099186 -0.0742 0.025038 0.046228 -0.020768 -0.033138 -0.029367 -0.094691 0.057334 -0.0041678 -0.0077713 -0.030082 -0.077175 0.024106 0.031136 0.0048783 -0.018251 
注 -0.02034 0.056633 0.026254 0.035716 -0.068457 0.015112 0.010932 -0.019689 0.044038 -0.0036643 -0.00062145 -0.0001631 -0.012447 0.0046045 -0.071978 0.0068043 0.04018 -0.023558 0.017362 -0.0042802 -0.10402 0.05051 -0.010025 0.0084318 0.016013 -0.07601 0.033125 0.036194 0.00098484 -0.044633 
理 0.0060127 0.037255 0.014559 0.0075597 -0.065268 0.03281 0.031246 -0.025687 0.029593 0.019961 0.013249 0.0035744 -0.027123 0.032834 -0.047002 0.013815 0.035082 0.0079251 -0.0010962 -0.0094285 -0.074081 0.036259 0.018668 0.012654 -0.0029125 -0.062514 0.028192 0.015604 0.0032694 -0.025468 
餐 0.009443 0.014104 0.015333 -0.0068023 -0.05043 0.0094145 0.0089547 -0.0022835 -0.002526 0.0058037 0.019021 0.0037032 -0.016389 -0.015116 -0.047194 0.017758 0.014415 -0.0042283 -0.0037057 -0.0075039 -0.054047 0.025254 0.00018783 0.0034737 0.0034691 -0.029062 0.023036 -0.015437 0.023643 0.014095 
化 -0.016219 0.093111 0.10595 0.1077 -0.21491 0.086779 0.060639 -0.069783 0.1163 0.037847 0.031776 0.059285 -0.071837 0.049218 -0.12605 0.057258 0.11417 -0.02034 -0.04023 -0.035089 -0.27469 0.13908 0.015889 0.057511 -0.012024 -0.27364 0.11246 0.075518 0.065728 -0.072249 
建 0.0029427 -0.00677 0.014636 0.029057 0.026178 0.016286 0.0027939 -0.0063725 -0.0262 -0.021264 -0.0023507 0.025767 0.013545 -0.031422 0.029974 -0.0199 0.022951 0.024335 0.017288 0.0074435 0.010556 0.0054761 0.0077913 0.016552 0.019688 -0.016142 0.026651 -0.015843 -0.0098105 -0.020662 
昌 -0.031594 0.02584 0.044325 0.043113 -0.11723 0.04824 0.0057955 -0.049082 0.06607 0.00028355 0.017457 0.00021371 -0.026157 0.0063922 -0.066116 0.027815 0.075122 -0.002443 -0.014515 -0.041412 -0.12935 0.043359 0.016871 0.022589 -0.008497 -0.13046 0.036886 0.036783 0.024566 -0.020538 
件 0.022313 -0.077334 -0.035724 -0.023864 0.12619 -0.041306 -0.036063 0.036838 -0.062759 -0.031151 -0.022254 -0.015054 0.04372 -0.054167 0.077817 -0.0076418 -0.084719 0.039174 0.008674 0.0046219 0.15464 -0.092488 -0.012752 -0.035254 0.023133 0.12964 -0.033348 -0.05991 -0.020272 0.032737 
研 -0.012996 0.010465 0.013403 0.015853 -0.023846 0.0076 0.026303 -0.019584 0.015806 0.00038458 0.022887 -0.01435 -0.011644 0.011489 -0.0169 0.011775 0.023777 -0.0064482 -0.011728 -0.0074663 -0.032256 0.024269 -0.0049597 -0.0012086 0.0023501 -0.047637 0.0076002 -0.0023342 0.0029922 0.0085246 
十 -0.052666 0.082895 0.042333 0.084439 -0.17497 0.077331 0.027131 -0.057748 0.063527 0.0094271 0.051063 0.016079 -0.073824 0.044602 -0.10487 0.017012 0.084583 -0.026442 -0.032649 -0.018805 -0.20277 0.10181 -0.0034025 0.032123 -0.030305 -0.16729 0.082313 0.029499 0.026805 -0.018842 
工 -0.036292 0.11659 0.1163 0.10978 -0.30288 0.15146 0.089071 -0.12236 0.13002 0.042353 0.078731 0.06828 -0.12897 0.084791 -0.19421 0.072484 0.17737 -0.031341 -0.072912 -0.066299 -0.39737 0.25705 0.019505 0.098897 -0.0047789 -0.37693 0.12971 0.061539 0.091461 -0.064689 
! 0.017404 -0.061508 -0.06492 -0.043261 0.13382 -0.04154 -0.019768 0.067804 -0.052198 -0.028069 -0.054057 -0.029549 0.049725 -0.052631 0.082796 -0.013386 -0.089725 0.05196 0.02922 0.030323 0.1662 -0.097501 -0.00083831 -0.0089513 0.0056192 0.13463 -0.04491 -0.053228 -0.037929 0.02466 
凤 -0.0066588 0.039921 0.03389 0.012651 -0.11598 0.044495 0.019807 -0.014094 0.073359 0.0097397 0.016663 0.004272 -0.033583 0.044295 -0.057118 0.013767 0.061262 -0.017138 -0.034938 -0.023907 -0.10051 0.079872 -0.019972 0.033692 -0.024039 -0.097002 0.01955 0.014975 0.023515 -0.010723 
说 -0.029527 0.12379 0.085522 0.1044 -0.2351 0.10877 0.061423 -0.10698 0.11658 0.048866 0.037385 0.0093487 -0.10142 0.085276 -0.18074 0.083213 0.15547 -0.052014 -0.054808 -0.052069 -0.35709 0.19256 -0.022551 0.082035 -0.010169 -0.29236 0.10655 0.035144 0.054568 -0.050782 
临 -0.0036587 0.0015771 0.02387 0.011239 -0.038581 0.018972 0.016009 -0.015136 0.026258 -0.0028994 0.014597 0.0051145 -0.01932 0.028824 -0.025704 0.0023296 0.021264 -0.024683 -0.00059429 -0.020395 -0.057388 0.031518 0.00035202 0.0099171 -0.0042122 -0.046443 0.013625 0.029347 0.021044 -0.0011343 
赔 -0.0046892 0.025478 0.0058214 0.011862 -0.030973 0.0096878 -0.0064722 0.011454 0.010119 -0.0021249 0.0055899 0.0043799 -0.0016644 0.0056102 -0.0082597 0.0027649 0.031261 0.0095659 0.0052527 -0.008617 -0.038127 0.022021 -0.00017814 -0.017717 -0.013919 -0.0034726 0.01521 0.019373 0.0078429 -0.0089973 
保 -0.010496 -0.013344 -0.018435 0.00039937 -0.036987 0.0094238 0.0063553 -0.022853 0.041916 -0.01597 -0.020646 0.016819 -0.040196 0.020265 0.010038 0.027968 0.027035 -0.015434 0.0034576 -0.011816 -0.054967 0.01516 -0.016192 0.032195 0.026883 -0.042824 -0.0027472 0.024714 0.017501 0.022775 
B 0.035132 -0.043513 -0.045757 -0.034006 0.10866 -0.032532 -0.040338 0.022481 -0.045518 0.010397 0.0071309 -0.02518 0.049035 -0.020682 0.085806 -0.022111 -0.068378 0.0048784 0.011642 0.033842 0.15657 -0.067413 0.0269 -0.041378 0.0088792 0.095977 -0.034177 -0.024449 -0.031468 0.0021079 
可 -0.0095812 0.044324 0.034136 0.038881 -0.13455 0.06099 0.0053225 -0.032283 0.064535 0.010035 0.0087221 -0.0084004 -0.057403 0.015304 -0.078108 0.027067 0.069979 -0.043593 -0.023314 -0.037149 -0.18162 0.10433 -0.00161 0.022883 0.0077855 -0.13137 0.043652 0.031573 0.017702 -0.045469 
星 0.0055097 0.030468 0.027426 0.03145 -0.046796 0.036494 0.010809 -0.020693 0.015082 0.0022305 0.0087598 -0.009846 -0.024002 0.014002 -0.054321 0.0067483 0.038824 -0.015175 -0.018851 -0.023025 -0.053889 0.050515 -0.0026282 0.019368 0.0016414 -0.056541 0.041623 0.022888 0.0056986 -0.00045679 
没 -0.035674 0.065954 0.064004 0.037824 -0.16379 0.049512 0.031488 -0.060217 0.077263 0.0061984 0.048809 0.014262 -0.037778 0.035458 -0.079111 0.032808 0.10328 -0.021789 -0.018058 -0.020125 -0.17008 0.099293 -0.027091 0.051043 -0.00013475 -0.14849 0.070297 0.044939 0.042276 -0.036212 
与 0.0033596 0.020218 0.027367 0.01465 -0.049581 0.028321 0.024698 -0.0059296 0.023686 0.0032421 0.0063474 -0.00085188 -0.018729 0.023805 -0.025061 0.01909 0.012538 -0.017518 -0.013501 -0.0013106 -0.077682 0.020212 0.019985 0.0071909 -0.0076659 -0.062972 0.016364 0.029062 -0.00035286 -0.016873 
场 -0.073433 0.12418 0.086308 0.10705 -0.25343 0.10132 0.023037 -0.081754 0.10315 0.011605 0.039184 0.039073 -0.10764 0.10324 -0.15601 0.037472 0.16711 -0.065205 -0.055605 -0.018097 -0.32026 0.18125 0.010973 0.034568 -0.0060767 -0.23019 0.068828 0.08008 0.061836 -0.023104 
夜 -0.00052383 0.027041 0.040312 0.024888 -0.091901 0.033614 0.001745 -0.034383 0.032608 0.019661 0.017633 0.010956 -0.037772 0.011628 -0.056056 0.04016 0.028859 -0.029592 -0.0063916 -0.034788 -0.084772 0.06203 -0.01734 0.046341 -0.031621 -0.10122 0.039822 0.013792 0.0037845 -0.035692 
快 0.036032 -0.065915 -0.074741 -0.075628 0.19602 -0.09937 -0.031278 0.076121 -0.067003 -0.0014042 -0.027411 -0.0034883 0.081013 -0.074189 0.098369 -0.035372 -0.11974 0.041212 0.025293 0.027327 0.22059 -0.12589 0.016036 -0.060895 -0.008702 0.17686 -0.052947 -0.025044 -0.025298 0.046557 
兴 -0.013362 0.016734 0.0072742 0.011718 -0.021878 0.0044213 -0.0049057 0.0023343 0.017923 0.020356 -0.010278 -0.0065119 0.0025257 0.01112 -0.014141 0.010582 -0.0028285 0.0014311 -0.0023439 -0.00051376 -0.019129 0.023209 -0.00077916 0.0092067 -0.0044751 -0.034213 0.00091906 0.015561 -0.0047196 -0.0085379 
四 -0.0072671 0.0052817 0.0038093 -0.0029081 0.011514 -0.01463 -0.009562 0.0044429 -0.007073 0.007338 0.0070119 -0.0071766 -0.00038919 -0.012271 0.016734 -0.0025429 -0.0042232 0.011953 -0.0089663 -0.0001659 -0.013875 0.0092761 0.0055826 0.0018703 -0.0045769 -0.00075137 -0.0020017 -0.0063062 0.0020652 0.0024981 
声 0.02989 -0.065459 -0.04115 -0.023996 0.091412 -0.053231 -0.027579 0.047584 -0.051597 0.0079585 -0.029792 -0.021271 0.050078 -0.063241 0.06508 -0.04137 -0.053462 0.022831 0.041888 0.017931 0.14829 -0.070993 0.02412 -0.025128 0.01934 0.11668 -0.060571 -0.016079 -0.021404 0.012473 
现 -0.020124 -0.0007468 -0.0028574 0.0070179 0.0032357 0.012699 0.0060332 -0.0051047 0.00037634 0.0039096 0.023109 -0.008243 -0.011402 -0.00039754 0.01717 -0.014031 0.0045527 -0.007489 -0.013088 0.0051002 -0.019198 -0.00072103 -0.0099867 0.008445 -0.0055881 -0.011113 0.0064016 -0.0043097 -0.0086702 0.013533 
港 4.5229e-05 0.026057 0.0059493 0.030633 -0.054488 0.033309 0.0061237 -0.025854 0.0026441 0.027788 0.0049539 0.029953 -0.018535 0.012495 -0.027161 0.037183 0.031045 -0.013526 0.00094882 -0.015608 -0.05636 0.041412 -0.012725 0.0090453 0.013361 -0.042388 0.029265 0.019503 -0.011423 0.010469 
石 0.045009 -0.044763 -0.056915 -0.04967 0.098579 -0.040031 -0.014081 0.055061 -0.046774 0.0075195 0.0070562 -0.013919 0.031045 -0.020888 0.06157 -0.04764 -0.055336 0.0068234 0.026308 0.01836 0.13286 -0.054275 -0.016952 -0.03795 -0.0026491 0.11417 -0.029494 -0.019896 -0.0069117 0.023469 
德 0.012709 0.021585 0.034555 0.022166 0.016849 -0.0043697 0.0063121 -0.019474 -0.00085917 0.0089837 0.030747 0.0033713 0.013109 0.0016484 0.0070601 0.028173 -0.021218 0.0049784 0.010023 0.013779 -0.0062052 -0.025406 0.0025299 -0.014991 -0.011793 -0.013269 -0.015725 -0.012334 0.018142 0.022766 
载 0.0096176 -0.013578 -0.0095083 0.0001804 0.0089253 -0.00058501 -0.0049717 0.012814 -0.010524 -0.0025787 0.0062362 -0.012254 0.018853 -0.0002908 0.012356 0.011124 -0.0040055 0.013102 -0.011659 -0.016542 0.032389 -0.015781 -0.0061919 0.0048744 0.0089931 0.014859 0.0025152 -0.011618 -0.011464 -0.005951 
那 -0.012814 -0.0054825 -0.013886 -0.014887 -0.015317 0.027292 0.013255 0.0042441 -0.001116 -0.013323 0.0030813 -0.0035369 0.0033219 0.0035216 0.001515 -0.011678 0.0014777 0.016035 -0.017955 0.015794 -0.014494 0.010775 -0.0042543 -0.0082651 -0.007647 -0.0048568 0.010205 0.0079664 -0.00049807 0.0043786 
红 -0.029396 0.031151 0.047134 0.026965 -0.084458 0.030483 0.021219 -0.015229 0.0385 0.0034653 0.030925 0.015583 -0.040564 0.046318 -0.047226 0.038241 0.022634 -0.034767 -0.010444 -0.017336 -0.089296 0.054704 -0.0073631 0.027891 -0.011595 -0.084141 0.03994 0.019945 0.0085892 -0.01558 
行 -0.0021374 0.018856 0.018114 0.015785 -0.058288 0.035586 -0.0067158 -0.0099226 0.043307 -0.00016701 0.0089274 0.0096154 -0.017543 0.015928 -0.037962 0.0046711 0.021109 -0.022722 -0.0010127 -0.0069637 -0.070743 0.035093 -0.019627 0.020651 -0.00026328 -0.058529 0.0058304 0.026122 0.016086 -0.00088701 
老 -0.023257 0.040459 0.034338 0.027179 -0.082506 0.039574 -0.0043945 -0.019321 0.038916 0.0034663 -0.0025141 0.026475 -0.044771 0.025233 -0.047818 0.026491 0.045147 -0.010785 0.0067483 -0.018345 -0.1028 0.064276 0.0022057 -0.0033726 -0.0086295 -0.071723 0.045763 0.0083323 0.015782 -0.009574 
搜 -0.00061509 -0.010487 -0.010073 -0.033718 0.038821 -0.014734 -0.011504 -0.00074854 -0.028061 0.0012849 -0.022001 -0.011953 0.011489 -0.006846 0.027562 0.00069727 -0.027279 0.015627 -0.0015335 0.0040666 0.04164 -0.033623 -0.0076264 -0.012711 0.012927 0.064291 0.0054336 0.0090059 -0.021944 -0.0084011 
内 -0.033254 0.03777 0.028008 0.0057349 -0.081101 0.026984 0.012341 -0.020726 0.027564 0.008051 0.009764 -0.0024023 -0.017467 0.014864 -0.044834 0.0028157 0.023139 -0.022543 0.0043137 -0.016437 -0.078513 0.055457 0.0047199 0.018672 -0.0043148 -0.075372 0.046124 0.0048429 0.0099653 -0.010925 
5 -0.015112 0.038142 0.017286 0.031763 -0.090913 0.036995 0.026598 -0.016888 0.045324 0.0061894 0.020287 0.014391 -0.045663 0.014851 -0.069527 0.027257 0.048079 -0.019391 0.0037587 -0.015654 -0.1136 0.045798 -0.0017535 0.0055782 -0.020802 -0.091229 0.026741 0.028037 0.013733 -0.027795 
庆 0.0020497 -0.0036067 -0.0049609 0.0096198 -0.023058 0.0044627 -0.00014647 -0.025684 0.015569 0.011943 0.0065803 0.019904 -0.0067606 0.0016226 -0.020792 0.021991 0.00062831 -0.0078794 -0.011692 0.0020235 -0.0087678 0.0088121 -0.009175 -0.0014404 0.013633 0.0026819 0.010658 0.00059186 -0.026956 -0.01235 
音 -0.0063346 0.02488 0.015097 0.014227 -0.017809 0.023157 0.0021605 -0.012935 0.02894 -0.0099035 -0.010071 -0.014495 -0.021236 -0.00026161 -0.0062235 -0.0057195 0.0030273 -0.021304 -0.019626 0.00084084 -0.024679 0.0053922 0.0033175 0.0060945 -0.0017354 -0.015643 0.014445 -0.0019999 0.013723 0.0074227 
省 -0.037558 0.042605 0.064931 0.046303 -0.12861 0.060215 0.012592 -0.048777 0.031257 0.01041 0.0094141 0.022162 -0.044858 0.059007 -0.087247 0.02628 0.067743 -0.027529 0.0010893 -0.030774 -0.14656 0.086236 0.014655 0.027008 -0.0035824 -0.12637 0.041879 0.038024 0.032155 -0.018699 
云 -0.013784 0.02613 0.03685 0.035958 -0.038858 0.010312 0.01463 -0.015779 0.0097289 -0.003018 0.016244 0.011075 -0.014468 0.0058151 -0.020537 0.021728 0.044867 -0.0028374 -0.0069249 -0.021349 -0.069055 0.020082 0.0024994 0.012644 -0.0093923 -0.065199 0.025717 0.019321 -0.0025077 0.0059181 
资 -0.023406 0.011413 0.0094798 0.013563 -0.022301 0.022315 0.022191 -0.028575 -8.4383e-05 0.0052993 0.014161 0.0019899 -0.019013 0.0063284 -0.011793 0.0023143 0.022916 -0.019099 -0.019384 0.002302 -0.030622 0.025332 0.0045375 0.0032509 0.0016446 -0.01868 -0.0013009 0.0028477 0.0068926 -0.00086689 
布 -0.020338 0.074521 0.069392 0.049143 -0.12489 0.057362 0.03311 -0.093046 0.080156 -0.0093722 0.0019267 0.020247 -0.061737 0.071121 -0.078364 0.038854 0.10406 -0.050151 -0.040848 -0.050501 -0.22727 0.084621 -0.026183 0.03183 -0.0073813 -0.18305 0.058741 0.050298 0.026541 0.00079354 
线 -0.011174 0.014708 0.018696 0.006052 -0.04781 0.0064268 -0.0090013 0.011285 0.019127 0.025171 0.0048114 0.0048489 0.0035514 -0.0010155 -0.037966 0.0093285 0.023549 -0.0070712 0.0075882 -0.017817 -0.042041 0.015573 -0.0045156 0.0091507 0.0072432 -0.034233 0.027204 0.0080939 0.0083371 -0.012976 
！ -0.099813 0.14271 0.12409 0.12209 -0.30839 0.13522 0.086178 -0.13655 0.13224 0.049613 0.079221 0.03367 -0.15707 0.078354 -0.19042 0.065899 0.16076 -0.08643 -0.044755 -0.077611 -0.37897 0.25061 -0.030932 0.053229 -0.057645 -0.37589 0.13572 0.079958 0.046471 -0.059917 
直 -0.048877 0.09015 0.068895 0.070275 -0.14668 0.050523 0.015307 -0.054664 0.09464 0.012735 0.046574 0.012046 -0.061649 0.039684 -0.11252 0.024534 0.082404 -0.038643 -0.04846 -0.034045 -0.21218 0.13692 0.0085397 0.048092 0.012624 -0.18383 0.057782 0.031362 0.061721 -0.062375 
溪 -0.030279 0.0029642 0.043057 0.025758 -0.04086 0.030825 -0.011409 -0.0033713 0.035101 0.0088969 -0.0018699 0.01056 -0.0015281 0.014021 -0.03401 -0.0068202 0.014972 -0.013572 -0.015731 0.0058659 -0.038065 0.014739 -0.0076681 0.027471 -0.0070213 -0.042139 0.018488 0.011531 0.012806 0.0078411 
苏 0.0052528 -0.012411 -0.0048109 -0.0060528 0.0064067 -0.0046612 -0.011116 -0.0039443 -0.008275 0.0025244 0.0070269 0.010121 -0.00052893 -0.021979 0.0053641 -0.0033416 -0.010785 0.013109 -0.003376 -0.0063853 0.0062202 -0.0082437 0.0057108 0.0039421 -0.0030208 0.024544 -0.0072205 0.0016975 -0.0058062 -0.022052 
成 -0.035111 0.013728 0.060287 0.048613 -0.086594 0.02376 0.0066803 -0.054036 0.030388 0.012136 0.032974 0.04039 -0.044355 0.016813 -0.05791 0.016324 0.02927 -0.027019 0.011562 0.0053475 -0.10309 0.078918 -0.0053548 0.0076838 -0.023801 -0.05813 0.051571 -0.0031553 -0.0049003 0.004073 
院 -0.011427 0.049991 0.047047 0.069163 -0.14424 0.061973 0.02796 -0.047863 0.039509 -0.005553 0.028594 0.0073605 -0.063958 0.040497 -0.062781 0.015128 0.081499 -0.0082936 -0.018576 -0.024047 -0.18936 0.10177 -0.0074392 0.052874 -0.041035 -0.13777 0.075782 0.045899 0.015394 -0.038465 
周 -0.013658 0.024073 0.020412 0.014987 -0.082204 0.026083 0.0087158 -0.025573 0.020404 0.023151 0.014254 0.0072371 -0.0095478 0.014417 -0.044442 0.017954 0.051768 -0.014637 -0.006572 -0.018837 -0.070979 0.034814 0.0038561 0.004104 -0.010361 -0.069942 0.032041 -0.00066688 0.0084551 -0.0049425 
主 -0.01637 0.017607 0.038413 0.023781 -0.051573 0.019665 0.0069135 -0.0054589 0.026901 0.00032982 0.0104 0.00083026 -0.044382 0.008745 -0.0472 0.01276 0.039229 -0.0091477 -0.015893 -0.011516 -0.083816 0.040816 0.0071398 0.03041 0.0024438 -0.065044 0.025048 0.0062669 0.022408 -0.014183 
4 -0.032889 0.047259 0.046306 0.053059 -0.15702 0.06747 0.048874 -0.088035 0.064567 0.0068114 0.052451 0.044207 -0.075625 0.036974 -0.11307 0.011502 0.071854 -0.0076184 -0.02288 -0.0086393 -0.20471 0.11984 -0.021676 0.021237 0.012235 -0.16625 0.063605 0.051245 0.036477 -0.022388 
想 -0.010385 -0.010142 -0.015037 -0.01482 0.0067753 -0.0032786 -0.021042 0.019419 -0.015541 0.0055183 -0.0087924 0.0078578 0.0031699 -0.021337 0.0092888 -0.0014038 -0.00048976 0.015815 0.0069967 -0.0075886 0.035057 -0.0074753 0.005102 -0.0074526 0.010308 -0.0016236 -0.022917 -0.0096082 -0.010945 0.0075111 
科 0.021144 -0.032123 -0.02633 -0.045027 0.10245 -0.052941 -0.028572 0.050573 -0.028378 -0.0012503 0.0038335 0.011806 0.013192 -0.021644 0.063278 -0.04181 -0.02835 0.028626 0.01379 0.033735 0.11418 -0.077662 -0.017507 -0.033697 0.010987 0.091471 -0.061728 -0.0023686 -0.016642 0.022024 
凰 0.0051468 0.025555 0.03752 0.046346 -0.077313 0.032726 0.029315 -0.028176 0.03633 0.011716 0.012857 0.014273 -0.028439 0.0065321 -0.024267 0.028394 0.045698 -0.021993 0.00091314 -0.0090153 -0.094831 0.027072 -0.012397 0.02129 -0.02562 -0.076931 0.010519 0.044242 0.019998 0.0080993 
偿 -0.042139 0.039011 0.0033622 -0.0036527 -0.067096 0.01727 0.017684 0.00119 0.051849 -0.0043142 0.0097332 0.031834 -0.011521 0.0088333 -0.019822 0.04985 0.036489 0.01212 -0.043663 -0.0028091 -0.071395 0.050548 -0.023976 0.048404 -0.038129 -0.067401 0.055032 0.048054 0.027552 -0.027234 
样 -0.0023642 0.040436 0.015188 0.031009 -0.088842 0.042 0.01002 -0.034043 0.038483 0.0043305 0.015458 0.013525 -0.043184 0.015202 -0.064873 0.024689 0.066077 0.006415 0.0006365 -0.021395 -0.11261 0.059661 -0.0004945 0.018169 -0.016708 -0.076003 0.024277 0.024112 0.034722 -0.02206 
导 0.029315 -0.072718 -0.070108 -0.044882 0.20984 -0.085642 -0.025657 0.059027 -0.07577 -0.057422 -0.064902 -0.0051604 0.098387 -0.039706 0.12664 -0.019453 -0.12594 0.059773 0.02426 0.054691 0.29868 -0.16206 0.031923 -0.027982 0.032957 0.24853 -0.080646 -0.024607 -0.057403 0.047373 
以 -0.014037 0.011331 0.0089112 0.0058241 -0.042266 0.02114 0.030193 -0.0012009 0.012863 0.012434 -0.0034681 0.0089734 -0.026552 0.024133 -0.049921 0.0073726 0.02937 -0.018063 -0.0082061 -0.018074 -0.058721 0.021336 -0.011048 0.011687 0.0026929 -0.055664 0.014481 0.00048689 0.0024326 -0.0023671 
永 -0.0016027 0.012436 0.019313 0.007522 -0.037483 0.019216 0.01785 -0.0090352 0.01799 0.019465 0.017511 0.0014896 -0.027314 0.015848 -0.019081 0.015457 0.001922 -0.021007 -0.016864 -0.010378 -0.034154 0.03169 0.0077995 0.00015246 -0.01766 -0.037715 0.01481 0.016781 0.02431 -0.005379 
路 -0.035459 0.071823 0.066961 0.0805 -0.14507 0.044228 0.023508 -0.042146 0.093 0.018149 0.010842 0.020818 -0.079793 0.040016 -0.121 0.041396 0.094988 -0.023628 -0.0067723 -0.020476 -0.18159 0.10113 0.018119 0.047348 -0.0053809 -0.15048 0.073928 0.027132 0.024368 -0.040405 
实 -0.040174 0.052329 0.046922 0.061373 -0.13659 0.038523 0.027939 -0.029027 0.048942 0.01812 -0.0035926 -0.00062569 -0.055915 0.02109 -0.069613 0.031416 0.089057 -0.012273 -0.010749 -0.049402 -0.14463 0.069587 0.0045637 0.035391 -0.030061 -0.11974 0.052852 0.031464 0.026027 -0.021058 
深 -0.010316 -0.0014675 0.0080583 0.0090969 0.025792 -0.0025138 0.0061743 -0.0022819 0.0067381 -0.010991 0.0021909 -0.011827 0.00086577 0.0015844 -0.0028098 -0.0020219 0.013158 0.0038866 -0.010108 -0.0029204 -0.0013977 -0.008249 0.0082713 -0.0013992 0.007511 -0.0013754 -0.0077937 -0.015081 -0.0055347 0.012625 
众 -0.017118 0.02712 0.0094908 0.012798 -0.075771 0.032797 0.016259 -0.017924 0.029588 0.010794 0.010191 -0.010178 -0.040079 0.0058545 -0.039497 -0.0049583 0.037357 -0.0090042 -0.016054 -0.019505 -0.07696 0.053036 -0.00075637 0.011827 -0.017112 -0.064328 0.021887 0.006022 0.035213 -0.0073353 
近 -0.018316 0.050291 0.041303 0.031272 -0.087974 0.047791 0.035019 -0.0078755 0.061901 -0.0041964 0.0088351 0.0067535 -0.034298 0.032554 -0.050001 0.0071212 0.058585 -0.017037 -0.016629 -0.018061 -0.10414 0.050609 -0.027632 0.019089 0.0035875 -0.08814 0.034088 0.041729 0.048876 0.013419 
乡 -0.016621 0.025663 -4.7721e-05 0.0062515 -0.019338 0.019905 -0.0017604 -0.012666 0.022973 -0.0039748 -0.0014405 0.001242 0.014661 -0.0040921 -0.018284 0.01756 0.014093 0.0067206 -0.026763 0.013583 -0.019356 -0.0014303 -0.0063895 -0.0025765 -0.0073502 -0.015431 -0.005479 -0.0041608 0.012256 -0.011267 
明 -0.013215 0.038648 0.011408 0.021661 -0.059914 0.018092 0.004169 -0.046533 0.042967 0.004144 -0.0042238 0.018808 -0.024317 0.0037179 -0.044743 0.014856 0.049122 -0.012443 -0.013789 -0.0026138 -0.099925 0.069027 0.00032221 0.013617 -0.011054 -0.062858 0.01105 0.035155 0.011055 -0.019531 
前 -0.0018654 0.0037891 -0.018388 -0.024727 0.013188 0.0062314 -0.010128 0.013458 -0.022364 -0.024685 -0.0076175 -0.0031 0.0013741 0.0042868 0.014358 -0.015816 -0.012344 0.010328 -0.02308 -0.020746 0.022508 0.0097154 0.0014277 -0.0043971 -0.00494 0.032915 -0.0061573 0.014549 -0.0078223 0.016955 
里 -0.027586 0.057801 0.036803 0.041477 -0.082606 0.049458 0.00021291 -0.036454 0.02705 0.029788 0.021842 0.014297 -0.041635 0.028639 -0.059877 0.010916 0.045638 -0.00014012 -0.027717 -0.017355 -0.11738 0.051852 -0.015212 0.038602 0.0023493 -0.076074 0.039474 0.026228 0.015227 -0.0047633 
村 -0.02112 0.018952 0.013757 0.028316 -0.038681 0.013193 0.0065295 -0.012894 0.016573 0.0213 0.030589 0.024647 -0.0034888 0.0024388 -0.031993 0.028477 0.0064738 -0.019446 0.0093936 -0.00083187 -0.02821 0.036256 0.00070308 9.1382e-05 -0.009017 -0.024381 0.030368 0.014029 0.0082606 -0.0020598 
后 -0.01307 0.020395 0.002595 0.011687 0.0016361 0.012555 -0.029874 0.018637 -0.014135 0.0016134 -0.0010775 0.017932 -0.0017685 0.021033 0.001213 0.018559 -0.0070366 0.0020751 0.020943 -0.0099287 0.0064581 0.00068002 0.008831 -0.028419 0.00045963 0.03023 -0.021452 -0.0048138 0.00054294 -0.020132 
客 -0.019418 0.021523 0.06206 0.030678 -0.072612 0.024792 0.018977 -0.031195 0.050032 -0.00019399 0.016053 -0.0012017 -0.030143 0.016755 -0.030385 0.0188 0.067919 0.01428 -0.012773 -0.012208 -0.11335 0.054314 -0.0037554 0.021209 0.010186 -0.082684 0.031099 0.017572 0.023818 -0.01333 
A -0.00097299 0.013761 0.033492 -0.0059682 -0.058864 0.043024 0.023019 -0.0054555 0.012267 0.0054298 0.02083 0.0011809 -0.0074831 0.013612 -0.019561 0.010431 0.056854 -0.013864 -0.037203 -0.037393 -0.08542 0.036039 -0.014904 -0.011748 -0.02009 -0.071097 0.017392 0.010975 0.0083945 -0.011897 
面 0.0062326 -0.00073399 -0.0097795 0.0036556 -0.010389 -0.018888 -0.00015685 -0.011721 0.020009 0.017188 -0.0046922 0.0012924 -0.00056306 0.016992 -0.0067576 -0.008937 -0.0021507 -0.010261 0.0099393 0.0060408 -0.0078995 0.0039258 -0.015283 0.013789 0.014216 -0.0043598 0.0070857 0.0067647 0.0031686 -0.0048204 
机 -0.051923 0.070575 0.063717 0.061589 -0.15033 0.078499 0.00073028 -0.04704 0.055996 0.025953 0.033372 0.022472 -0.063046 0.036233 -0.092185 0.027376 0.097477 -0.01559 -0.029094 -0.028249 -0.21701 0.11498 -0.0010244 0.022558 -0.022518 -0.16956 0.07864 0.035471 0.028106 -0.043079 
航 7.5414e-06 0.061823 0.053886 0.026231 -0.1336 0.035529 0.034701 -0.061883 0.035393 0.041524 0.053348 0.016381 -0.053213 0.051442 -0.09097 0.029587 0.075112 -0.010418 0.016241 0.0019754 -0.15464 0.067702 0.022685 0.024665 -0.019207 -0.13 0.041913 0.0070755 0.019165 -0.0093416 
版 -0.016194 0.01603 0.010697 0.029554 -0.060924 -0.0059781 0.0054893 -0.011485 0.0084185 -0.011913 0.0067274 0.0002338 0.0019142 0.015647 -0.032659 0.012538 0.028702 0.0061937 -0.0012695 -0.019198 -0.065722 0.032398 -0.013146 0.029525 -0.01352 -0.041816 0.017237 0.010693 0.016005 -0.013238 
界 -0.038967 0.064756 0.031898 0.030788 -0.1048 0.032359 0.024771 -0.029432 0.062024 0.043241 0.012013 0.011847 -0.049819 0.039986 -0.068983 0.0071984 0.056078 -0.041584 -0.01618 0.0052226 -0.14034 0.10261 0.020541 0.030202 0.0074635 -0.10449 0.046331 0.033213 0.014505 -0.023265 
全 -0.003556 0.038209 0.022308 0.013197 -0.062309 0.030775 0.017059 -0.030237 0.029602 0.01447 0.042569 0.014355 -0.024553 -0.0072673 -0.046632 -0.0103 0.057245 -0.028338 -0.016735 -0.0068549 -0.059508 0.052213 -0.016417 0.020519 -0.021612 -0.070422 0.00080407 8.4429e-05 0.018985 -0.011062 
双 -0.00083016 0.013418 -0.0032464 0.0033452 -0.041036 0.002964 0.00087414 -0.0019189 0.023209 0.0086003 0.018723 -0.0033005 -0.011127 0.026209 -0.036338 0.016917 0.036178 -0.010166 -0.0033669 -0.0051054 -0.070481 0.041018 0.0075457 0.028188 -0.012786 -0.062487 0.011735 0.0039099 0.0097872 0.010008 
户 -0.030619 0.050458 0.044786 0.075463 -0.15171 0.07539 0.047067 -0.091842 0.047498 0.017418 0.039286 0.0095717 -0.066708 0.019588 -0.072387 0.019573 0.098242 -0.010505 -0.0031162 -0.0041352 -0.16015 0.07688 -0.00095496 0.02939 -0.03021 -0.14742 0.051914 0.0091883 0.023248 -0.033005 
美 -0.0082079 0.0398 0.032775 0.021757 -0.062136 0.02362 0.016543 -0.043203 0.031826 0.011976 0.0094574 0.0027676 -0.024039 0.010533 -0.038033 0.024575 0.032404 -0.036265 -0.011529 -0.0052262 -0.069846 0.0404 -0.00029138 0.025353 -0.0064324 -0.068376 0.025517 -0.0029441 0.013891 -0.020992 
还 -0.051864 0.098329 0.10846 0.084764 -0.26293 0.12562 0.079674 -0.066815 0.13838 0.05573 0.018759 0.015955 -0.070763 0.091505 -0.17849 0.043368 0.10608 -0.06666 -0.019762 -0.019192 -0.2917 0.16995 0.023476 0.035301 -0.028551 -0.25293 0.12864 0.034631 0.046604 -0.066654 
青 -0.0079806 0.016223 0.0028138 0.00015111 -0.028113 0.016074 -0.0076261 -0.0016533 -0.003224 -0.0046676 0.014617 0.0085634 0.010242 0.024479 -0.022293 0.0081636 0.016209 0.0088249 -0.0048898 -0.00015775 -0.035354 -0.004114 -0.001309 0.010466 0.0024891 -0.0062609 0.024029 -0.0013278 0.015236 -0.021617 
钟 -0.015226 0.028408 0.004471 -0.0044435 -0.018625 0.026731 0.012337 -0.022802 0.0014522 0.016531 -0.01006 -0.0079896 -0.013056 -0.0065726 -0.032191 0.013004 0.004917 -0.006313 -0.016215 -0.013986 -0.043294 0.027002 -0.002481 0.0025328 0.01449 -0.013515 0.019492 0.0095647 0.014039 -0.014588 
N 0.035386 -0.026011 -0.048779 -0.015888 0.070624 -0.028043 -0.017951 0.012864 -0.027919 -0.024052 0.006111 0.015493 0.0062536 -0.046554 0.083029 -0.0044283 -0.048099 0.0030056 -0.00065409 0.016054 0.093485 -0.082883 0.028312 0.00016302 0.0089772 0.067878 -0.016726 -0.023479 0.00038362 0.0076769 
张 0.0041528 0.0066806 0.018771 0.0016279 -0.046078 0.012036 0.015723 -0.018419 0.034085 -0.0003861 0.0054983 0.0055639 -0.030809 0.011242 -0.030807 0.01113 0.026234 -0.007907 0.0024488 -0.017428 -0.043794 0.03578 -0.0042465 0.012957 -0.0070177 -0.058797 0.032558 0.015592 0.021395 -0.016537 
马 -0.00086045 -0.013464 -0.002927 0.01549 -0.0071782 0.011957 0.0023193 -0.0058638 0.0039229 -0.0088425 -0.0075726 -0.0121 0.014253 -0.011952 -0.0078711 0.0064352 0.028403 -0.01146 0.0028803 -0.0088917 -0.010817 0.012579 0.023343 -0.012925 -0.01981 -0.015636 -0.016282 0.019884 0.012398 -0.0045774 
手 0.0023658 0.020017 0.043819 0.035512 -0.05992 0.018924 0.021252 -0.021126 0.023065 0.0074089 0.022983 0.013279 -0.024932 0.010754 -0.040254 -0.0055452 0.037254 -0.025789 -0.0064594 -0.011594 -0.072835 0.02035 0.00076678 0.0037528 -0.0077809 -0.086228 0.026677 0.025406 0.0022151 -0.025918 
特 -0.019078 0.029643 0.01527 0.00056904 -0.059987 0.017612 0.01536 -0.014581 0.0053204 0.0021191 0.017815 -0.0003893 -0.010711 0.015047 -0.03628 0.0027473 0.037068 -0.0076771 -0.021778 0.0044454 -0.060716 0.036422 0.0062178 0.0065927 -0.0081499 -0.044503 0.02366 0.033436 0.0014607 -0.012734 
媒 -0.028082 0.043199 0.029198 0.057981 -0.12466 0.068734 0.016128 -0.04201 0.018246 0.02663 0.019273 -0.0069992 -0.041907 0.0060155 -0.056692 0.011071 0.057068 -0.025802 -0.011768 -0.017362 -0.1572 0.05791 0.00033844 0.022182 -0.026944 -0.13654 0.054059 0.041674 0.021701 -0.019427 
博 -0.010597 0.070516 0.089501 0.050661 -0.16511 0.074102 0.065643 -0.068349 0.080423 -0.0004856 0.019462 0.047157 -0.08068 0.033196 -0.12497 0.044774 0.11315 -0.013686 -0.047639 -0.052493 -0.23465 0.089962 0.020525 0.059054 0.010879 -0.15677 0.067994 0.035675 0.029227 -0.024834 
对 -0.030885 0.089467 0.055057 0.044521 -0.14957 0.040023 0.051014 -0.066313 0.055097 0.014998 0.049848 0.030788 -0.066909 0.031858 -0.086454 0.059923 0.10129 -0.014247 -0.030781 -0.0083815 -0.17146 0.072755 -0.0045236 0.051314 0.0017569 -0.16687 0.036391 0.029613 0.0419 -0.035707 
丰 -0.031141 0.0092952 0.012594 0.017797 -0.046723 0.038589 0.023098 -0.034284 0.0038147 0.0068357 -0.0032918 -0.0077357 -0.027874 -0.0044163 -0.012541 0.0035838 0.041456 -0.0080388 -0.010129 -0.00069069 -0.052474 0.018216 -0.010575 -0.0055458 -0.019806 -0.045416 0.017869 0.0059179 -0.00039098 -0.0075617 
评 0.0049917 0.023036 0.032328 0.0047838 -0.032023 0.0088069 -0.001459 -0.028481 0.024139 0.027254 -0.0022509 0.0059155 -0.0083914 0.017184 -0.028535 0.012567 0.016345 -0.016768 0.0035708 0.017986 -0.06037 0.023373 -0.00016564 0.0077539 -0.0017421 -0.056568 0.037505 0.022348 0.011704 -0.012721 
啊 -0.056752 0.16368 0.13574 0.11206 -0.3252 0.14039 0.074866 -0.14547 0.17776 0.068622 0.099821 0.055173 -0.16665 0.10379 -0.25259 0.067601 0.22466 -0.097656 -0.074582 -0.077971 -0.48384 0.27104 -0.011065 0.090328 -0.040618 -0.37042 0.12879 0.073746 0.079897 -0.071362 
口 -0.016079 0.029805 0.038966 0.018846 -0.095413 0.053426 0.031052 -0.067727 0.044203 0.011053 0.033576 0.024818 -0.014766 0.06062 -0.06939 0.017841 0.052178 -0.030749 -0.027589 -0.026396 -0.13035 0.086737 0.0039154 0.0078877 -0.0215 -0.10691 0.039453 0.057529 0.029524 -0.015741 
原 -0.013341 0.049436 0.024428 0.021655 -0.08981 0.036946 -0.0023997 -0.00983 0.043262 0.01723 -0.0046214 0.010889 -0.030334 0.028349 -0.030763 0.040279 0.031911 -0.024689 -0.011212 -0.017317 -0.10801 0.071799 -0.029713 0.014502 -0.0017863 -0.066911 0.048513 -0.002272 0.019618 -0.007217 
度 -0.026427 0.026363 0.013631 0.038459 -0.035994 0.012452 0.0088427 -0.027508 0.038579 0.016084 0.0045408 0.013618 0.015768 0.024952 0.0035697 0.0054595 0.010154 -0.012259 -0.0095259 -0.01089 -0.054088 -0.00096853 0.0080825 0.0034378 -0.015401 -0.036513 0.014941 0.026433 -0.0071796 -0.01791 
C -0.020108 -0.00069263 0.0036949 0.020399 -0.069481 0.00033488 -0.017702 -0.011076 0.035674 0.013861 0.02892 0.011163 -0.005357 0.039748 -0.038141 0.01435 0.052951 4.8666e-05 -0.0050051 0.0079749 -0.051441 0.0493 -0.0027339 -0.01659 -0.02531 -0.06044 0.021213 0.0049778 0.026967 -0.0078136 
部 -0.029288 0.01605 0.028226 0.015242 -0.015189 0.020164 -0.0237 0.0045122 0.043279 -0.0019991 0.0069648 0.0090626 0.0030217 0.043922 -0.051935 -0.014819 0.023304 -0.020217 -0.0051979 -0.040374 -0.077772 0.027154 -0.0095927 0.037132 -0.034435 -0.052308 -0.014511 0.013856 -0.017958 0.020923 
者 -0.015886 0.038277 0.03111 0.022593 -0.066362 0.028108 0.0041244 -0.030804 0.032566 0.0069281 0.012297 0.018818 -0.026855 0.018734 -0.033349 0.011012 0.026969 -0.01419 -0.00086108 -0.030356 -0.076669 0.054439 0.0021109 0.023515 -0.010399 -0.070345 0.035913 0.02539 0.014 -0.020446 
源 -0.013453 0.054474 0.033078 0.03856 -0.064039 0.055217 -0.0012528 -0.035468 0.022555 0.0062607 0.026588 0.042267 -0.029713 0.051915 -0.038916 0.013351 0.044181 -0.016123 -0.023684 -0.042146 -0.11518 0.070472 -0.00035483 0.038658 -0.031481 -0.097339 0.028212 0.034798 0.017034 -0.028945 
贵 0.020262 -0.01838 0.0064071 0.014703 -0.00083311 -0.036505 0.016398 -0.020207 8.7442e-05 -0.013592 -0.020821 0.024594 0.0021226 -0.0058275 -0.017892 0.012651 -0.01748 0.0060438 0.0093067 0.029219 0.019603 -0.032206 -8.3433e-05 -0.025142 0.016234 0.037147 0.021313 -0.010215 -0.014072 0.006752 
热 -0.0068302 0.016505 0.019413 0.0057454 -0.058416 0.017771 0.0092809 -0.028145 0.024639 0.0017461 0.0013883 0.025976 -0.014239 0.021326 -0.035386 0.0081514 0.031099 0.001872 -0.005567 -0.025425 -0.078641 0.031121 0.0072777 0.013118 -0.024671 -0.055042 0.027137 0.016099 0.029307 -0.0026142 
同 -0.03538 0.027641 0.02139 0.046424 -0.096775 0.017077 0.027031 -0.026307 0.030603 0.023108 0.0067961 -0.0038068 -0.032664 -0.0014775 -0.07094 0.036412 0.066842 -0.043758 -0.036989 -0.01674 -0.11162 0.086106 0.020852 0.018323 -0.007247 -0.10666 0.06253 0.019034 0.0068466 -0.03033 
福 -0.038996 0.10694 0.058741 0.045519 -0.17805 0.084317 0.046303 -0.10979 0.065531 0.046524 0.0057086 0.039727 -0.095568 0.083763 -0.10352 0.06749 0.11154 -0.033776 -0.044041 -0.013659 -0.27726 0.14774 0.0021723 0.079438 0.0050964 -0.20004 0.046884 0.068771 0.036138 -0.025519 
领 -0.0024223 -0.009885 0.0029921 -0.0054628 0.012409 -0.015269 -0.0012178 -0.0028529 -0.0035122 0.0094354 -0.015407 -0.0043734 0.013611 -0.018374 -0.00090645 -0.0027768 0.006571 -0.0084078 -0.0002825 0.021578 0.0050262 -0.0098506 0.010029 -0.005092 0.0033164 0.01729 -0.022155 0.012978 -0.0030845 -0.00047172 
论 -0.021342 0.024144 0.020496 0.021341 -0.067527 0.017195 0.019855 -0.014933 0.018401 -0.00083611 0.0093812 -0.0045747 -0.025533 0.014164 -0.047599 0.0082502 0.02496 -0.011279 -0.0081924 -0.010485 -0.080594 0.02946 -0.0048055 0.02211 0.01347 -0.049591 0.017 0.015573 0.022649 -0.01438 
读 -0.014642 0.037867 0.0087762 0.020686 -0.0693 0.023951 0.010611 -0.039952 0.016377 0.012029 0.0081069 0.0074026 -0.015272 0.040968 -0.019268 -0.016433 0.038295 -0.013592 -0.013688 -0.01993 -0.049461 0.038681 0.0021649 -0.002844 -0.016272 -0.058673 0.052405 0.0060176 -0.0016263 0.0048528 
用 -0.0059677 0.0087642 0.020524 0.023197 -0.065285 0.037707 -0.014118 -0.011422 0.025528 0.01548 0.009268 0.020643 -0.02679 0.025405 -0.032737 0.020136 0.030516 0.0019153 -0.0032941 -0.01945 -0.087254 0.056071 0.0011847 0.017516 -0.019684 -0.093042 0.019556 0.014557 0.0077963 -0.023401 
尔 -0.013619 0.040511 -0.0002638 0.019515 -0.048877 0.033356 0.030228 -0.013403 0.0055915 0.032522 0.020524 0.0054903 -0.017048 0.017531 -0.033546 0.01426 0.04235 -0.028318 -0.007722 0.0080708 -0.056566 0.047327 -0.0064152 0.036943 -0.01366 -0.078281 0.023046 -0.0096602 -0.00286 -0.0032571 
本 -0.063457 0.10902 0.10366 0.070775 -0.2346 0.082298 0.070583 -0.092328 0.095317 0.019126 0.072972 0.019546 -0.10964 0.091005 -0.14439 0.035308 0.157 -0.07388 -0.025046 -0.025533 -0.34405 0.19788 -0.020752 0.068244 -0.026059 -0.28597 0.068609 0.038191 0.04417 -0.041741 
被 -0.055451 0.1226 0.14758 0.14039 -0.29395 0.13717 0.03916 -0.16033 0.17911 0.072419 0.089495 0.023615 -0.097415 0.11186 -0.23537 0.055585 0.15812 -0.049444 -0.058119 -0.076348 -0.39351 0.2441 -0.037527 0.048857 -0.010313 -0.33812 0.12409 0.063997 0.091458 -0.09392 
晚 -0.010244 0.019425 0.020832 0.0044637 -0.057502 0.024168 0.004476 -0.020346 0.035218 0.010846 0.017727 0.00076342 -0.031629 0.011198 -0.042939 0.025844 0.011868 -0.016255 -0.016715 -0.010115 -0.070766 0.04618 0.021418 0.0056448 -0.0016003 -0.063909 0.033881 0.016585 0.015089 -0.006861 
就 -0.031163 0.029868 0.02346 0.020131 -0.040203 0.019862 -0.0097721 -0.019708 0.013149 0.008936 0.037774 -0.0056183 -0.017905 0.030322 -0.032031 0.02058 0.038416 -0.03198 0.011776 -0.023324 -0.049147 0.047782 -0.0065657 0.010301 0.0014776 -0.045391 0.0052002 0.011485 0.0073133 -0.02017 
罗 -0.017595 0.0050309 0.0044016 0.016145 -0.01351 -0.00022112 -0.0043982 -0.0052365 0.016437 -0.0012476 0.0075684 8.5563e-06 0.0020721 0.0089186 -0.0073222 -0.00093802 0.017519 0.00434 -0.010931 -0.013836 -0.03855 0.013747 0.017435 -0.002483 -0.0014884 -0.033104 0.0059179 0.023405 0.0015623 -0.012598 
常 -0.037158 0.034666 0.026042 0.012663 -0.082298 0.024331 0.043262 -0.042252 0.012742 0.00056599 0.037133 -0.021127 -0.046361 0.015506 -0.008419 0.00022596 0.017855 -0.032802 0.019254 0.018623 -0.086753 0.038506 0.011442 0.0032434 0.011607 -0.070699 0.0083542 0.011239 0.010691 -0.039429 
于 -0.0028906 0.023835 0.01843 0.026215 -0.052487 0.028663 0.025352 -0.030212 0.047351 0.01531 0.024423 0.018637 -0.027893 0.01485 -0.037763 0.02291 0.045495 -0.024435 -0.0080741 -0.0070153 -0.096571 0.041151 -0.0019459 0.025254 0.0061357 -0.067329 0.043185 0.011828 0.025522 -0.013394 
稿 -0.017411 0.05612 0.014347 0.036331 -0.069982 0.030875 0.0010008 -0.00051858 0.0077628 0.013226 0.0038528 0.0053116 -0.011496 0.032107 -0.067635 0.038286 0.026843 -0.0076377 -0.015239 0.0042869 -0.061929 0.043397 0.027823 0.010502 -0.0017569 -0.067503 0.045702 0.014771 0.012695 -0.0032083 
万 0.00084196 0.02795 0.012776 0.016145 -0.037993 0.02757 0.019414 -0.011204 0.016148 -0.0067009 -0.0099105 -0.011986 -0.016825 0.0042509 -0.0090725 -0.007986 0.024788 -0.00084736 -0.017373 0.0062308 -0.069494 0.026295 -0.0041479 0.021174 -0.0072901 -0.063464 0.025099 0.0064279 -0.0094917 -0.0027624 
康 -0.00063856 0.014678 0.0039624 0.012535 -0.030331 0.041013 0.010198 -0.034568 0.051839 -0.0071226 0.014963 0.031313 -0.027372 -0.012634 -0.030666 0.026656 0.013324 0.018768 0.01653 -0.0027397 -0.027224 0.0061638 0.0016118 0.043391 0.012792 -0.055948 0.017928 0.0047048 0.02556 -0.0073481 
毕 0.0010302 0.010413 -0.0035653 -0.0028229 -0.031646 0.010234 -0.015236 -0.012224 0.035746 0.0052497 -0.00030822 0.026594 -0.026317 0.00025092 -0.036387 0.019691 0.013558 -0.023437 -0.01018 -0.0013675 -0.041043 0.039741 -0.019054 -0.0010919 -0.02361 -0.040889 -6.8259e-05 0.020562 -0.00058935 -0.033696 
站 -0.0070566 0.046988 0.028991 0.017089 -0.080919 0.041837 0.032942 -0.032706 0.033158 0.01515 -0.0043031 0.0031454 -0.022694 0.020047 -0.058947 0.015201 0.050213 -0.02219 -0.018349 -0.013192 -0.084831 0.076745 -0.010911 -0.0010286 0.0067392 -0.098036 0.035727 0.02465 -0.011073 -0.015568 
活 -0.018646 -0.0013395 0.010059 0.02404 -0.033331 -0.0014997 0.0079952 -0.0006647 0.00059554 -0.01846 -0.019613 -0.00020643 -0.014034 0.0033588 0.011558 -0.016548 0.0052542 -0.0021415 -0.0073849 -0.012204 -0.016892 0.017597 -0.025027 -0.0058374 -0.0091299 -0.0081343 0.0010555 0.014201 0.02515 0.013729 
互 0.040741 -0.10378 -0.08532 -0.062494 0.20195 -0.09414 -0.048754 0.093908 -0.11398 0.0032428 -0.072376 -0.010053 0.064203 -0.085615 0.13228 -0.04237 -0.10524 0.041914 0.04929 0.026117 0.3092 -0.17056 0.031849 -0.056235 0.0035576 0.24471 -0.10914 -0.062017 -0.024036 0.075551 
名 -0.0077553 0.013495 0.00069808 0.01715 -0.029377 0.0011546 0.0009038 0.01418 -0.001692 -0.0032822 0.021019 -0.00066239 -0.0055176 -0.0015997 -0.020879 0.0087125 0.023639 -0.001783 0.0042378 -0.0061614 -0.040698 0.035107 -0.0054295 0.004688 -0.0047739 -0.015962 0.026807 0.010793 0.008929 -0.028429 
害 -0.069656 0.10422 0.11211 0.050794 -0.25912 0.11169 0.068156 -0.062759 0.12945 0.0060736 0.060773 0.038346 -0.1052 0.061178 -0.13176 0.056588 0.16108 -0.061038 -0.0051752 -0.046269 -0.29906 0.16054 0.0017112 0.070836 -0.018741 -0.24205 0.10566 0.09181 0.045073 -0.069699 
吉 0.0073824 -0.056784 0.0015605 -0.027592 0.076703 -0.029396 -0.044492 0.050388 -0.012129 0.0060569 0.014109 -0.011179 0.050942 -0.0237 0.058258 -0.039004 -0.045457 0.031953 0.034445 0.02076 0.10611 -0.022728 -0.019004 -0.039794 -0.012218 0.061436 0.0018279 -0.015846 -0.028999 -0.0039486 
集 -0.017569 0.040443 -0.0097995 0.0072651 -0.049074 0.035482 0.022555 -0.0090008 0.0465 -0.025604 0.025978 0.0023427 -0.039268 0.038006 -0.018093 -0.015877 0.0045197 0.0088662 0.013235 0.0034641 -0.053585 0.037828 -0.014679 0.022854 0.026296 -0.037217 0.038494 0.025716 0.00078046 -0.033752 
图 -0.024545 0.03885 0.027302 0.016884 -0.085557 0.009546 0.0028981 -0.0081677 0.03298 0.0053741 -0.00057436 -0.01306 -0.0075954 0.032923 -0.034405 0.024612 0.030932 -0.007866 0.00362 0.013862 -0.076396 0.036973 -0.0057831 -0.0049112 -0.035402 -0.056513 0.051618 0.0065379 0.021073 -0.012693 
八 0.020675 0.017429 -0.0014078 0.014185 -0.0091577 -0.014039 -0.020133 -0.0089749 -0.0014176 0.0011065 -0.010637 0.017371 -0.025394 -0.011862 0.010899 0.026191 0.019558 -0.00048741 -0.00091369 0.0041913 -0.027964 0.026353 -0.015015 -0.024647 0.017764 0.0019264 -0.010095 0.027355 -0.00077496 0.0061527 
： -0.065408 0.12022 0.080289 0.093294 -0.18702 0.10025 0.049098 -0.10627 0.084447 0.043046 0.057531 0.042648 -0.045012 0.081791 -0.14209 0.072939 0.13356 -0.061145 -0.0081871 -0.031345 -0.2487 0.10325 0.015023 0.05889 -0.022885 -0.18788 0.05253 0.022878 0.024925 -0.029996 
节 -0.04168 0.036377 0.062261 0.028948 -0.095773 0.048958 0.0075592 -0.063198 0.048895 0.015847 0.011613 0.032381 -0.053168 0.031101 -0.091317 0.022722 0.070907 -0.01501 -0.040487 -0.04135 -0.15078 0.088034 -0.0041556 0.034846 -0.015614 -0.11473 0.024317 0.0078984 0.021107 -0.022788 
话 -0.076953 0.11225 0.13124 0.12543 -0.30764 0.091179 0.034172 -0.13573 0.1214 0.053005 0.07437 0.01623 -0.12986 0.074111 -0.16526 0.031624 0.15563 -0.038854 -0.06596 -0.020191 -0.32634 0.17991 0.023797 0.065778 -0.032086 -0.31583 0.10343 0.099029 0.079372 -0.087885 
太 -0.038923 0.044678 0.033489 0.044567 -0.088003 0.075001 0.040917 -0.021995 0.067968 0.022025 0.007537 0.00095098 -0.037608 0.040988 -0.10321 0.015165 0.046553 -0.041864 -0.043921 0.011193 -0.14192 0.06695 0.025881 0.035042 -0.026297 -0.12783 0.031362 0.03832 0.044138 -0.00058411 
王 0.0077859 0.021576 0.02762 0.026647 -0.068914 0.025033 0.011245 -0.013959 0.011344 0.026493 0.014145 0.012058 -0.03438 0.015619 -0.046162 0.024152 0.02932 -0.012248 0.006918 -0.021473 -0.083238 0.047645 0.0030405 0.0095951 0.0017171 -0.07072 0.034007 0.026921 0.017769 -0.0032506 
白 -0.0013144 0.049387 0.042745 0.023443 -0.093914 0.024184 0.0028077 -0.047928 0.058675 -0.0034088 0.018687 -0.0088559 -0.021259 0.049144 -0.073874 0.037321 0.058484 -0.033732 -0.014651 -0.0096053 -0.1493 0.076303 -0.014857 0.028935 -0.004295 -0.09858 0.043639 0.025465 0.020861 -0.018613 
津 0.0029384 -0.039752 -0.041888 -0.017818 0.070377 -0.034341 0.019474 0.030557 -0.03409 -0.00093447 -0.0022218 -0.0051584 0.006465 -0.015449 0.026308 -0.026998 -0.032668 0.028311 -0.0015176 0.0027208 0.066134 -0.032616 0.00034373 0.017112 0.026416 0.082083 0.0044542 -0.012384 -0.0041732 0.0015471 
哈 0.014253 0.034411 0.002797 0.030615 -0.067368 0.01247 0.0055378 -0.030236 0.055725 0.001366 0.0064529 -0.0034768 -0.013015 0.0074448 -0.037505 0.026161 0.025562 -0.016015 0.00076581 -0.0034509 -0.064743 0.060736 -0.010348 0.0067443 0.015552 -0.066085 0.01268 0.043713 -0.00098622 -0.017081 
无 -0.003789 0.047517 0.047087 0.036112 -0.081054 0.047112 0.022897 -0.038641 0.052429 0.02911 0.027933 0.012778 -0.028212 0.026661 -0.040902 0.017353 0.054528 0.00077385 -0.0080249 -0.004827 -0.11039 0.051466 -0.0061293 0.0054116 -0.0021975 -0.09188 0.038136 0.03062 0.028809 -0.017688 
男 -0.0058653 0.019063 0.01942 0.040052 -0.050547 0.03155 0.024642 -0.030401 0.019878 0.016426 0.010246 0.016218 -0.024585 0.0171 -0.035021 0.016119 0.03369 0.0064557 -0.013744 -0.019159 -0.064551 0.035176 0.0024454 0.036199 -0.0026537 -0.049421 0.028065 0.0024918 -0.0029309 -0.001002 
死 0.0017773 0.03412 0.031438 0.030708 -0.045752 0.013964 0.020282 -0.012676 0.03455 -0.003431 0.0077095 0.0080032 -0.02578 0.0077112 -0.022424 0.015945 0.031893 -0.0096555 0.0043019 -0.0088859 -0.059889 0.033328 -0.0076624 0.024232 0.0041076 -0.082873 0.012328 0.015409 0.021263 0.0014428 
笑 -0.019898 0.059512 0.077444 0.044355 -0.14101 0.048713 0.023946 -0.060966 0.058308 0.044044 0.021164 0.00023611 -0.062849 0.026277 -0.10705 0.012299 0.069156 -0.026846 0.0061392 -0.029229 -0.15662 0.082417 0.01465 0.038655 -0.015083 -0.13925 0.038461 0.014801 0.025864 -0.014763 
连 -0.018529 0.044624 0.019382 0.025313 -0.059189 0.0289 -0.0020102 -0.015845 0.041788 0.019662 0.016482 -0.00061788 -0.01624 0.033454 -0.050166 0.0072227 0.028757 -0.039132 0.020761 -0.0061558 -0.049155 0.044108 0.016445 0.0070115 0.0057655 -0.031332 0.017117 0.0036114 0.01653 -0.0096744 
治 -0.0050212 0.0098737 0.024062 0.035971 -0.055834 0.025507 -0.0037713 -0.023799 0.017103 0.0017669 0.023533 0.012935 -0.01904 0.0072545 -0.042264 0.019126 0.046434 -0.0072593 0.0025076 -0.013903 -0.076516 0.046243 -0.0044415 0.02386 -0.0038539 -0.051806 0.024116 0.019964 0.0032766 -0.0075691 
曲 -0.0060309 0.017539 0.015252 0.014587 -0.00059327 0.00829 -0.0063674 -0.01706 -0.0049275 -0.0063852 0.014405 0.0035452 -0.0082353 0.0027626 0.0016762 -0.011705 -0.011022 -0.010545 0.0042032 0.018833 -0.0059675 -0.0047196 0.015638 0.0074299 -0.0034938 0.0015873 0.015014 -0.0022991 -0.011792 0.013884 
请 0.024957 -0.012926 -0.0032159 0.0010746 0.0025535 -0.0063019 0.010321 0.00026373 -0.020522 0.001565 0.0067639 0.006433 -0.01188 0.0013781 0.0044087 -0.011603 0.0044254 -0.0071943 -0.0034326 0.013452 0.0098039 -0.027049 -0.011544 -0.0027074 -0.00059718 -0.009892 -0.00097681 -0.00010935 3.9584e-05 -4.67e-05 
哪 -0.024614 0.036535 0.026748 0.017841 -0.079307 0.033911 0.014538 -0.033737 0.025908 -0.0043961 0.011136 -0.0011495 -0.023077 -0.0021831 -0.05114 0.0087126 0.054927 7.7291e-05 -0.021377 -0.012416 -0.10686 0.066846 -0.0071941 0.015387 -0.0057544 -0.087792 0.045047 0.030451 0.035752 -0.017009 
商 -0.0035061 0.022938 0.014325 0.019882 -0.0042937 0.0061407 -0.0046927 -0.0086533 0.0058557 -0.011446 -0.00030229 -0.0031942 0.00024872 0.013551 -0.022116 -0.0092917 0.023264 -0.011162 0.00023019 -0.0042224 -0.031908 0.0070718 0.004465 -0.0029214 0.0063348 -0.010341 0.0094199 0.016231 0.0069091 -0.0038921 
e -0.022639 0.0057174 0.014035 -0.012718 -0.010469 -0.0043157 -0.019108 0.0019634 -0.0070351 -0.014088 -0.0049051 0.014717 -0.003747 0.019643 -0.01454 0.0031836 0.020618 0.01473 -0.0094823 -0.0014035 -0.0038758 0.012105 0.024507 -0.014158 -0.011397 -0.0061657 -0.0172 0.017565 0.005539 -0.013645 
巴 -0.0051388 0.029343 0.022334 0.014318 -0.056708 0.012021 0.022621 -0.032488 0.013012 0.021035 -0.0058272 -0.012713 -0.026428 0.011676 -0.019049 0.027476 0.025745 0.003217 -0.023043 0.0074248 -0.06965 0.049719 -0.020965 0.036539 -0.019529 -0.073234 0.018357 0.031505 0.016186 -0.0021168 
黄 -0.020254 0.051768 0.048275 0.024509 -0.09797 0.038078 -0.0058377 -0.042434 0.074904 0.020563 0.02323 0.0036775 -0.049349 0.048424 -0.077569 0.049169 0.083267 -0.048215 -0.045196 -0.011188 -0.15909 0.10275 -0.00053296 0.053608 -0.02828 -0.11059 0.039335 0.051 0.014105 -0.00091152 
古 0.02052 -0.0023298 -0.0017376 0.001129 -0.023658 0.022671 0.0084056 -0.0028254 -0.00074222 -0.0020185 0.022555 -0.0011319 -0.0082306 0.012827 -0.0067236 -0.0057088 0.0079489 -0.0020818 -0.015797 -0.0004945 -0.050457 0.034474 -0.012883 0.0044693 -0.0034121 -0.024648 0.0078224 0.0075538 -0.020516 -0.032616 
专 -0.023807 0.049281 0.010903 0.014345 -0.085425 0.024568 0.016462 -0.039986 0.052287 0.0069043 0.03293 0.0062079 -0.030528 0.037778 -0.037841 0.017824 0.021385 -0.010237 -0.020899 -0.022018 -0.10055 0.040661 0.006094 0.022905 0.012065 -0.055234 0.042106 0.016705 0.017071 -0.018757 
宜 -0.018773 -0.0029324 -0.0032045 -0.00055669 -0.018037 0.01636 -0.015567 -0.0064579 0.015612 0.0011166 -0.0049891 0.0022736 -0.018278 0.01012 -0.004716 -0.014812 0.0218 0.0061987 -0.0094296 -0.0050938 -0.020072 0.0065215 0.012479 0.0019657 -0.012121 -0.019918 0.015653 0.0047713 0.010631 -0.011277 
圳 0.0035959 0.0083826 -0.019902 0.010797 0.02296 -0.013948 0.018542 0.012311 -0.019518 -0.020712 -0.0058073 -0.018999 -0.0076538 0.0102 0.0050452 0.00014389 -0.027201 -0.00279 0.004206 -0.0011461 0.012985 -0.022465 -0.0014426 -0.0056879 0.0042501 0.032021 -0.013992 0.022958 -0.012476 0.0044946 
